{"learner":{"attributes":{"best_iteration":"16","best_score":"0.5757477561632792"},"feature_names":[],"feature_types":[],"gradient_booster":{"model":{"gbtree_model_param":{"num_parallel_tree":"1","num_trees":"67"},"iteration_indptr":[0,1,2,3,4,5,6,7,8,9,10,11,12,13,14,15,16,17,18,19,20,21,22,23,24,25,26,27,28,29,30,31,32,33,34,35,36,37,38,39,40,41,42,43,44,45,46,47,48,49,50,51,52,53,54,55,56,57,58,59,60,61,62,63,64,65,66,67],"tree_info":[0,0,0,0,0,0,0,0,0,0,0,0,0,0,0,0,0,0,0,0,0,0,0,0,0,0,0,0,0,0,0,0,0,0,0,0,0,0,0,0,0,0,0,0,0,0,0,0,0,0,0,0,0,0,0,0,0,0,0,0,0,0,0,0,0,0,0],"trees":[{"base_weights":[5.2207564E-3,7.971467E-1,-1.5515338E0,-2.711947E-1,1.4067125E0,-1.4675707E-1,1.2529081E-2,5.3767914E-1,-8.787841E-2,1.11243375E-1,3.4294285E-2,-1.818893E-2,7.856179E-2],"categories":[],"categories_nodes":[],"categories_segments":[],"categories_sizes":[],"default_left":[0,0,0,0,0,0,0,0,0,0,0,0,0],"id":0,"left_children":[1,3,5,7,9,-1,-1,11,-1,-1,-1,-1,-1],"loss_changes":[2.912779E1,1.0577001E1,5.875639E0,5.383574E0,5.7855606E-2,0E0,0E0,1.894131E0,0E0,0E0,0E0,0E0,0E0],"parents":[2147483647,0,0,1,1,2,2,3,3,4,4,7,7],"right_children":[2,4,6,8,10,-1,-1,12,-1,-1,-1,-1,-1],"split_conditions":[2.2106564E-3,2.2867522E-5,5.4410473E-3,5.849296E-5,1.1375105E-3,-1.4675707E-1,1.2529081E-2,7.272882E-6,-8.787841E-2,1.11243375E-1,3.4294285E-2,-1.818893E-2,7.856179E-2],"split_indices":[18,4,14,19,1,0,0,13,0,0,0,0,0],"split_type":[0,0,0,0,0,0,0,0,0,0,0,0,0],"sum_hessian":[2.1623468E1,1.4655906E1,6.9675617E0,5.525997E0,9.129909E0,5.525997E0,1.4415646E0,3.1233897E0,2.4026074E0,7.9286046E0,1.2013037E0,1.4415646E0,1.6818253E0],"tree_param":{"num_deleted":"0","num_feature":"20","num_nodes":"13","size_leaf_vector":"1"}},{"base_weights":[5.183086E-3,7.5488365E-1,-1.4275603E0,-2.5408083E-1,1.3436124E0,-1.4392003E-1,-5.21315E-3,5.151733E-1,-8.228054E-2,1.0666216E-1,3.0769302E-2,-1.8090278E-2,7.6208726E-2],"categories":[],"categories_nodes":[],"categories_segments":[],"categories_sizes":[],"default_left":[0,0,0,0,0,0,0,0,0,0,0,0,0],"id":1,"left_children":[1,3,5,7,9,-1,-1,11,-1,-1,-1,-1,-1],"loss_changes":[2.531363E1,9.528682E0,5.269655E0,4.8063636E0,1.4430046E-1,0E0,0E0,1.7986412E0,0E0,0E0,0E0,0E0,0E0],"parents":[2147483647,0,0,1,1,2,2,3,3,4,4,7,7],"right_children":[2,4,6,8,10,-1,-1,12,-1,-1,-1,-1,-1],"split_conditions":[2.2106564E-3,2.2867522E-5,7.392416E-6,5.849296E-5,4.4762393E-5,-1.4392003E-1,-5.21315E-3,5.2175204E-5,-8.228054E-2,1.0666216E-1,3.0769302E-2,-1.8090278E-2,7.6208726E-2],"split_indices":[18,4,13,19,2,0,0,19,0,0,0,0,0],"split_type":[0,0,0,0,0,0,0,0,0,0,0,0,0],"sum_hessian":[2.1563395E1,1.4466659E1,7.0967364E0,5.540229E0,8.92643E0,4.9079323E0,2.1888041E0,3.100141E0,2.4400878E0,7.7504554E0,1.1759747E0,1.4417435E0,1.6583974E0],"tree_param":{"num_deleted":"0","num_feature":"20","num_nodes":"13","size_leaf_vector":"1"}},{"base_weights":[4.101092E-3,7.170671E-1,-1.3264964E0,-2.3830663E-1,1.2876189E0,-1.2616114E-1,1.4221895E-2,4.9410984E-1,-1.0302298E0,2.7482076E-2,1.0262796E-1,-1.7252343E-2,7.352756E-2,-9.354849E-2,-2.6393402E-2],"categories":[],"categories_nodes":[],"categories_segments":[],"categories_sizes":[],"default_left":[0,0,0,0,0,0,0,0,0,0,0,0,0,0,0],"id":2,"left_children":[1,3,5,7,9,-1,-1,11,13,-1,-1,-1,-1,-1,-1],"loss_changes":[2.2207937E1,8.613255E0,4.7234144E0,4.303301E0,2.19944E-1,0E0,0E0,1.6601708E0,7.161641E-2,0E0,0E0,0E0,0E0,0E0,0E0],"parents":[2147483647,0,0,1,1,2,2,3,3,4,4,7,7,8,8],"right_children":[2,4,6,8,10,-1,-1,12,14,-1,-1,-1,-1,-1,-1],"split_conditions":[2.2106564E-3,2.2867522E-5,5.4410473E-3,5.849296E-5,1.8657052E-5,-1.2616114E-1,1.4221895E-2,5.2175204E-5,3.9928777E-6,2.7482076E-2,1.0262796E-1,-1.7252343E-2,7.352756E-2,-9.354849E-2,-2.6393402E-2],"split_indices":[18,4,14,19,15,0,0,19,0,0,0,0,0,0,0],"split_type":[0,0,0,0,0,0,0,0,0,0,0,0,0,0,0],"sum_hessian":[2.1406876E1,1.4238591E1,7.1682844E0,5.5416193E0,8.696972E0,5.717552E0,1.4507325E0,3.0743477E0,2.4672718E0,1.1472642E0,7.5497074E0,1.4467558E0,1.6275918E0,1.2336359E0,1.2336359E0],"tree_param":{"num_deleted":"0","num_feature":"20","num_nodes":"15","size_leaf_vector":"1"}},{"base_weights":[2.51469E-3,6.8031543E-1,-1.2368419E0,-2.3040076E-1,1.2374436E0,-1.2602285E-1,-1.5821524E-3,4.7450894E-1,-9.833891E-1,2.4927517E-2,9.895802E-2,-1.7126886E-2,7.15102E-2,-9.107578E-2,-2.3537941E-2],"categories":[],"categories_nodes":[],"categories_segments":[],"categories_sizes":[],"default_left":[0,0,0,0,0,0,0,0,0,0,0,0,0,0,0],"id":3,"left_children":[1,3,5,7,9,-1,-1,11,13,-1,-1,-1,-1,-1,-1],"loss_changes":[1.9462927E1,7.8834186E0,4.381196E0,3.931103E0,2.6265717E-1,0E0,0E0,1.5796888E0,1.5723467E-1,0E0,0E0,0E0,0E0,0E0,0E0],"parents":[2147483647,0,0,1,1,2,2,3,3,4,4,7,7,8,8],"right_children":[2,4,6,8,10,-1,-1,12,14,-1,-1,-1,-1,-1,-1],"split_conditions":[2.2106564E-3,2.2867522E-5,7.392416E-6,5.849296E-5,5.261305E-5,-1.2602285E-1,-1.5821524E-3,7.272882E-6,3.1040825E-6,2.4927517E-2,9.895802E-2,-1.7126886E-2,7.15102E-2,-9.107578E-2,-2.3537941E-2],"split_indices":[18,4,13,19,18,0,0,13,16,0,0,0,0,0,0],"split_type":[0,0,0,0,0,0,0,0,0,0,0,0,0,0,0],"sum_hessian":[2.116746E1,1.3975416E1,7.1920433E0,5.5270333E0,8.448383E0,4.9898133E0,2.20223E0,3.0456665E0,2.481367E0,1.121602E0,7.326781E0,1.4463658E0,1.5993006E0,1.2399776E0,1.2413894E0],"tree_param":{"num_deleted":"0","num_feature":"20","num_nodes":"15","size_leaf_vector":"1"}},{"base_weights":[5.3545555E-5,6.4670944E-1,-1.1618997E0,-2.227987E-1,1.1921713E0,-1.11657515E-1,1.5520856E-2,4.560903E-1,-9.398465E-1,9.552247E-2,2.3569258E-2,-1.6338496E-2,6.917318E-2,-8.817506E-2,-2.139422E-2],"categories":[],"categories_nodes":[],"categories_segments":[],"categories_sizes":[],"default_left":[0,0,0,0,0,0,0,0,0,0,0,0,0,0,0],"id":4,"left_children":[1,3,5,7,9,-1,-1,11,13,-1,-1,-1,-1,-1,-1],"loss_changes":[1.7183498E1,7.233968E0,3.9666023E0,3.5959237E0,2.5670242E-1,0E0,0E0,1.4625623E0,2.0352244E-1,0E0,0E0,0E0,0E0,0E0,0E0],"parents":[2147483647,0,0,1,1,2,2,3,3,4,4,7,7,8,8],"right_children":[2,4,6,8,10,-1,-1,12,14,-1,-1,-1,-1,-1,-1],"split_conditions":[2.2106564E-3,2.2867522E-5,5.4410473E-3,5.849296E-5,4.4762393E-5,-1.11657515E-1,1.5520856E-2,5.2175204E-5,4.1699328E-5,9.552247E-2,2.3569258E-2,-1.6338496E-2,6.917318E-2,-8.817506E-2,-2.139422E-2],"split_indices":[18,4,14,19,2,0,0,19,6,0,0,0,0,0,0],"split_type":[0,0,0,0,0,0,0,0,0,0,0,0,0,0,0],"sum_hessian":[2.0869095E1,1.3692376E1,7.176719E0,5.506359E0,8.186017E0,5.722606E0,1.4541126E0,3.0153801E0,2.490979E0,7.0784597E0,1.1075573E0,1.4508535E0,1.5645267E0,1.2460461E0,1.2449328E0],"tree_param":{"num_deleted":"0","num_feature":"20","num_nodes":"15","size_leaf_vector":"1"}},{"base_weights":[-9.673853E-4,6.159328E-1,-1.0932596E0,-2.1547432E-1,1.1511513E0,-1.13265276E-1,1.4159784E-3,4.3887112E-1,-8.993635E-1,9.267548E-2,2.0802416E-2,-1.6225716E-2,6.7439735E-2,-8.492265E-2,-1.9939855E-2],"categories":[],"categories_nodes":[],"categories_segments":[],"categories_sizes":[],"default_left":[0,0,0,0,0,0,0,0,0,0,0,0,0,0,0],"id":5,"left_children":[1,3,5,7,9,-1,-1,11,13,-1,-1,-1,-1,-1,-1],"loss_changes":[1.51755E1,6.652942E0,3.797575E0,3.2942092E0,3.156128E-1,0E0,0E0,1.3959274E0,2.1486664E-1,0E0,0E0,0E0,0E0,0E0,0E0],"parents":[2147483647,0,0,1,1,2,2,3,3,4,4,7,7,8,8],"right_children":[2,4,6,8,10,-1,-1,12,14,-1,-1,-1,-1,-1,-1],"split_conditions":[2.2106564E-3,2.2867522E-5,7.392416E-6,5.849296E-5,1.1375105E-3,-1.13265276E-1,1.4159784E-3,7.272882E-6,3.3887292E-3,9.267548E-2,2.0802416E-2,-1.6225716E-2,6.7439735E-2,-8.492265E-2,-1.9939855E-2],"split_indices":[18,4,13,19,1,0,0,13,19,0,0,0,0,0,0],"split_type":[0,0,0,0,0,0,0,0,0,0,0,0,0,0,0],"sum_hessian":[2.0521769E1,1.3393534E1,7.1282344E0,5.4793434E0,7.9141903E0,4.9242086E0,2.204026E0,2.983245E0,2.4960983E0,6.8385363E0,1.0756544E0,1.4497433E0,1.5335016E0,1.249337E0,1.2467613E0],"tree_param":{"num_deleted":"0","num_feature":"20","num_nodes":"15","size_leaf_vector":"1"}},{"base_weights":[-2.9070901E-3,5.874463E-1,-1.0348933E0,-2.0843539E-1,1.1134497E0,-1.00845166E-1,1.6520554E-2,6.3707426E-2,-5.962796E-1,1.8578734E-2,9.0026215E-2,-8.166529E-2,2.3311073E-2],"categories":[],"categories_nodes":[],"categories_segments":[],"categories_sizes":[],"default_left":[0,0,0,0,0,0,0,0,0,0,0,0,0],"id":6,"left_children":[1,3,5,7,9,-1,-1,-1,11,-1,-1,-1,-1],"loss_changes":[1.3486784E1,6.128504E0,3.4272528E0,3.1516008E0,3.52499E-1,0E0,0E0,0E0,2.7088318E0,0E0,0E0,0E0,0E0],"parents":[2147483647,0,0,1,1,2,2,3,3,4,4,8,8],"right_children":[2,4,6,8,10,-1,-1,-1,12,-1,-1,-1,-1],"split_conditions":[2.2106564E-3,2.2867522E-5,5.4410473E-3,4.0523228E-5,5.261305E-5,-1.00845166E-1,1.6520554E-2,6.3707426E-2,4.5295797E-5,1.8578734E-2,9.0026215E-2,-8.166529E-2,2.3311073E-2],"split_indices":[18,4,14,2,18,0,0,0,6,0,0,0,0],"split_type":[0,0,0,0,0,0,0,0,0,0,0,0,0],"sum_hessian":[2.013931E1,1.30848255E1,7.054485E0,5.4469414E0,7.6378837E0,5.6011615E0,1.4533235E0,1.1419818E0,4.30496E0,1.0479858E0,6.589898E0,2.6600459E0,1.6449138E0],"tree_param":{"num_deleted":"0","num_feature":"20","num_nodes":"13","size_leaf_vector":"1"}},{"base_weights":[-8.742074E-4,5.6413215E-1,-9.799407E-1,-1.9219482E-1,1.0786107E0,-1.0371532E-1,3.931383E-3,6.1762393E-2,-5.618101E-1,1.6556868E-2,8.75925E-2,-1.0256884E0,2.228697E-2,-9.024175E-2,-2.647475E-2],"categories":[],"categories_nodes":[],"categories_segments":[],"categories_sizes":[],"default_left":[0,0,0,0,0,0,0,0,0,0,0,0,0,0,0],"id":7,"left_children":[1,3,5,7,9,-1,-1,-1,11,-1,-1,13,-1,-1,-1],"loss_changes":[1.2032109E1,5.574263E0,3.3830724E0,2.877582E0,3.8253498E-1,0E0,0E0,0E0,2.4209325E0,0E0,0E0,1.3935089E-2,0E0,0E0,0E0],"parents":[2147483647,0,0,1,1,2,2,3,3,4,4,8,8,11,11],"right_children":[2,4,6,8,10,-1,-1,-1,12,-1,-1,14,-1,-1,-1],"split_conditions":[2.2106564E-3,2.2867522E-5,7.392416E-6,4.0523228E-5,1.8657052E-5,-1.0371532E-1,3.931383E-3,6.1762393E-2,4.5295797E-5,1.6556868E-2,8.75925E-2,2.0331578E-5,2.228697E-2,-9.024175E-2,-2.647475E-2],"split_indices":[18,4,13,2,15,0,0,0,6,0,0,14,0,0,0],"split_type":[0,0,0,0,0,0,0,0,0,0,0,0,0,0,0],"sum_hessian":[1.9751505E1,1.2792772E1,6.9587336E0,5.4326878E0,7.360084E0,4.7609916E0,2.1977422E0,1.121859E0,4.3108287E0,1.0212038E0,6.3388805E0,2.6731358E0,1.637693E0,1.4909728E0,1.1821629E0],"tree_param":{"num_deleted":"0","num_feature":"20","num_nodes":"15","size_leaf_vector":"1"}},{"base_weights":[-1.8755752E-3,5.3986114E-1,-9.326885E-1,-1.835728E-1,1.0462133E0,-9.9261105E-2,3.7294836E-3,4.1286978E-1,-8.029526E-1,8.531207E-2,1.5046836E-2,-1.601681E-2,6.471646E-2,-7.746776E-2,-1.612473E-2],"categories":[],"categories_nodes":[],"categories_segments":[],"categories_sizes":[],"default_left":[0,0,0,0,0,0,0,0,0,0,0,0,0,0,0],"id":8,"left_children":[1,3,5,7,9,-1,-1,11,13,-1,-1,-1,-1,-1,-1],"loss_changes":[1.0757639E1,5.1326694E0,3.0787153E0,2.6973255E0,3.9571667E-1,0E0,0E0,1.2901367E0,2.4859071E-1,0E0,0E0,0E0,0E0,0E0,0E0],"parents":[2147483647,0,0,1,1,2,2,3,3,4,4,7,7,8,8],"right_children":[2,4,6,8,10,-1,-1,12,14,-1,-1,-1,-1,-1,-1],"split_conditions":[2.2106564E-3,2.2867522E-5,7.392416E-6,5.849296E-5,4.4762393E-5,-9.9261105E-2,3.7294836E-3,5.2175204E-5,3.1040825E-6,8.531207E-2,1.5046836E-2,-1.601681E-2,6.471646E-2,-7.746776E-2,-1.612473E-2],"split_indices":[18,4,13,19,2,0,0,19,16,0,0,0,0,0,0],"split_type":[0,0,0,0,0,0,0,0,0,0,0,0,0,0,0],"sum_hessian":[1.933516E1,1.2487434E1,6.8477244E0,5.404044E0,7.08339E0,4.6506004E0,2.1971242E0,2.9228494E0,2.4811947E0,6.0816674E0,1.001723E0,1.4415886E0,1.4812608E0,1.2396108E0,1.241584E0],"tree_param":{"num_deleted":"0","num_feature":"20","num_nodes":"15","size_leaf_vector":"1"}},{"base_weights":[-3.4702648E-3,5.165224E-1,-8.898298E-1,-1.7786844E-1,1.0159463E0,-1.1922098E0,1.8715363E-2,5.967633E-2,-5.306096E-1,8.30005E-2,1.9393489E-2,-2.9086217E-2,-9.720633E-2,-8.8651264E-1,3.1596396E-2,-9.5730506E-2,3.7449284E-3],"categories":[],"categories_nodes":[],"categories_segments":[],"categories_sizes":[],"default_left":[0,0,0,0,0,0,0,0,0,0,0,0,0,0,0,0,0],"id":9,"left_children":[1,3,5,7,9,11,-1,-1,13,-1,-1,-1,-1,15,-1,-1,-1],"loss_changes":[9.628659E0,4.748294E0,2.9582148E0,2.6066215E0,2.504835E-1,2.1775246E-2,0E0,0E0,2.1585565E0,0E0,0E0,0E0,0E0,1.5816295E0,0E0,0E0,0E0],"parents":[2147483647,0,0,1,1,2,2,3,3,4,4,5,5,8,8,13,13],"right_children":[2,4,6,8,10,12,-1,-1,14,-1,-1,-1,-1,16,-1,-1,-1],"split_conditions":[2.2106564E-3,2.2867522E-5,5.4410473E-3,4.0523228E-5,1.0028703E-3,4.0482602E-5,1.8715363E-2,5.967633E-2,5.8011596E-5,8.30005E-2,1.9393489E-2,-2.9086217E-2,-9.720633E-2,1.5795944E-5,3.1596396E-2,-9.5730506E-2,3.7449284E-3],"split_indices":[18,4,14,2,1,6,0,0,18,0,0,0,0,3,0,0,0],"split_type":[0,0,0,0,0,0,0,0,0,0,0,0,0,0,0,0,0],"sum_hessian":[1.8893757E1,1.2170848E1,6.722909E0,5.360938E0,6.8099093E0,5.276252E0,1.4466575E0,1.0918247E0,4.2691135E0,5.669528E0,1.1403815E0,1.1447705E0,4.131481E0,3.1573145E0,1.111799E0,1.9728665E0,1.184448E0],"tree_param":{"num_deleted":"0","num_feature":"20","num_nodes":"17","size_leaf_vector":"1"}},{"base_weights":[-3.3031527E-3,4.9798772E-1,-8.511813E-1,-1.6576971E-1,9.876304E-1,-9.2890464E-2,5.5817855E-3,5.7962686E-2,-5.045384E-1,1.8497506E-2,8.093956E-2,-7.035835E-2,2.1903677E-2],"categories":[],"categories_nodes":[],"categories_segments":[],"categories_sizes":[],"default_left":[0,0,0,0,0,0,0,0,0,0,0,0,0],"id":10,"left_children":[1,3,5,7,9,-1,-1,-1,11,-1,-1,-1,-1],"loss_changes":[8.696308E0,4.3440228E0,2.8173327E0,2.3984165E0,2.4579906E-1,0E0,0E0,0E0,2.0859733E0,0E0,0E0,0E0,0E0],"parents":[2147483647,0,0,1,1,2,2,3,3,4,4,8,8],"right_children":[2,4,6,8,10,-1,-1,-1,12,-1,-1,-1,-1],"split_conditions":[2.2106564E-3,2.2867522E-5,7.392416E-6,4.0523228E-5,5.262628E-5,-9.2890464E-2,5.5817855E-3,5.7962686E-2,4.5295797E-5,1.8497506E-2,8.093956E-2,-7.035835E-2,2.1903677E-2],"split_indices":[18,4,13,2,18,0,0,0,6,0,0,0,0],"split_type":[0,0,0,0,0,0,0,0,0,0,0,0,0],"sum_hessian":[1.8463003E1,1.1862315E1,6.6006885E0,5.3166013E0,6.5457134E0,4.414973E0,2.185716E0,1.0701883E0,4.2464128E0,1.1260996E0,5.419614E0,2.6347098E0,1.6117032E0],"tree_param":{"num_deleted":"0","num_feature":"20","num_nodes":"13","size_leaf_vector":"1"}},{"base_weights":[-1.7657287E-3,4.8095632E-1,-8.146744E-1,6.9062686E-1,-6.443234E-2,-1.1129154E0,1.9205483E-2,9.4323766E-1,-2.9488537E-1,-2.5146091E-2,-9.1411784E-2,-7.632812E-3,8.721036E-2,-5.346E-4,-3.2995746E-2],"categories":[],"categories_nodes":[],"categories_segments":[],"categories_sizes":[],"default_left":[0,0,0,0,0,0,0,0,0,0,0,0,0,0,0],"id":11,"left_children":[1,3,5,7,-1,9,-1,11,13,-1,-1,-1,-1,-1,-1],"loss_changes":[7.85867E0,4.1244144E0,2.6674914E0,3.1215577E0,0E0,8.734417E-2,0E0,2.2589712E0,1.2593451E-1,0E0,0E0,0E0,0E0,0E0,0E0],"parents":[2147483647,0,0,1,1,2,2,3,3,5,5,7,7,8,8],"right_children":[2,4,6,8,-1,10,-1,12,14,-1,-1,-1,-1,-1,-1],"split_conditions":[2.2106564E-3,1.8796758E-4,5.4410473E-3,2.4936967E-2,-6.443234E-2,1.6231324E-5,1.9205483E-2,5.252528E-5,3.963132E-6,-2.5146091E-2,-9.1411784E-2,-7.632812E-3,8.721036E-2,-5.346E-4,-3.2995746E-2],"split_indices":[18,2,14,5,0,12,0,18,0,0,0,0,0,0,0],"split_type":[0,0,0,0,0,0,0,0,0,0,0,0,0,0,0],"sum_hessian":[1.8028229E1,1.1567536E1,6.4606924E0,1.0421563E1,1.145974E0,5.0223956E0,1.4382968E0,8.329424E0,2.0921385E0,1.1013651E0,3.9210305E0,1.5393809E0,6.7900434E0,1.052798E0,1.0393405E0],"tree_param":{"num_deleted":"0","num_feature":"20","num_nodes":"15","size_leaf_vector":"1"}},{"base_weights":[-7.4558523E-3,4.5519835E-1,-7.813015E-1,-1.6499676E-1,9.383184E-1,-8.7669775E-2,7.176882E-3,5.546489E-2,-4.8785707E-1,7.776345E-2,1.4499941E-2,-8.1326807E-1,2.9469984E-2,-8.903062E-2,4.8567113E-3],"categories":[],"categories_nodes":[],"categories_segments":[],"categories_sizes":[],"default_left":[0,0,0,0,0,0,0,0,0,0,0,0,0,0,0],"id":12,"left_children":[1,3,5,7,9,-1,-1,-1,11,-1,-1,13,-1,-1,-1],"loss_changes":[7.014882E0,3.8319898E0,2.602859E0,2.17851E0,3.1688738E-1,0E0,0E0,0E0,1.8069824E0,0E0,0E0,1.4275472E0,0E0,0E0,0E0],"parents":[2147483647,0,0,1,1,2,2,3,3,4,4,8,8,11,11],"right_children":[2,4,6,8,10,-1,-1,-1,12,-1,-1,14,-1,-1,-1],"split_conditions":[2.2106564E-3,2.2867522E-5,7.392416E-6,4.0523228E-5,1.0028703E-3,-8.7669775E-2,7.176882E-3,5.546489E-2,5.8011596E-5,7.776345E-2,1.4499941E-2,3.119323E-6,2.9469984E-2,-8.903062E-2,4.8567113E-3],"split_indices":[18,4,13,2,1,0,0,0,18,0,0,16,0,0,0],"split_type":[0,0,0,0,0,0,0,0,0,0,0,0,0,0,0],"sum_hessian":[1.7600023E1,1.1272423E1,6.327601E0,5.224306E0,6.048116E0,4.1572313E0,2.1703694E0,1.0347574E0,4.189549E0,4.9956527E0,1.0524632E0,3.1152644E0,1.0742846E0,1.9381425E0,1.1771219E0],"tree_param":{"num_deleted":"0","num_feature":"20","num_nodes":"15","size_leaf_vector":"1"}},{"base_weights":[-6.2357364E-3,4.40105E-1,-7.495531E-1,6.4810526E-1,-6.1238818E-2,-1.0457448E0,1.9561134E-2,8.9593005E-1,-2.8039682E-1,-2.2036279E-2,-8.6511776E-2,-7.306051E-3,8.37879E-2,-2.618191E-4,-3.1464145E-2],"categories":[],"categories_nodes":[],"categories_segments":[],"categories_sizes":[],"default_left":[0,0,0,0,0,0,0,0,0,0,0,0,0,0,0],"id":13,"left_children":[1,3,5,7,-1,9,-1,11,13,-1,-1,-1,-1,-1,-1],"loss_changes":[6.3528347E0,3.658632E0,2.4217439E0,2.743267E0,0E0,1.2715054E-1,0E0,2.039888E0,1.1577605E-1,0E0,0E0,0E0,0E0,0E0,0E0],"parents":[2147483647,0,0,1,1,2,2,3,3,5,5,7,7,8,8],"right_children":[2,4,6,8,-1,10,-1,12,14,-1,-1,-1,-1,-1,-1],"split_conditions":[2.2106564E-3,1.8796758E-4,5.4410473E-3,2.4936967E-2,-6.1238818E-2,1.6231324E-5,1.9561134E-2,5.252528E-5,3.963132E-6,-2.2036279E-2,-8.6511776E-2,-7.306051E-3,8.37879E-2,-2.618191E-4,-3.1464145E-2],"split_indices":[18,2,14,5,0,12,0,18,0,0,0,0,0,0,0],"split_type":[0,0,0,0,0,0,0,0,0,0,0,0,0,0,0],"sum_hessian":[1.7153847E1,1.0972871E1,6.180976E0,9.830022E0,1.142849E0,4.7526984E0,1.4282775E0,7.7867537E0,2.043268E0,1.0627812E0,3.689917E0,1.5203409E0,6.2664127E0,1.0260916E0,1.0171765E0],"tree_param":{"num_deleted":"0","num_feature":"20","num_nodes":"15","size_leaf_vector":"1"}},{"base_weights":[-1.1456867E-2,4.1673034E-1,-7.202421E-1,-1.6559546E-1,8.9384013E-1,-8.329452E-2,8.555283E-3,3.5272652E-1,-6.8857116E-1,7.474093E-2,1.2288811E-2,-1.5021659E-2,5.799947E-2,-6.828576E-2,-1.1235105E-2],"categories":[],"categories_nodes":[],"categories_segments":[],"categories_sizes":[],"default_left":[0,0,0,0,0,0,0,0,0,0,0,0,0,0,0],"id":14,"left_children":[1,3,5,7,9,-1,-1,11,13,-1,-1,-1,-1,-1,-1],"loss_changes":[5.6811824E0,3.3949227E0,2.4206865E0,1.8982043E0,3.300352E-1,0E0,0E0,1.0220678E0,2.6751912E-1,0E0,0E0,0E0,0E0,0E0,0E0],"parents":[2147483647,0,0,1,1,2,2,3,3,4,4,7,7,8,8],"right_children":[2,4,6,8,10,-1,-1,12,14,-1,-1,-1,-1,-1,-1],"split_conditions":[2.2106564E-3,2.2867522E-5,7.392416E-6,5.849296E-5,1.0028703E-3,-8.329452E-2,8.555283E-3,5.2175204E-5,4.1699328E-5,7.474093E-2,1.2288811E-2,-1.5021659E-2,5.799947E-2,-6.828576E-2,-1.1235105E-2],"split_indices":[18,4,13,19,1,0,0,19,6,0,0,0,0,0,0],"split_type":[0,0,0,0,0,0,0,0,0,0,0,0,0,0,0],"sum_hessian":[1.6730358E1,1.0686526E1,6.0438323E0,5.1066446E0,5.579882E0,3.8918135E0,2.1520188E0,2.7282305E0,2.378414E0,4.57154E0,1.0083419E0,1.4048712E0,1.3233593E0,1.1959246E0,1.1824892E0],"tree_param":{"num_deleted":"0","num_feature":"20","num_nodes":"15","size_leaf_vector":"1"}},{"base_weights":[-1.2104052E-2,-5.176729E-1,5.447231E-1,3.915318E-2,-7.2674155E-1,9.1346896E-1,-3.311981E-2,-9.1836923E-1,1.4713426E-2,7.677206E-2,1.1972474E-2,-3.1405824E-1,-8.9447595E-2,-5.406992E-2,1.921973E-2],"categories":[],"categories_nodes":[],"categories_segments":[],"categories_sizes":[],"default_left":[0,0,0,0,0,0,0,0,0,0,0,0,0,0,0],"id":15,"left_children":[1,3,5,-1,7,9,-1,11,-1,-1,-1,13,-1,-1,-1],"loss_changes":[5.153465E0,2.4623451E0,3.5756207E0,0E0,1.6650968E0,3.9085388E-1,0E0,8.0695534E-1,0E0,0E0,0E0,1.0161364E0,0E0,0E0,0E0],"parents":[2147483647,0,0,1,1,2,2,4,4,5,5,7,7,11,11],"right_children":[2,4,6,-1,8,10,-1,12,-1,-1,-1,14,-1,-1,-1],"split_conditions":[2.2918288E-5,4.0523228E-5,9.904384E-3,3.915318E-2,3.29958E-5,4.2453958E-6,-3.311981E-2,2.4922505E-5,1.4713426E-2,7.677206E-2,1.1972474E-2,1.9393447E-5,-8.9447595E-2,-5.406992E-2,1.921973E-2],"split_indices":[4,2,18,0,9,0,0,7,0,0,0,10,0,0,0],"split_type":[0,0,0,0,0,0,0,0,0,0,0,0,0,0,0],"sum_hessian":[1.6304533E1,8.582451E0,7.7220826E0,1.1862323E0,7.396219E0,5.6744823E0,2.0476003E0,6.1286473E0,1.2675711E0,4.6387305E0,1.035752E0,2.5828137E0,3.5458338E0,1.3532839E0,1.2295297E0],"tree_param":{"num_deleted":"0","num_feature":"20","num_nodes":"15","size_leaf_vector":"1"}},{"base_weights":[-1.212566E-2,3.8940364E-1,-6.706494E-1,5.9555453E-1,-5.7861257E-2,-7.9290815E-2,8.735468E-3,8.4479254E-1,-2.0982066E-2,-6.494275E-3,7.9954E-2],"categories":[],"categories_nodes":[],"categories_segments":[],"categories_sizes":[],"default_left":[0,0,0,0,0,0,0,0,0,0,0],"id":16,"left_children":[1,3,5,7,-1,-1,-1,9,-1,-1,-1],"loss_changes":[4.7354007E0,3.1265173E0,2.18512E0,2.424104E0,0E0,0E0,0E0,1.7521424E0,0E0,0E0,0E0],"parents":[2147483647,0,0,1,1,2,2,3,3,7,7],"right_children":[2,4,6,8,-1,-1,-1,10,-1,-1,-1],"split_conditions":[2.2106564E-3,1.8796758E-4,7.392416E-6,2.4936967E-2,-5.7861257E-2,-7.9290815E-2,8.735468E-3,5.252528E-5,-2.0982066E-2,-6.494275E-3,7.9954E-2],"split_indices":[18,2,13,5,0,0,0,18,0,0,0],"split_type":[0,0,0,0,0,0,0,0,0,0,0],"sum_hessian":[1.5921208E1,1.0144411E1,5.7767973E0,9.028168E0,1.1162431E0,3.6440458E0,2.1327515E0,7.054371E0,1.9737971E0,1.4709888E0,5.583382E0],"tree_param":{"num_deleted":"0","num_feature":"20","num_nodes":"11","size_leaf_vector":"1"}},{"base_weights":[-1.5779976E-2,-4.8972702E-1,5.205634E-1,3.795357E-2,-6.937277E-1,8.744878E-1,-2.9801685E-2,-8.719445E-1,1.2259588E-2,1.0990166E-2,7.402077E-2,-3.010645E-1,-8.5060075E-2,-5.1581215E-2,1.8303238E-2],"categories":[],"categories_nodes":[],"categories_segments":[],"categories_sizes":[],"default_left":[0,0,0,0,0,0,0,0,0,0,0,0,0,0,0],"id":17,"left_children":[1,3,5,-1,7,9,-1,11,-1,-1,-1,13,-1,-1,-1],"loss_changes":[4.4521236E0,2.2363644E0,3.0213885E0,0E0,1.3836896E0,3.6723375E-1,0E0,6.8895054E-1,0E0,0E0,0E0,9.114883E-1,0E0,0E0,0E0],"parents":[2147483647,0,0,1,1,2,2,4,4,5,5,7,7,11,11],"right_children":[2,4,6,-1,8,10,-1,12,-1,-1,-1,14,-1,-1,-1],"split_conditions":[2.2918288E-5,4.0523228E-5,9.904384E-3,3.795357E-2,3.29958E-5,1.8684414E-5,-2.9801685E-2,2.4922505E-5,1.2259588E-2,1.0990166E-2,7.402077E-2,1.9393447E-5,-8.5060075E-2,-5.1581215E-2,1.8303238E-2],"split_indices":[4,2,18,0,9,15,0,7,0,0,0,10,0,0,0],"split_type":[0,0,0,0,0,0,0,0,0,0,0,0,0,0,0],"sum_hessian":[1.5511472E1,8.280878E0,7.230594E0,1.1562643E0,7.124614E0,5.252637E0,1.9779571E0,5.884055E0,1.2405589E0,1.0110337E0,4.2416034E0,2.527992E0,3.356063E0,1.3258163E0,1.2021757E0],"tree_param":{"num_deleted":"0","num_feature":"20","num_nodes":"15","size_leaf_vector":"1"}},{"base_weights":[-1.5568963E-2,-4.67904E-1,5.03071E-1,2.9611975E-2,-6.979223E-1,8.522375E-1,-2.8506389E-2,-8.8960147E-1,1.1763374E-2,1.0611573E-2,7.2438605E-2,-7.8172736E-2,-1.6513895E-2],"categories":[],"categories_nodes":[],"categories_segments":[],"categories_sizes":[],"default_left":[0,0,0,0,0,0,0,0,0,0,0,0,0],"id":18,"left_children":[1,3,5,-1,7,9,-1,11,-1,-1,-1,-1,-1],"loss_changes":[4.022537E0,2.0894978E0,2.7915637E0,0E0,1.3811243E0,3.513341E-1,0E0,4.185648E-1,0E0,0E0,0E0,0E0,0E0],"parents":[2147483647,0,0,1,1,2,2,4,4,5,5,7,7],"right_children":[2,4,6,-1,8,10,-1,12,-1,-1,-1,-1,-1],"split_conditions":[2.2918288E-5,4.0563715E-5,9.904384E-3,2.9611975E-2,3.29958E-5,1.8684414E-5,-2.8506389E-2,7.3722695E-6,1.1763374E-2,1.0611573E-2,7.2438605E-2,-7.8172736E-2,-1.6513895E-2],"split_indices":[4,2,18,0,9,15,0,13,0,0,0,0,0],"split_type":[0,0,0,0,0,0,0,0,0,0,0,0,0],"sum_hessian":[1.514307E1,8.140825E0,7.0022454E0,1.5627846E0,6.57804E0,5.043318E0,1.9589279E0,5.3398423E0,1.2381977E0,1.0045024E0,4.0388155E0,3.894442E0,1.4454005E0],"tree_param":{"num_deleted":"0","num_feature":"20","num_nodes":"13","size_leaf_vector":"1"}},{"base_weights":[-1.44571625E-2,-3.0690014E-1,7.4117583E-1,1.7708683E-1,-8.8069624E-1,6.91061E-2,1.2125162E-2,6.5174997E-1,-3.981003E-1,-7.9025924E-2,-5.1799426E-3,-3.7258717E-3,6.622915E-2,-5.9058953E-2,2.6133781E-2],"categories":[],"categories_nodes":[],"categories_segments":[],"categories_sizes":[],"default_left":[0,0,0,0,0,0,0,0,0,0,0,0,0,0,0],"id":19,"left_children":[1,3,5,7,9,-1,-1,11,13,-1,-1,-1,-1,-1,-1],"loss_changes":[3.7195194E0,3.5163603E0,3.4217906E-1,2.278847E0,7.280488E-1,0E0,0E0,7.628603E-1,1.4268794E0,0E0,0E0,0E0,0E0,0E0,0E0],"parents":[2147483647,0,0,1,1,2,2,3,3,4,4,7,7,8,8],"right_children":[2,4,6,8,10,-1,-1,12,14,-1,-1,-1,-1,-1,-1],"split_conditions":[2.5651047E-5,4.1619534E-4,1.5547757E-5,6.0435184E-5,2.6381006E-3,6.91061E-2,1.2125162E-2,5.1876155E-5,4.6794514E-5,-7.9025924E-2,-5.1799426E-3,-3.7258717E-3,6.622915E-2,-5.9058953E-2,2.6133781E-2],"split_indices":[8,18,3,19,14,0,0,19,6,0,0,0,0,0,0],"split_type":[0,0,0,0,0,0,0,0,0,0,0,0,0,0,0],"sum_hessian":[1.4802603E1,1.1100405E1,3.7021978E0,6.3964705E0,4.7039347E0,2.3738751E0,1.3283225E0,3.4315412E0,2.964929E0,3.6316874E0,1.072247E0,1.0457013E0,2.38584E0,1.9126348E0,1.0522943E0],"tree_param":{"num_deleted":"0","num_feature":"20","num_nodes":"15","size_leaf_vector":"1"}},{"base_weights":[-1.1918272E-2,-2.949777E-1,7.189163E-1,1.7085096E-1,-8.524058E-1,6.746524E-2,1.1625658E-2,6.312427E-1,-3.7834132E-1,-7.690574E-2,-4.9803113E-3,-3.581742E-3,6.462895E-2,-5.630525E-2,2.526789E-2],"categories":[],"categories_nodes":[],"categories_segments":[],"categories_sizes":[],"default_left":[0,0,0,0,0,0,0,0,0,0,0,0,0,0,0],"id":20,"left_children":[1,3,5,7,9,-1,-1,11,13,-1,-1,-1,-1,-1,-1],"loss_changes":[3.4064283E0,3.2199636E0,3.292799E-1,2.0802176E0,6.8753386E-1,0E0,0E0,7.197714E-1,1.3040497E0,0E0,0E0,0E0,0E0,0E0,0E0],"parents":[2147483647,0,0,1,1,2,2,3,3,4,4,7,7,8,8],"right_children":[2,4,6,8,10,-1,-1,12,14,-1,-1,-1,-1,-1,-1],"split_conditions":[2.5651047E-5,4.1619534E-4,1.5547757E-5,6.0435184E-5,2.6381006E-3,6.746524E-2,1.1625658E-2,5.1876155E-5,4.6794514E-5,-7.690574E-2,-4.9803113E-3,-3.581742E-3,6.462895E-2,-5.630525E-2,2.526789E-2],"split_indices":[8,18,3,19,14,0,0,19,6,0,0,0,0,0,0],"split_type":[0,0,0,0,0,0,0,0,0,0,0,0,0,0,0],"sum_hessian":[1.4441438E1,1.0839554E1,3.6018834E0,6.2827334E0,4.556821E0,2.2772827E0,1.3246007E0,3.3364022E0,2.946331E0,3.4851308E0,1.0716901E0,1.046408E0,2.289994E0,1.904913E0,1.0414182E0],"tree_param":{"num_deleted":"0","num_feature":"20","num_nodes":"15","size_leaf_vector":"1"}},{"base_weights":[-9.442341E-3,-4.21E-1,4.7385174E-1,3.535392E-2,-6.103338E-1,8.0442894E-1,-2.5161352E-2,-7.8551555E-1,1.2784148E-2,6.9179036E-2,1.1271536E-2,-2.5372878E-1,-7.7975236E-2,-4.6764046E-2,1.8883845E-2],"categories":[],"categories_nodes":[],"categories_segments":[],"categories_sizes":[],"default_left":[0,0,0,0,0,0,0,0,0,0,0,0,0,0,0],"id":21,"left_children":[1,3,5,-1,7,9,-1,11,-1,-1,-1,13,-1,-1,-1],"loss_changes":[3.2010138E0,1.7541924E0,2.2526145E0,0E0,1.1728976E0,2.9008126E-1,0E0,5.9883356E-1,0E0,0E0,0E0,7.900976E-1,0E0,0E0,0E0],"parents":[2147483647,0,0,1,1,2,2,4,4,5,5,7,7,11,11],"right_children":[2,4,6,-1,8,10,-1,12,-1,-1,-1,14,-1,-1,-1],"split_conditions":[2.2918288E-5,4.0523228E-5,9.904384E-3,3.535392E-2,3.29958E-5,3.050974E-5,-2.5161352E-2,2.4922505E-5,1.2784148E-2,6.9179036E-2,1.1271536E-2,1.9393447E-5,-7.7975236E-2,-4.6764046E-2,1.8883845E-2],"split_indices":[4,2,18,0,9,11,0,7,0,0,0,10,0,0,0],"split_type":[0,0,0,0,0,0,0,0,0,0,0,0,0,0,0],"sum_hessian":[1.4090353E1,7.679572E0,6.4107814E0,1.0834147E0,6.5961576E0,4.5559473E0,1.8548341E0,5.382467E0,1.2136906E0,3.512486E0,1.0434612E0,2.3867686E0,2.995698E0,1.2436076E0,1.143161E0],"tree_param":{"num_deleted":"0","num_feature":"20","num_nodes":"15","size_leaf_vector":"1"}},{"base_weights":[-8.999496E-3,-2.803651E-1,6.8988717E-1,1.5704657E-1,-8.068511E-1,6.742595E-2,1.1410231E-2,6.026927E-1,-3.6510938E-1,-7.384123E-2,-3.5213456E-3,-3.506642E-3,6.2334914E-2,-5.045525E-2,1.4986373E-2],"categories":[],"categories_nodes":[],"categories_segments":[],"categories_sizes":[],"default_left":[0,0,0,0,0,0,0,0,0,0,0,0,0,0,0],"id":22,"left_children":[1,3,5,7,9,-1,-1,11,13,-1,-1,-1,-1,-1,-1],"loss_changes":[2.9928832E0,2.7390285E0,3.5999393E-1,1.8565984E0,6.70877E-1,0E0,0E0,6.5777695E-1,8.0545753E-1,0E0,0E0,0E0,0E0,0E0,0E0],"parents":[2147483647,0,0,1,1,2,2,3,3,4,4,7,7,8,8],"right_children":[2,4,6,8,10,-1,-1,12,14,-1,-1,-1,-1,-1,-1],"split_conditions":[2.5651047E-5,4.1619534E-4,1.1990846E-4,6.0435184E-5,2.6381006E-3,6.742595E-2,1.1410231E-2,5.1876155E-5,2.2867522E-5,-7.384123E-2,-3.5213456E-3,-3.506642E-3,6.2334914E-2,-5.045525E-2,1.4986373E-2],"split_indices":[8,18,5,19,14,0,0,19,4,0,0,0,0,0,0],"split_type":[0,0,0,0,0,0,0,0,0,0,0,0,0,0,0],"sum_hessian":[1.3760911E1,1.0343535E1,3.4173753E0,6.0329704E0,4.310565E0,1.9768124E0,1.4405628E0,3.1717377E0,2.8612325E0,3.2540028E0,1.0565623E0,1.03229E0,2.139448E0,1.7289233E0,1.1323092E0],"tree_param":{"num_deleted":"0","num_feature":"20","num_nodes":"15","size_leaf_vector":"1"}},{"base_weights":[-6.8273973E-3,-2.7052778E-1,6.684943E-1,1.515129E-1,-7.8206855E-1,6.427746E-2,8.814468E-3,5.8422977E-1,-3.5031724E-1,-7.2010316E-2,-3.3863739E-3,-3.6349518E-3,6.0956296E-2,-4.8526514E-2,1.4463992E-2],"categories":[],"categories_nodes":[],"categories_segments":[],"categories_sizes":[],"default_left":[0,0,0,0,0,0,0,0,0,0,0,0,0,0,0],"id":23,"left_children":[1,3,5,7,9,-1,-1,11,13,-1,-1,-1,-1,-1,-1],"loss_changes":[2.7493687E0,2.5115857E0,3.4995246E-1,1.705479E0,6.355021E-1,0E0,0E0,6.3017833E-1,7.412641E-1,0E0,0E0,0E0,0E0,0E0,0E0],"parents":[2147483647,0,0,1,1,2,2,3,3,4,4,7,7,8,8],"right_children":[2,4,6,8,10,-1,-1,12,14,-1,-1,-1,-1,-1,-1],"split_conditions":[2.5651047E-5,4.1619534E-4,1.5547757E-5,6.0435184E-5,2.6381006E-3,6.427746E-2,8.814468E-3,3.5450623E-5,2.2867522E-5,-7.2010316E-2,-3.3863739E-3,-3.6349518E-3,6.0956296E-2,-4.8526514E-2,1.4463992E-2],"split_indices":[8,18,3,19,14,0,0,1,4,0,0,0,0,0,0],"split_type":[0,0,0,0,0,0,0,0,0,0,0,0,0,0,0],"sum_hessian":[1.3423208E1,1.00847225E1,3.3384852E0,5.9114013E0,4.1733217E0,2.0734553E0,1.2650297E0,3.0861151E0,2.8252861E0,3.1171741E0,1.0561473E0,1.0279602E0,2.058155E0,1.703545E0,1.121741E0],"tree_param":{"num_deleted":"0","num_feature":"20","num_nodes":"15","size_leaf_vector":"1"}},{"base_weights":[-4.983952E-3,-2.611028E-1,6.487552E-1,1.4630194E-1,-7.583882E-1,6.475561E-2,9.103456E-3,5.6647277E-1,-3.3622998E-1,-7.026907E-2,-3.2565787E-3,-3.323935E-3,6.0183488E-2,-4.6691805E-2,1.3959918E-2],"categories":[],"categories_nodes":[],"categories_segments":[],"categories_sizes":[],"default_left":[0,0,0,0,0,0,0,0,0,0,0,0,0,0,0],"id":24,"left_children":[1,3,5,7,9,-1,-1,11,13,-1,-1,-1,-1,-1,-1],"loss_changes":[2.5278583E0,2.3058476E0,3.7654388E-1,1.5677916E0,6.027074E-1,0E0,0E0,6.126356E-1,6.826699E-1,0E0,0E0,0E0,0E0,0E0,0E0],"parents":[2147483647,0,0,1,1,2,2,3,3,4,4,7,7,8,8],"right_children":[2,4,6,8,10,-1,-1,12,14,-1,-1,-1,-1,-1,-1],"split_conditions":[2.5651047E-5,4.1619534E-4,1.1990846E-4,6.0435184E-5,2.6381006E-3,6.475561E-2,9.103456E-3,2.9261695E-5,2.2867522E-5,-7.026907E-2,-3.2565787E-3,-3.323935E-3,6.0183488E-2,-4.6691805E-2,1.3959918E-2],"split_indices":[8,18,5,19,14,0,0,9,4,0,0,0,0,0,0],"split_type":[0,0,0,0,0,0,0,0,0,0,0,0,0,0,0],"sum_hessian":[1.3085872E1,9.833824E0,3.2520478E0,5.7933655E0,4.040458E0,1.8584442E0,1.3936037E0,3.003805E0,2.7895608E0,2.9847136E0,1.0557446E0,1.0634271E0,1.9403778E0,1.6779811E0,1.1115795E0],"tree_param":{"num_deleted":"0","num_feature":"20","num_nodes":"15","size_leaf_vector":"1"}},{"base_weights":[-2.9748569E-3,-3.6862883E-1,4.3478984E-1,2.7453724E-2,-5.728607E-1,7.4126E-1,-2.1651726E-2,-7.7225626E-1,1.4720587E-2,6.488042E-2,1.0283453E-2,-6.981987E-2,-9.8742265E-3],"categories":[],"categories_nodes":[],"categories_segments":[],"categories_sizes":[],"default_left":[0,0,0,0,0,0,0,0,0,0,0,0,0],"id":25,"left_children":[1,3,5,-1,7,9,-1,11,-1,-1,-1,-1,-1],"loss_changes":[2.365091E0,1.4170061E0,1.7056923E0,0E0,1.1769474E0,2.5584912E-1,0E0,4.3773222E-1,0E0,0E0,0E0,0E0,0E0],"parents":[2147483647,0,0,1,1,2,2,4,4,5,5,7,7],"right_children":[2,4,6,-1,8,10,-1,12,-1,-1,-1,-1,-1],"split_conditions":[2.2918288E-5,4.0563715E-5,9.904384E-3,2.7453724E-2,3.29958E-5,3.0462521E-5,-2.1651726E-2,7.3722695E-6,1.4720587E-2,6.488042E-2,1.0283453E-2,-6.981987E-2,-9.8742265E-3],"split_indices":[4,2,18,0,9,11,0,13,0,0,0,0,0],"split_type":[0,0,0,0,0,0,0,0,0,0,0,0,0],"sum_hessian":[1.2774034E1,7.0463343E0,5.727699E0,1.3603733E0,5.6859612E0,4.0061107E0,1.7215883E0,4.512146E0,1.1738155E0,2.9663126E0,1.0397979E0,3.2531333E0,1.2590126E0],"tree_param":{"num_deleted":"0","num_feature":"20","num_nodes":"13","size_leaf_vector":"1"}},{"base_weights":[-1.5351998E-3,-2.4767898E-1,6.224392E-1,-4.332068E-1,5.02486E-2,6.1375033E-2,6.294451E-3,3.129858E-1,-7.900325E-1,5.51632E-2,-2.6107721E-2,-9.515151E-1,-1.3634168E-3,-7.835764E-2,-2.1100098E-2],"categories":[],"categories_nodes":[],"categories_segments":[],"categories_sizes":[],"default_left":[0,0,0,0,0,0,0,0,0,0,0,0,0,0,0],"id":26,"left_children":[1,3,5,7,-1,-1,-1,9,11,-1,-1,13,-1,-1,-1],"loss_changes":[2.2282164E0,2.0607364E0,3.643378E-1,2.712236E0,0E0,0E0,0E0,1.2926412E0,7.9867697E-1,0E0,0E0,4.320526E-2,0E0,0E0,0E0],"parents":[2147483647,0,0,1,1,2,2,3,3,7,7,8,8,11,11],"right_children":[2,4,6,8,-1,-1,-1,10,12,-1,-1,14,-1,-1,-1],"split_conditions":[2.5651047E-5,3.9064493E-3,1.5547757E-5,1.5235153E-5,5.02486E-2,6.1375033E-2,6.294451E-3,4.1619534E-4,7.394808E-6,5.51632E-2,-2.6107721E-2,2.3121436E-5,-1.3634168E-3,-7.835764E-2,-2.1100098E-2],"split_indices":[8,3,3,3,0,0,0,18,13,0,0,4,0,0,0],"split_type":[0,0,0,0,0,0,0,0,0,0,0,0,0,0,0],"sum_hessian":[1.2504044E1,9.399296E0,3.104747E0,8.257716E0,1.1415799E0,1.8955775E0,1.2091696E0,2.7111113E0,5.5466046E0,1.585313E0,1.1257985E0,4.394457E0,1.1521477E0,3.3670125E0,1.0274445E0],"tree_param":{"num_deleted":"0","num_feature":"20","num_nodes":"15","size_leaf_vector":"1"}},{"base_weights":[2.006359E-3,3.422512E-1,-4.2470554E-1,-2.5252697E-1,7.3892134E-1,-6.6680026E-1,3.0486394E-2,2.8166478E-2,-4.766122E-2,4.3760957E-3,6.847574E-2,-8.2459176E-1,-3.6049082E-3,-1.5883604E-2,-7.364881E-2],"categories":[],"categories_nodes":[],"categories_segments":[],"categories_sizes":[],"default_left":[0,0,0,0,0,0,0,0,0,0,0,0,0,0,0],"id":27,"left_children":[1,3,5,7,9,11,-1,-1,-1,-1,-1,13,-1,-1,-1],"loss_changes":[2.0604043E0,2.048663E0,1.538339E0,1.1774311E0,5.378759E-1,4.7351503E-1,0E0,0E0,0E0,0E0,0E0,1.9000077E-1,0E0,0E0,0E0],"parents":[2147483647,0,0,1,1,2,2,3,3,4,4,5,5,11,11],"right_children":[2,4,6,8,10,12,-1,-1,-1,-1,-1,14,-1,-1,-1],"split_conditions":[2.507397E-5,3.0159317E-5,7.4267464E-6,1.9323981E-5,2.101208E-5,3.2998672E-5,3.0486394E-2,2.8166478E-2,-4.766122E-2,4.3760957E-3,6.847574E-2,4.2076124E-5,-3.6049082E-3,-1.5883604E-2,-7.364881E-2],"split_indices":[7,17,13,10,14,17,0,0,0,0,0,2,0,0,0],"split_type":[0,0,0,0,0,0,0,0,0,0,0,0,0,0,0],"sum_hessian":[1.2190263E1,6.8924236E0,5.297839E0,2.902987E0,3.9894364E0,4.2560024E0,1.0418369E0,1.1069033E0,1.7960837E0,1.0845821E0,2.9048543E0,3.1260755E0,1.129927E0,1.1181395E0,2.007936E0],"tree_param":{"num_deleted":"0","num_feature":"20","num_nodes":"15","size_leaf_vector":"1"}},{"base_weights":[1.2434509E-3,-2.3493433E-1,5.961026E-1,-4.1157836E-1,4.7907036E-2,6.0854055E-2,6.364917E-3,3.037628E-1,-7.528492E-1,5.3530548E-2,-2.4897369E-2,-9.0765804E-1,-1.9354015E-3,-7.536471E-2,-1.9128816E-2],"categories":[],"categories_nodes":[],"categories_segments":[],"categories_sizes":[],"default_left":[0,0,0,0,0,0,0,0,0,0,0,0,0,0,0],"id":28,"left_children":[1,3,5,7,-1,-1,-1,9,11,-1,-1,13,-1,-1,-1],"loss_changes":[1.96153E0,1.8058729E0,3.6778915E-1,2.4073682E0,0E0,0E0,0E0,1.1739125E0,6.889763E-1,0E0,0E0,7.288456E-2,0E0,0E0,0E0],"parents":[2147483647,0,0,1,1,2,2,3,3,7,7,8,8,11,11],"right_children":[2,4,6,8,-1,-1,-1,10,12,-1,-1,14,-1,-1,-1],"split_conditions":[2.5651047E-5,3.9064493E-3,1.1990846E-4,1.5235153E-5,4.7907036E-2,6.0854055E-2,6.364917E-3,4.1619534E-4,7.394808E-6,5.3530548E-2,-2.4897369E-2,2.3121436E-5,-1.9354015E-3,-7.536471E-2,-1.9128816E-2],"split_indices":[8,3,5,3,0,0,0,18,13,0,0,4,0,0,0],"split_type":[0,0,0,0,0,0,0,0,0,0,0,0,0,0,0],"sum_hessian":[1.1964996E1,8.997689E0,2.9673066E0,7.9244437E0,1.0732456E0,1.6748936E0,1.2924128E0,2.5949826E0,5.329461E0,1.5029943E0,1.0919883E0,4.1890645E0,1.1403965E0,3.1762073E0,1.0128573E0],"tree_param":{"num_deleted":"0","num_feature":"20","num_nodes":"15","size_leaf_vector":"1"}},{"base_weights":[4.8430986E-3,-4.186636E-1,3.188055E-1,1.5258665E-1,-6.693493E-2,5.335422E-1,-3.5896637E-2,-1.3259313E-2,3.1131292E-2,7.493116E-1,-1.238114E-2,6.728743E-2,5.5045644E-3],"categories":[],"categories_nodes":[],"categories_segments":[],"categories_sizes":[],"default_left":[0,0,0,0,0,0,0,0,0,0,0,0,0],"id":29,"left_children":[1,3,5,7,-1,9,-1,-1,-1,11,-1,-1,-1],"loss_changes":[1.8189296E0,1.713803E0,1.5990809E0,3.7570477E-1,0E0,1.1269099E0,0E0,0E0,0E0,4.6035075E-1,0E0,0E0,0E0],"parents":[2147483647,0,0,1,1,2,2,3,3,5,5,9,9],"right_children":[2,4,6,8,-1,10,-1,-1,-1,12,-1,-1,-1],"split_conditions":[2.26483E-5,2.4922505E-5,1.8796758E-4,3.0092124E-5,-6.693493E-2,9.904384E-3,-3.5896637E-2,-1.3259313E-2,3.1131292E-2,8.719394E-3,-1.238114E-2,6.728743E-2,5.5045644E-3],"split_indices":[4,7,2,17,0,18,0,0,0,5,0,0,0],"split_type":[0,0,0,0,0,0,0,0,0,0,0,0,0],"sum_hessian":[1.1675931E1,4.828815E0,6.8471155E0,2.4966388E0,2.3321762E0,5.6551723E0,1.1919434E0,1.2520676E0,1.2445712E0,4.2652884E0,1.3898838E0,3.2311566E0,1.0341319E0],"tree_param":{"num_deleted":"0","num_feature":"20","num_nodes":"13","size_leaf_vector":"1"}},{"base_weights":[2.7802812E-3,-2.25086E-1,5.71539E-1,-3.987934E-1,4.6369158E-2,5.883174E-2,5.6861476E-3,2.9176494E-1,-7.2443885E-1,5.135652E-2,-2.2993727E-2,-6.570372E-2,-1.9673838E-3],"categories":[],"categories_nodes":[],"categories_segments":[],"categories_sizes":[],"default_left":[0,0,0,0,0,0,0,0,0,0,0,0,0],"id":30,"left_children":[1,3,5,7,-1,-1,-1,9,11,-1,-1,-1,-1],"loss_changes":[1.7365557E0,1.649285E0,3.4485626E-1,2.133563E0,0E0,0E0,0E0,1.021661E0,6.222863E-1,0E0,0E0,0E0,0E0],"parents":[2147483647,0,0,1,1,2,2,3,3,7,7,8,8],"right_children":[2,4,6,8,-1,-1,-1,10,12,-1,-1,-1,-1],"split_conditions":[2.5651047E-5,3.9064493E-3,1.1990846E-4,1.5235153E-5,4.6369158E-2,5.883174E-2,5.6861476E-3,4.1619534E-4,7.394808E-6,5.135652E-2,-2.2993727E-2,-6.570372E-2,-1.9673838E-3],"split_indices":[8,3,5,3,0,0,0,18,13,0,0,0,0],"split_type":[0,0,0,0,0,0,0,0,0,0,0,0,0],"sum_hessian":[1.1406626E1,8.57529E0,2.8313355E0,7.547765E0,1.0275252E0,1.5733111E0,1.2580246E0,2.452043E0,5.0957217E0,1.392836E0,1.0592072E0,3.9773538E0,1.1183678E0],"tree_param":{"num_deleted":"0","num_feature":"20","num_nodes":"13","size_leaf_vector":"1"}},{"base_weights":[8.530335E-3,3.2398883E-1,-3.8812456E-1,-2.3339574E-1,6.997425E-1,-6.8839324E-1,1.9696165E-2,2.6297042E-2,-4.446054E-2,3.6824197E-3,6.534266E-2,-4.319062E-3,-7.048989E-2],"categories":[],"categories_nodes":[],"categories_segments":[],"categories_sizes":[],"default_left":[0,0,0,0,0,0,0,0,0,0,0,0,0],"id":31,"left_children":[1,3,5,7,9,11,-1,-1,-1,-1,-1,-1,-1],"loss_changes":[1.6465185E0,1.6953189E0,1.3216908E0,9.835305E-1,4.7265935E-1,6.234641E-1,0E0,0E0,0E0,0E0,0E0,0E0,0E0],"parents":[2147483647,0,0,1,1,2,2,3,3,4,4,5,5],"right_children":[2,4,6,8,10,12,-1,-1,-1,-1,-1,-1,-1],"split_conditions":[2.507397E-5,3.0159317E-5,3.2998672E-5,1.9323981E-5,2.101208E-5,4.225287E-5,1.9696165E-2,2.6297042E-2,-4.446054E-2,3.6824197E-3,6.534266E-2,-4.319062E-3,-7.048989E-2],"split_indices":[7,17,17,10,14,2,0,0,0,0,0,0,0],"split_type":[0,0,0,0,0,0,0,0,0,0,0,0,0],"sum_hessian":[1.1153705E1,6.3147774E0,4.838927E0,2.6953764E0,3.619401E0,3.2715054E0,1.5674213E0,1.0361434E0,1.659233E0,1.0233015E0,2.5960994E0,1.2827607E0,1.9887447E0],"tree_param":{"num_deleted":"0","num_feature":"20","num_nodes":"13","size_leaf_vector":"1"}},{"base_weights":[7.694673E-3,-4.3226305E-1,2.8459454E-1,2.15345E-2,-7.078349E-1,4.5201015E-1,-2.7348371E-2,-6.2093828E-2,-1.49300955E-2,6.5279096E-1,-1.9373426E-2,8.105831E-3,7.744688E-1,1.3596747E-2,6.724334E-2],"categories":[],"categories_nodes":[],"categories_segments":[],"categories_sizes":[],"default_left":[0,0,0,0,0,0,0,0,0,0,0,0,0,0,0],"id":32,"left_children":[1,3,5,-1,7,9,-1,-1,-1,11,-1,-1,13,-1,-1],"loss_changes":[1.5787209E0,1.196955E0,1.0274734E0,0E0,7.42408E-2,1.1321708E0,0E0,0E0,0E0,2.8419805E-1,0E0,0E0,1.5435529E-1,0E0,0E0],"parents":[2147483647,0,0,1,1,2,2,4,4,5,5,9,9,12,12],"right_children":[2,4,6,-1,8,10,-1,-1,-1,12,-1,-1,14,-1,-1],"split_conditions":[2.26338E-5,4.0563715E-5,3.4028877E-2,2.15345E-2,4.5295797E-5,3.8609953E-5,-2.7348371E-2,-6.2093828E-2,-1.49300955E-2,3.584577E-5,-1.9373426E-2,8.105831E-3,1.1979231E-3,1.3596747E-2,6.724334E-2],"split_indices":[4,2,18,0,6,1,0,0,0,1,0,0,14,0,0],"split_type":[0,0,0,0,0,0,0,0,0,0,0,0,0,0,0],"sum_hessian":[1.0949193E1,4.0126057E0,6.936587E0,1.0997474E0,2.9128582E0,5.756084E0,1.1805029E0,1.8491147E0,1.0637437E0,4.5507545E0,1.2053297E0,1.1757079E0,3.3750465E0,1.0003282E0,2.3747184E0],"tree_param":{"num_deleted":"0","num_feature":"20","num_nodes":"15","size_leaf_vector":"1"}},{"base_weights":[6.1969347E-3,-2.7574852E-1,4.21207E-1,-4.6122867E-1,2.8753227E-2,-9.858785E-3,6.3368595E-1,9.786515E-2,-6.783631E-2,6.020926E-2,9.515176E-3,-1.4507553E-2,2.93984E-2],"categories":[],"categories_nodes":[],"categories_segments":[],"categories_sizes":[],"default_left":[0,0,0,0,0,0,0,0,0,0,0,0,0],"id":33,"left_children":[1,3,5,7,-1,-1,9,11,-1,-1,-1,-1,-1],"loss_changes":[1.4921793E0,1.106807E0,6.884046E-1,1.6721753E0,0E0,0E0,2.3186862E-1,3.9524168E-1,0E0,0E0,0E0,0E0,0E0],"parents":[2147483647,0,0,1,1,2,2,3,3,6,6,7,7],"right_children":[2,4,6,8,-1,-1,10,12,-1,-1,-1,-1,-1],"split_conditions":[2.317389E-5,4.77592E-5,1.8752105E-5,2.4922505E-5,2.8753227E-2,-9.858785E-3,1.9115485E-5,4.1756208E-5,-6.783631E-2,6.020926E-2,9.515176E-3,-1.4507553E-2,2.93984E-2],"split_indices":[4,9,15,7,0,0,15,6,0,0,0,0,0],"split_type":[0,0,0,0,0,0,0,0,0,0,0,0,0],"sum_hessian":[1.0759932E1,6.606938E0,4.152994E0,5.390322E0,1.2166157E0,1.2591902E0,2.8938038E0,2.7282703E0,2.662052E0,1.7319415E0,1.1618625E0,1.5426735E0,1.1855968E0],"tree_param":{"num_deleted":"0","num_feature":"20","num_nodes":"13","size_leaf_vector":"1"}},{"base_weights":[8.795285E-3,-2.0544346E-1,5.320745E-1,1.7396851E-1,-5.552037E-1,5.4105625E-2,3.6725034E-3,4.338744E-1,-3.0378021E-2,-5.9094623E-2,5.9211473E-3,-1.0853043E-2,5.4599088E-2],"categories":[],"categories_nodes":[],"categories_segments":[],"categories_sizes":[],"default_left":[0,0,0,0,0,0,0,0,0,0,0,0,0],"id":34,"left_children":[1,3,5,7,9,-1,-1,11,-1,-1,-1,-1,-1],"loss_changes":[1.4048134E0,1.2803755E0,2.9720128E-1,9.3424344E-1,7.824459E-1,0E0,0E0,7.7948236E-1,0E0,0E0,0E0,0E0,0E0],"parents":[2147483647,0,0,1,1,2,2,3,3,4,4,7,7],"right_children":[2,4,6,8,10,-1,-1,12,-1,-1,-1,-1,-1],"split_conditions":[2.5651047E-5,2.4880455E-5,1.5547757E-5,6.41734E-5,4.77592E-5,5.4105625E-2,3.6725034E-3,2.9261695E-5,-3.0378021E-2,-5.9094623E-2,5.9211473E-3,-1.0853043E-2,5.4599088E-2],"split_indices":[8,7,3,19,9,0,0,9,0,0,0,0,0],"split_type":[0,0,0,0,0,0,0,0,0,0,0,0,0],"sum_hessian":[1.0555977E1,7.920565E0,2.6354117E0,4.040322E0,3.8802433E0,1.5389997E0,1.0964121E0,2.9615839E0,1.078738E0,2.6611497E0,1.2190936E0,1.1693062E0,1.7922777E0],"tree_param":{"num_deleted":"0","num_feature":"20","num_nodes":"13","size_leaf_vector":"1"}},{"base_weights":[9.883367E-3,-1.9808397E-1,5.169896E-1,1.4878559E-1,-5.576364E-1,5.4095324E-2,3.914611E-3,4.8597178E-1,-2.3783037E-2,-5.8296457E-2,3.3076385E-3,3.002323E-3,4.9753044E-2],"categories":[],"categories_nodes":[],"categories_segments":[],"categories_sizes":[],"default_left":[0,0,0,0,0,0,0,0,0,0,0,0,0],"id":35,"left_children":[1,3,5,7,9,-1,-1,11,-1,-1,-1,-1,-1],"loss_changes":[1.2985803E0,1.1763123E0,3.018644E-1,9.7905314E-1,6.3106024E-1,0E0,0E0,2.4569225E-1,0E0,0E0,0E0,0E0,0E0],"parents":[2147483647,0,0,1,1,2,2,3,3,4,4,7,7],"right_children":[2,4,6,8,10,-1,-1,12,-1,-1,-1,-1,-1],"split_conditions":[2.5651047E-5,6.0435184E-5,1.1990846E-4,4.1619534E-4,4.6794514E-5,5.4095324E-2,3.914611E-3,5.2018833E-5,-2.3783037E-2,-5.8296457E-2,3.3076385E-3,3.002323E-3,4.9753044E-2],"split_indices":[8,19,5,18,6,0,0,19,0,0,0,0,0],"split_type":[0,0,0,0,0,0,0,0,0,0,0,0,0],"sum_hessian":[1.0342268E1,7.766545E0,2.5757232E0,4.2513494E0,3.5151951E0,1.4059782E0,1.1697448E0,2.4413464E0,1.8100032E0,2.361466E0,1.1537292E0,1.04362E0,1.3977265E0],"tree_param":{"num_deleted":"0","num_feature":"20","num_nodes":"13","size_leaf_vector":"1"}},{"base_weights":[1.2231637E-2,-3.9459124E-1,2.6376516E-1,2.162231E-2,-5.0112102E-2,4.4377476E-1,-2.2792373E-2,6.368181E-1,-1.1795954E-2,6.349777E-2,-6.0327E-3],"categories":[],"categories_nodes":[],"categories_segments":[],"categories_sizes":[],"default_left":[0,0,0,0,0,0,0,0,0,0,0],"id":36,"left_children":[1,3,5,-1,-1,7,-1,9,-1,-1,-1],"loss_changes":[1.2465029E0,1.0643313E0,9.0105516E-1,0E0,0E0,8.0785966E-1,0E0,7.926729E-1,0E0,0E0,0E0],"parents":[2147483647,0,0,1,1,2,2,5,5,7,7],"right_children":[2,4,6,-1,-1,8,-1,10,-1,-1,-1],"split_conditions":[2.26338E-5,4.0563715E-5,1.8796758E-4,2.162231E-2,-5.0112102E-2,9.904384E-3,-2.2792373E-2,9.654343E-3,-1.1795954E-2,6.349777E-2,-6.0327E-3],"split_indices":[4,2,2,0,0,18,0,5,0,0,0],"split_type":[0,0,0,0,0,0,0,0,0,0,0],"sum_hessian":[1.0164156E1,3.666051E0,6.4981046E0,1.0331805E0,2.6328707E0,5.0993214E0,1.3987832E0,3.8146503E0,1.2846711E0,2.8117433E0,1.002907E0],"tree_param":{"num_deleted":"0","num_feature":"20","num_nodes":"11","size_leaf_vector":"1"}},{"base_weights":[1.1272694E-2,2.962051E-1,-3.5166186E-1,-2.16726E-1,6.5122724E-1,-6.338958E-1,1.8790059E-2,1.7910775E-2,-4.0553253E-2,9.83652E-3,5.9780907E-2,-3.977396E-3,-6.470073E-2],"categories":[],"categories_nodes":[],"categories_segments":[],"categories_sizes":[],"default_left":[0,0,0,0,0,0,0,0,0,0,0,0,0],"id":37,"left_children":[1,3,5,7,9,11,-1,-1,-1,-1,-1,-1,-1],"loss_changes":[1.2378355E0,1.3583231E0,1.055964E0,6.4336574E-1,2.140274E-1,4.6951926E-1,0E0,0E0,0E0,0E0,0E0,0E0,0E0],"parents":[2147483647,0,0,1,1,2,2,3,3,4,4,5,5],"right_children":[2,4,6,8,10,12,-1,-1,-1,-1,-1,-1,-1],"split_conditions":[2.507397E-5,3.0159317E-5,3.2998672E-5,3.9714782E-6,2.2411767E-5,4.225287E-5,1.8790059E-2,1.7910775E-2,-4.0553253E-2,9.83652E-3,5.9780907E-2,-3.977396E-3,-6.470073E-2],"split_indices":[7,17,17,0,14,2,0,0,0,0,0,0,0],"split_type":[0,0,0,0,0,0,0,0,0,0,0,0,0],"sum_hessian":[9.9626875E0,5.684088E0,4.2785993E0,2.48432E0,3.1997685E0,2.8773963E0,1.4012028E0,1.1417966E0,1.3425232E0,1.1167864E0,2.0829823E0,1.161133E0,1.7162633E0],"tree_param":{"num_deleted":"0","num_feature":"20","num_nodes":"13","size_leaf_vector":"1"}},{"base_weights":[1.0310538E-2,2.8560245E-1,-3.3916524E-1,-2.0861647E-1,6.3076246E-1,-6.138745E-1,1.8003054E-2,1.7243227E-2,-3.915741E-2,9.462146E-3,5.8161106E-2,-3.816091E-3,-6.3066505E-2],"categories":[],"categories_nodes":[],"categories_segments":[],"categories_sizes":[],"default_left":[0,0,0,0,0,0,0,0,0,0,0,0,0],"id":38,"left_children":[1,3,5,7,9,11,-1,-1,-1,-1,-1,-1,-1],"loss_changes":[1.1357572E0,1.2545729E0,9.771689E-1,5.954784E-1,2.0336676E-1,4.4525254E-1,0E0,0E0,0E0,0E0,0E0,0E0,0E0],"parents":[2147483647,0,0,1,1,2,2,3,3,4,4,5,5],"right_children":[2,4,6,8,10,12,-1,-1,-1,-1,-1,-1,-1],"split_conditions":[2.507397E-5,3.0159317E-5,3.2998672E-5,3.9714782E-6,2.2411767E-5,4.225287E-5,1.8003054E-2,1.7243227E-2,-3.915741E-2,9.462146E-3,5.8161106E-2,-3.816091E-3,-6.3066505E-2],"split_indices":[7,17,17,0,14,2,0,0,0,0,0,0,0],"split_type":[0,0,0,0,0,0,0,0,0,0,0,0,0],"sum_hessian":[9.7984E0,5.583158E0,4.215242E0,2.458516E0,3.124642E0,2.8185756E0,1.3966662E0,1.1359898E0,1.3225262E0,1.11359E0,2.011052E0,1.1616937E0,1.6568819E0],"tree_param":{"num_deleted":"0","num_feature":"20","num_nodes":"13","size_leaf_vector":"1"}},{"base_weights":[9.372074E-3,-2.4429177E-1,3.8227808E-1,-4.4295272E-1,2.1960167E-2,-9.60123E-3,5.88688E-1,3.0103665E-2,-6.0946055E-2,5.3029153E-2,1.3860815E-2,1.8982446E-2,-1.8185062E-2],"categories":[],"categories_nodes":[],"categories_segments":[],"categories_sizes":[],"default_left":[0,0,0,0,0,0,0,0,0,0,0,0,0],"id":39,"left_children":[1,3,5,7,-1,-1,9,11,-1,-1,-1,-1,-1],"loss_changes":[1.0999678E0,8.705419E-1,5.701936E-1,9.8038995E-1,0E0,0E0,3.7774563E-2,2.657284E-1,0E0,0E0,0E0,0E0,0E0],"parents":[2147483647,0,0,1,1,2,2,3,3,6,6,7,7],"right_children":[2,4,6,8,-1,-1,10,12,-1,-1,-1,-1,-1],"split_conditions":[2.317389E-5,3.29958E-5,1.8752105E-5,2.4922505E-5,2.1960167E-2,-9.60123E-3,1.9105208E-5,6.344347E-3,-6.0946055E-2,5.3029153E-2,1.3860815E-2,1.8982446E-2,-1.8185062E-2],"split_indices":[4,9,15,7,0,0,15,5,0,0,0,0,0],"split_type":[0,0,0,0,0,0,0,0,0,0,0,0,0],"sum_hessian":[9.641198E0,5.943272E0,3.6979263E0,4.466483E0,1.4767891E0,1.1743785E0,2.5235476E0,2.3621712E0,2.1043117E0,1.3710537E0,1.1524941E0,1.3385314E0,1.0236399E0],"tree_param":{"num_deleted":"0","num_feature":"20","num_nodes":"13","size_leaf_vector":"1"}},{"base_weights":[1.0509124E-2,-1.8534374E-1,4.820406E-1,1.5026848E-1,-5.2951014E-1,5.0393518E-2,2.464444E-3,4.5191285E-1,-2.0865401E-2,-5.478848E-2,2.8605515E-3,2.5865496E-3,4.7000248E-2],"categories":[],"categories_nodes":[],"categories_segments":[],"categories_sizes":[],"default_left":[0,0,0,0,0,0,0,0,0,0,0,0,0],"id":40,"left_children":[1,3,5,7,9,-1,-1,11,-1,-1,-1,-1,-1],"loss_changes":[1.0575844E0,1.0186226E0,2.6401782E-1,7.583922E-1,5.110556E-1,0E0,0E0,2.1574062E-1,0E0,0E0,0E0,0E0,0E0],"parents":[2147483647,0,0,1,1,2,2,3,3,4,4,7,7],"right_children":[2,4,6,8,10,-1,-1,12,-1,-1,-1,-1,-1],"split_conditions":[2.5651047E-5,6.0435184E-5,3.0890044E-6,4.1619534E-4,4.6794514E-5,5.0393518E-2,2.464444E-3,3.550101E-5,-2.0865401E-2,-5.478848E-2,2.8605515E-3,2.5865496E-3,4.7000248E-2],"split_indices":[8,19,16,18,6,0,0,1,0,0,0,0,0],"split_type":[0,0,0,0,0,0,0,0,0,0,0,0,0],"sum_hessian":[9.484384E0,7.1298842E0,2.354499E0,3.8950393E0,3.234845E0,1.3064069E0,1.0480921E0,2.2537217E0,1.6413175E0,2.1770535E0,1.0577915E0,1.018433E0,1.2352889E0],"tree_param":{"num_deleted":"0","num_feature":"20","num_nodes":"13","size_leaf_vector":"1"}},{"base_weights":[1.2807103E-2,-2.3148626E-1,3.6834076E-1,-4.0284288E-1,2.5127579E-2,-9.242439E-3,5.712184E-1,8.316533E-2,-6.0970403E-2,5.152725E-2,1.3182028E-2,2.234511E-2,-1.6796472E-2],"categories":[],"categories_nodes":[],"categories_segments":[],"categories_sizes":[],"default_left":[0,0,0,0,0,0,0,0,0,0,0,0,0],"id":41,"left_children":[1,3,5,7,-1,-1,9,11,-1,-1,-1,-1,-1],"loss_changes":[9.822288E-1,7.888076E-1,5.283399E-1,1.1887677E0,0E0,0E0,3.6239266E-2,2.9636374E-1,0E0,0E0,0E0,0E0,0E0],"parents":[2147483647,0,0,1,1,2,2,3,3,6,6,7,7],"right_children":[2,4,6,8,-1,-1,10,12,-1,-1,-1,-1,-1],"split_conditions":[2.317389E-5,4.77592E-5,1.8752105E-5,2.4922505E-5,2.5127579E-2,-9.242439E-3,1.9105208E-5,6.344347E-3,-6.0970403E-2,5.152725E-2,1.3182028E-2,2.234511E-2,-1.6796472E-2],"split_indices":[4,9,15,7,0,0,15,5,0,0,0,0,0],"split_type":[0,0,0,0,0,0,0,0,0,0,0,0,0],"sum_hessian":[9.327189E0,5.7352824E0,3.5919075E0,4.625205E0,1.1100774E0,1.1640315E0,2.427876E0,2.4815285E0,2.1436763E0,1.307629E0,1.120247E0,1.477916E0,1.0036125E0],"tree_param":{"num_deleted":"0","num_feature":"20","num_nodes":"13","size_leaf_vector":"1"}},{"base_weights":[1.4381832E-2,-1.746389E-1,4.655782E-1,1.461182E-1,-5.036721E-1,4.8758946E-2,2.4612087E-3,4.307072E-1,-1.9432787E-2,-5.265562E-2,3.4286168E-3,1.9731217E-3,4.552017E-2],"categories":[],"categories_nodes":[],"categories_segments":[],"categories_sizes":[],"default_left":[0,0,0,0,0,0,0,0,0,0,0,0,0],"id":42,"left_children":[1,3,5,7,9,-1,-1,11,-1,-1,-1,-1,-1],"loss_changes":[9.4840705E-1,9.06566E-1,2.4017817E-1,6.618708E-1,4.812672E-1,0E0,0E0,2.1056473E-1,0E0,0E0,0E0,0E0,0E0],"parents":[2147483647,0,0,1,1,2,2,3,3,4,4,7,7],"right_children":[2,4,6,8,10,-1,-1,12,-1,-1,-1,-1,-1],"split_conditions":[2.5651047E-5,6.0435184E-5,3.0890044E-6,4.1619534E-4,4.6794514E-5,4.8758946E-2,2.4612087E-3,3.550101E-5,-1.9432787E-2,-5.265562E-2,3.4286168E-3,1.9731217E-3,4.552017E-2],"split_indices":[8,19,16,18,6,0,0,1,0,0,0,0,0],"split_type":[0,0,0,0,0,0,0,0,0,0,0,0,0],"sum_hessian":[9.167021E0,6.8924804E0,2.2745402E0,3.7716322E0,3.1208484E0,1.2424649E0,1.0320752E0,2.1786592E0,1.5929729E0,2.0886426E0,1.0322058E0,1.0100771E0,1.1685822E0],"tree_param":{"num_deleted":"0","num_feature":"20","num_nodes":"13","size_leaf_vector":"1"}},{"base_weights":[1.6561197E-2,-3.6453652E-1,2.3025903E-1,3.5652954E-3,-5.060051E-2,-5.338643E-3,5.085245E-2,2.8209494E-2,-3.0812997E-1,-4.7368564E-2,1.8566513E-2],"categories":[],"categories_nodes":[],"categories_segments":[],"categories_sizes":[],"default_left":[0,0,0,0,0,0,0,0,0,0,0],"id":43,"left_children":[1,3,5,-1,-1,7,-1,-1,9,-1,-1],"loss_changes":[9.000203E-1,5.416529E-1,7.455977E-1,0E0,0E0,7.6280427E-1,0E0,0E0,8.163467E-1,0E0,0E0],"parents":[2147483647,0,0,1,1,2,2,5,5,8,8],"right_children":[2,4,6,-1,-1,8,-1,-1,10,-1,-1],"split_conditions":[2.2618022E-5,2.4922505E-5,1.0638102E-4,3.5652954E-3,-5.060051E-2,6.0435184E-5,5.085245E-2,2.8209494E-2,4.6794514E-5,-4.7368564E-2,1.8566513E-2],"split_indices":[4,7,8,0,0,19,0,0,6,0,0],"split_type":[0,0,0,0,0,0,0,0,0,0,0],"sum_hessian":[9.020689E0,2.9873512E0,6.0333385E0,1.646455E0,1.340896E0,4.6007266E0,1.4326115E0,1.928699E0,2.6720278E0,1.6026043E0,1.0694236E0],"tree_param":{"num_deleted":"0","num_feature":"20","num_nodes":"11","size_leaf_vector":"1"}},{"base_weights":[1.5864061E-2,2.3489362E-1,-3.44059E-1,4.6034452E-1,-2.6648108E-2,-4.7423884E-2,2.0896029E-2,-1.3642135E-2,5.8780592E-2],"categories":[],"categories_nodes":[],"categories_segments":[],"categories_sizes":[],"default_left":[0,0,0,0,0,0,0,0,0],"id":44,"left_children":[1,3,5,7,-1,-1,-1,-1,-1],"loss_changes":[8.5947204E-1,1.0596955E0,9.197075E-1,1.2451899E0,0E0,0E0,0E0,0E0,0E0],"parents":[2147483647,0,0,1,1,2,2,3,3],"right_children":[2,4,6,8,-1,-1,-1,-1,-1],"split_conditions":[2.2106564E-3,2.4936967E-2,5.4410473E-3,5.261305E-5,-2.6648108E-2,-4.7423884E-2,2.0896029E-2,-1.3642135E-2,5.8780592E-2],"split_indices":[18,5,14,18,0,0,0,0,0],"split_type":[0,0,0,0,0,0,0,0,0],"sum_hessian":[8.877171E0,5.7347145E0,3.1424565E0,4.308814E0,1.4259003E0,2.1374545E0,1.0050019E0,1.5895817E0,2.7192323E0],"tree_param":{"num_deleted":"0","num_feature":"20","num_nodes":"9","size_leaf_vector":"1"}},{"base_weights":[1.431587E-2,4.0843737E-1,-1.8131644E-1,4.9792062E-2,-6.259128E-3,-3.73037E-1,2.392417E-2,-5.949014E-1,2.4130529E-2,-5.44229E-2,-8.2626E-3],"categories":[],"categories_nodes":[],"categories_segments":[],"categories_sizes":[],"default_left":[0,0,0,0,0,0,0,0,0,0,0],"id":45,"left_children":[1,3,5,-1,-1,7,-1,9,-1,-1,-1],"loss_changes":[8.2144296E-1,4.9808502E-1,8.0677605E-1,0E0,0E0,1.0615414E0,0E0,2.1344781E-1,0E0,0E0,0E0],"parents":[2147483647,0,0,1,1,2,2,5,5,7,7],"right_children":[2,4,6,-1,-1,8,-1,10,-1,-1,-1],"split_conditions":[1.5250721E-5,5.1172846E-4,3.2998672E-5,4.9792062E-2,-6.259128E-3,6.8201683E-4,2.392417E-2,7.394808E-6,2.4130529E-2,-5.44229E-2,-8.2626E-3],"split_indices":[3,18,17,0,0,3,0,13,0,0,0],"split_type":[0,0,0,0,0,0,0,0,0,0,0],"sum_hessian":[8.693365E0,2.522914E0,6.1704516E0,1.4303896E0,1.0925243E0,4.6448812E0,1.52557E0,3.629591E0,1.0152905E0,2.4671826E0,1.1624082E0],"tree_param":{"num_deleted":"0","num_feature":"20","num_nodes":"11","size_leaf_vector":"1"}},{"base_weights":[1.6463889E-2,-1.3426901E-1,3.8681224E-2,1.9342704E-1,-5.174726E-1,-2.0645072E-1,4.302696E-2,-5.0439006E-3,-4.834519E-2,1.5286258E-2,-3.701877E-2],"categories":[],"categories_nodes":[],"categories_segments":[],"categories_sizes":[],"default_left":[0,0,0,0,0,0,0,0,0,0,0],"id":46,"left_children":[1,3,-1,5,7,9,-1,-1,-1,-1,-1],"loss_changes":[7.8831077E-1,1.1213086E0,0E0,8.957056E-1,1.8678427E-1,4.807346E-1,0E0,0E0,0E0,0E0,0E0],"parents":[2147483647,0,0,1,1,3,3,4,4,5,5],"right_children":[2,4,-1,6,8,10,-1,-1,-1,-1,-1],"split_conditions":[7.438749E-6,2.507397E-5,3.8681224E-2,3.0159317E-5,1.7320626E-5,3.9714782E-6,4.302696E-2,-5.0439006E-3,-4.834519E-2,1.5286258E-2,-3.701877E-2],"split_indices":[13,7,0,17,5,0,0,0,0,0,0],"split_type":[0,0,0,0,0,0,0,0,0,0,0],"sum_hessian":[8.55452E0,7.1323595E0,1.4221607E0,4.1115823E0,3.0207772E0,2.2269094E0,1.8846728E0,1.0018401E0,2.018937E0,1.0363271E0,1.1905823E0],"tree_param":{"num_deleted":"0","num_feature":"20","num_nodes":"11","size_leaf_vector":"1"}},{"base_weights":[1.6156673E-2,-2.0924783E-1,3.397556E-1,-3.7468085E-1,2.3584155E-2,-9.397247E-3,4.0256806E-2,6.4623676E-2,-5.6442045E-2,-1.3335097E-2,1.9230505E-2],"categories":[],"categories_nodes":[],"categories_segments":[],"categories_sizes":[],"default_left":[0,0,0,0,0,0,0,0,0,0,0],"id":47,"left_children":[1,3,5,7,-1,-1,-1,9,-1,-1,-1],"loss_changes":[7.577138E-1,6.521508E-1,4.5625687E-1,9.024215E-1,0E0,0E0,0E0,1.9897951E-1,0E0,0E0,0E0],"parents":[2147483647,0,0,1,1,2,2,3,3,7,7],"right_children":[2,4,6,8,-1,-1,-1,10,-1,-1,-1],"split_conditions":[2.317389E-5,4.77592E-5,1.8752105E-5,2.4922505E-5,2.3584155E-2,-9.397247E-3,4.0256806E-2,1.8948242E-5,-5.6442045E-2,-1.3335097E-2,1.9230505E-2],"split_indices":[4,9,15,7,0,0,0,15,0,0,0],"split_type":[0,0,0,0,0,0,0,0,0,0,0],"sum_hessian":[8.413415E0,5.167405E0,3.2460098E0,4.143171E0,1.0242343E0,1.0741948E0,2.171815E0,2.2992077E0,1.8439631E0,1.0477256E0,1.2514821E0],"tree_param":{"num_deleted":"0","num_feature":"20","num_nodes":"11","size_leaf_vector":"1"}},{"base_weights":[1.5469021E-2,-1.5649773E-1,3.217507E-2,1.425356E-1,-4.623357E-1,-1.3979074E-2,3.2305542E-2,-4.5683615E-2,-1.7891588E-3],"categories":[],"categories_nodes":[],"categories_segments":[],"categories_sizes":[],"default_left":[0,0,0,0,0,0,0,0,0],"id":48,"left_children":[1,3,-1,5,7,-1,-1,-1,-1],"loss_changes":[7.2700083E-1,7.3227924E-1,0E0,5.0199246E-1,2.3247188E-1,0E0,0E0,0E0,0E0],"parents":[2147483647,0,0,1,1,3,3,4,4],"right_children":[2,4,-1,6,8,-1,-1,-1,-1],"split_conditions":[2.5651047E-5,6.0435184E-5,3.217507E-2,2.9458753E-5,9.790634E-3,-1.3979074E-2,3.2305542E-2,-4.5683615E-2,-1.7891588E-3],"split_indices":[8,19,0,9,19,0,0,0,0],"split_type":[0,0,0,0,0,0,0,0,0],"sum_hessian":[8.278983E0,6.2863646E0,1.992619E0,3.448521E0,2.8378434E0,1.775479E0,1.6730419E0,1.8345776E0,1.003266E0],"tree_param":{"num_deleted":"0","num_feature":"20","num_nodes":"9","size_leaf_vector":"1"}},{"base_weights":[1.4779051E-2,3.9305484E-1,-1.7354518E-1,4.7999308E-2,-6.164788E-3,-3.5840443E-1,2.2964705E-2,-5.628556E-1,1.3682773E-2,-1.3442654E-2,-5.3162914E-2],"categories":[],"categories_nodes":[],"categories_segments":[],"categories_sizes":[],"default_left":[0,0,0,0,0,0,0,0,0,0,0],"id":49,"left_children":[1,3,5,-1,-1,7,-1,9,-1,-1,-1],"loss_changes":[7.227922E-1,4.4696516E-1,7.152994E-1,0E0,0E0,6.986511E-1,0E0,1.0569227E-1,0E0,0E0,0E0],"parents":[2147483647,0,0,1,1,2,2,5,5,7,7],"right_children":[2,4,6,-1,-1,8,-1,10,-1,-1,-1],"split_conditions":[1.5250721E-5,5.1172846E-4,3.2998672E-5,4.7999308E-2,-6.164788E-3,3.123986E-6,2.2964705E-2,6.035703E-5,1.3682773E-2,-1.3442654E-2,-5.3162914E-2],"split_indices":[3,18,17,0,0,16,0,19,0,0,0],"split_type":[0,0,0,0,0,0,0,0,0,0,0],"sum_hessian":[8.188562E0,2.3603494E0,5.8282127E0,1.3251704E0,1.0351791E0,4.389661E0,1.4385519E0,3.1559367E0,1.2337242E0,1.4840018E0,1.6719351E0],"tree_param":{"num_deleted":"0","num_feature":"20","num_nodes":"11","size_leaf_vector":"1"}},{"base_weights":[1.5165971E-2,1.9764002E-1,-3.5707822E-1,4.27752E-1,-2.8071797E-2,-4.7287818E-2,8.511739E-3,-1.19630685E-2,5.2826136E-2],"categories":[],"categories_nodes":[],"categories_segments":[],"categories_sizes":[],"default_left":[0,0,0,0,0,0,0,0,0],"id":50,"left_children":[1,3,5,7,-1,-1,-1,-1,-1],"loss_changes":[6.871957E-1,1.046552E0,5.016191E-1,9.683298E-1,0E0,0E0,0E0,0E0,0E0],"parents":[2147483647,0,0,1,1,2,2,3,3],"right_children":[2,4,6,8,-1,-1,-1,-1,-1],"split_conditions":[9.904384E-3,2.4936967E-2,7.392416E-6,5.261305E-5,-2.8071797E-2,-4.7287818E-2,8.511739E-3,-1.19630685E-2,5.2826136E-2],"split_indices":[18,5,13,18,0,0,0,0,0],"split_type":[0,0,0,0,0,0,0,0,0],"sum_hessian":[8.078007E0,5.735516E0,2.342491E0,4.269718E0,1.4657978E0,1.2666302E0,1.0758606E0,1.5026551E0,2.7670631E0],"tree_param":{"num_deleted":"0","num_feature":"20","num_nodes":"9","size_leaf_vector":"1"}},{"base_weights":[1.1500194E-2,3.8639146E-1,-1.7323937E-1,4.6534568E-2,-5.04509E-3,-3.4542608E-1,2.1106066E-2,-5.4083467E-1,1.2885362E-2,-1.2587956E-2,-5.1339876E-2],"categories":[],"categories_nodes":[],"categories_segments":[],"categories_sizes":[],"default_left":[0,0,0,0,0,0,0,0,0,0,0],"id":51,"left_children":[1,3,5,-1,-1,7,-1,9,-1,-1,-1],"loss_changes":[6.853028E-1,3.8758537E-1,6.1949354E-1,0E0,0E0,6.273728E-1,0E0,1.0373688E-1,0E0,0E0,0E0],"parents":[2147483647,0,0,1,1,2,2,5,5,7,7],"right_children":[2,4,6,-1,-1,8,-1,10,-1,-1,-1],"split_conditions":[1.5250721E-5,5.1172846E-4,3.2998672E-5,4.6534568E-2,-5.04509E-3,3.123986E-6,2.1106066E-2,6.035703E-5,1.2885362E-2,-1.2587956E-2,-5.1339876E-2],"split_indices":[3,18,17,0,0,16,0,19,0,0,0],"split_type":[0,0,0,0,0,0,0,0,0,0,0],"sum_hessian":[7.928518E0,2.2569504E0,5.6715674E0,1.2462544E0,1.0106958E0,4.287896E0,1.3836718E0,3.0790162E0,1.2088797E0,1.4592472E0,1.6197691E0],"tree_param":{"num_deleted":"0","num_feature":"20","num_nodes":"11","size_leaf_vector":"1"}},{"base_weights":[1.2084421E-2,2.3884666E-1,-2.823856E-1,-1.9607733E-1,5.5678755E-1,-5.079144E-1,1.4143561E-2,5.244312E-3,-2.7603522E-2,1.1032799E-2,5.006696E-2,-1.1379386E-2,-4.6157543E-2],"categories":[],"categories_nodes":[],"categories_segments":[],"categories_sizes":[],"default_left":[0,0,0,0,0,0,0,0,0,0,0,0,0],"id":52,"left_children":[1,3,5,7,9,11,-1,-1,-1,-1,-1,-1,-1],"loss_changes":[6.5682054E-1,8.7361133E-1,5.523144E-1,1.6636008E-1,5.8548212E-2,2.8298318E-2,0E0,0E0,0E0,0E0,0E0,0E0,0E0],"parents":[2147483647,0,0,1,1,2,2,3,3,4,4,5,5],"right_children":[2,4,6,8,10,12,-1,-1,-1,-1,-1,-1,-1],"split_conditions":[2.507397E-5,3.0159317E-5,3.2998672E-5,5.287807E-5,2.4769097E-5,2.2106564E-3,1.4143561E-2,5.244312E-3,-2.7603522E-2,1.1032799E-2,5.006696E-2,-1.1379386E-2,-4.6157543E-2],"split_indices":[7,17,17,18,7,18,0,0,0,0,0,0,0],"split_type":[0,0,0,0,0,0,0,0,0,0,0,0,0],"sum_hessian":[7.8263054E0,4.528184E0,3.2981212E0,2.074155E0,2.454029E0,2.1771235E0,1.1209975E0,1.0474141E0,1.0267409E0,1.0177878E0,1.4362413E0,1.0638741E0,1.1132495E0],"tree_param":{"num_deleted":"0","num_feature":"20","num_nodes":"13","size_leaf_vector":"1"}},{"base_weights":[1.07840495E-2,3.7738672E-1,-1.6935244E-1,4.5150105E-2,-3.9038106E-3,-3.3235425E-1,1.943622E-2,-5.123084E-1,1.3724538E-2,-4.7067102E-2,-6.664569E-3],"categories":[],"categories_nodes":[],"categories_segments":[],"categories_sizes":[],"default_left":[0,0,0,0,0,0,0,0,0,0,0],"id":53,"left_children":[1,3,5,-1,-1,7,-1,9,-1,-1,-1],"loss_changes":[6.404837E-1,3.386825E-1,5.4324114E-1,0E0,0E0,5.7405835E-1,0E0,1.4442134E-1,0E0,0E0,0E0],"parents":[2147483647,0,0,1,1,2,2,5,5,7,7],"right_children":[2,4,6,-1,-1,8,-1,10,-1,-1,-1],"split_conditions":[1.5250721E-5,4.1619534E-4,3.2998672E-5,4.5150105E-2,-3.9038106E-3,1.7005743E-5,1.943622E-2,7.3878496E-6,1.3724538E-2,-4.7067102E-2,-6.664569E-3],"split_indices":[3,18,17,0,0,3,0,13,0,0,0],"split_type":[0,0,0,0,0,0,0,0,0,0,0],"sum_hessian":[7.730849E0,2.1863403E0,5.544509E0,1.171669E0,1.0146712E0,4.1791463E0,1.3653625E0,3.101895E0,1.0772512E0,2.059356E0,1.0425392E0],"tree_param":{"num_deleted":"0","num_feature":"20","num_nodes":"11","size_leaf_vector":"1"}},{"base_weights":[1.2489345E-2,-2.0012338E-1,3.154877E-1,2.0873161E-2,-3.7156874E-1,-7.905669E-3,3.724055E-2,-4.3364465E-2,7.3211505E-3],"categories":[],"categories_nodes":[],"categories_segments":[],"categories_sizes":[],"default_left":[0,0,0,0,0,0,0,0,0],"id":54,"left_children":[1,3,5,-1,7,-1,-1,-1,-1],"loss_changes":[6.192739E-1,5.697178E-1,3.5318628E-1,0E0,5.036885E-1,0E0,0E0,0E0,0E0],"parents":[2147483647,0,0,1,1,2,2,4,4],"right_children":[2,4,6,-1,8,-1,-1,-1,-1],"split_conditions":[2.317389E-5,4.075075E-5,1.875605E-5,2.0873161E-2,4.0394584E-6,-7.905669E-3,3.724055E-2,-4.3364465E-2,7.3211505E-3],"split_indices":[4,2,15,0,0,0,0,0,0],"split_type":[0,0,0,0,0,0,0,0,0],"sum_hessian":[7.6328187E0,4.684939E0,2.9478798E0,1.0715058E0,3.6134334E0,1.0123214E0,1.9355583E0,2.3473475E0,1.2660857E0],"tree_param":{"num_deleted":"0","num_feature":"20","num_nodes":"9","size_leaf_vector":"1"}},{"base_weights":[1.3307335E-2,2.3279448E-1,-2.7080753E-1,-1.5924409E-2,5.203773E-1,-4.8312816E-1,1.2767692E-2,8.462601E-3,4.9317125E-2,-1.0060733E-2,-4.456776E-2],"categories":[],"categories_nodes":[],"categories_segments":[],"categories_sizes":[],"default_left":[0,0,0,0,0,0,0,0,0,0,0],"id":55,"left_children":[1,3,5,-1,7,9,-1,-1,-1,-1,-1],"loss_changes":[5.9609354E-1,7.9664755E-1,4.744006E-1,0E0,1.2406415E-1,4.0004015E-2,0E0,0E0,0E0,0E0,0E0],"parents":[2147483647,0,0,1,1,2,2,4,4,5,5],"right_children":[2,4,6,-1,8,10,-1,-1,-1,-1,-1],"split_conditions":[2.507397E-5,3.0117406E-5,3.2998672E-5,-1.5924409E-2,4.1315485E-5,2.2106564E-3,1.2767692E-2,8.462601E-3,4.9317125E-2,-1.0060733E-2,-4.456776E-2],"split_indices":[7,17,17,0,6,18,0,0,0,0,0],"split_type":[0,0,0,0,0,0,0,0,0,0,0],"sum_hessian":[7.548023E0,4.360241E0,3.1877823E0,1.8140887E0,2.546152E0,2.0874515E0,1.100331E0,1.1002048E0,1.4459473E0,1.0371486E0,1.0503029E0],"tree_param":{"num_deleted":"0","num_feature":"20","num_nodes":"11","size_leaf_vector":"1"}},{"base_weights":[1.2524332E-2,3.6502036E-1,-1.619358E-1,4.268645E-2,-1.0487915E-3,-3.1498432E-1,1.7727606E-2,-4.992925E-1,1.2476959E-2,-1.02971615E-2,-4.83287E-2],"categories":[],"categories_nodes":[],"categories_segments":[],"categories_sizes":[],"default_left":[0,0,0,0,0,0,0,0,0,0,0],"id":56,"left_children":[1,3,5,-1,-1,7,-1,9,-1,-1,-1],"loss_changes":[5.789036E-1,2.4823433E-1,4.6134937E-1,0E0,0E0,5.278537E-1,0E0,1.1507344E-1,0E0,0E0,0E0],"parents":[2147483647,0,0,1,1,2,2,5,5,7,7],"right_children":[2,4,6,-1,-1,8,-1,10,-1,-1,-1],"split_conditions":[1.5250721E-5,1.53567E-4,3.2998672E-5,4.268645E-2,-1.0487915E-3,3.123986E-6,1.7727606E-2,6.035703E-5,1.2476959E-2,-1.02971615E-2,-4.83287E-2],"split_indices":[3,18,17,0,0,16,0,19,0,0,0],"split_type":[0,0,0,0,0,0,0,0,0,0,0],"sum_hessian":[7.452412E0,2.1056564E0,5.3467555E0,1.0424733E0,1.063183E0,4.0136814E0,1.3330741E0,2.8753946E0,1.1382871E0,1.3795993E0,1.4957952E0],"tree_param":{"num_deleted":"0","num_feature":"20","num_nodes":"11","size_leaf_vector":"1"}},{"base_weights":[1.327265E-2,-1.2377866E-1,3.4305274E-2,1.7392465E-1,-4.6812356E-1,-1.8266208E-1,3.9151095E-2,-1.0635847E-2,-4.6194322E-2,6.400004E-3,-2.6986172E-2],"categories":[],"categories_nodes":[],"categories_segments":[],"categories_sizes":[],"default_left":[0,0,0,0,0,0,0,0,0,0,0],"id":57,"left_children":[1,3,-1,5,7,9,-1,-1,-1,-1,-1],"loss_changes":[5.660078E-1,8.17689E-1,0E0,6.6397905E-1,8.6334884E-2,1.7331003E-1,0E0,0E0,0E0,0E0,0E0],"parents":[2147483647,0,0,1,1,3,3,4,4,5,5],"right_children":[2,4,-1,6,8,10,-1,-1,-1,-1,-1],"split_conditions":[7.438749E-6,2.507397E-5,3.4305274E-2,2.2993445E-5,5.6349956E-5,5.3180273E-5,3.9151095E-2,-1.0635847E-2,-4.6194322E-2,6.400004E-3,-2.6986172E-2],"split_indices":[13,7,0,8,18,18,0,0,0,0,0],"split_type":[0,0,0,0,0,0,0,0,0,0,0],"sum_hessian":[7.3686805E0,6.1822457E0,1.186435E0,3.5811095E0,2.601136E0,2.003722E0,1.5773877E0,1.4217324E0,1.1794035E0,1.0036787E0,1.0000433E0],"tree_param":{"num_deleted":"0","num_feature":"20","num_nodes":"11","size_leaf_vector":"1"}},{"base_weights":[1.1947844E-2,3.5406947E-1,-1.5692745E-1,1.999534E-3,3.80225E-2,-2.8967273E-1,1.9999908E-2,-4.569416E-1,8.76439E-3,-4.7260482E-2,1.4272921E-3],"categories":[],"categories_nodes":[],"categories_segments":[],"categories_sizes":[],"default_left":[0,0,0,0,0,0,0,0,0,0,0],"id":58,"left_children":[1,3,5,-1,-1,7,-1,9,-1,-1,-1],"loss_changes":[5.329716E-1,1.3856146E-1,4.2728835E-1,0E0,0E0,4.0830016E-1,0E0,3.336113E-1,0E0,0E0,0E0],"parents":[2147483647,0,0,1,1,2,2,5,5,7,7],"right_children":[2,4,6,-1,-1,8,-1,10,-1,-1,-1],"split_conditions":[1.5250721E-5,3.0043633E-5,3.1474606E-6,1.999534E-3,3.80225E-2,7.392416E-6,1.9999908E-2,1.5856942E-5,8.76439E-3,-4.7260482E-2,1.4272921E-3],"split_indices":[3,17,16,0,0,13,0,3,0,0,0],"split_type":[0,0,0,0,0,0,0,0,0,0,0],"sum_hessian":[7.263108E0,2.037909E0,5.2251987E0,1.0225729E0,1.0153362E0,4.2191553E0,1.0060433E0,2.9013731E0,1.3177823E0,1.889805E0,1.0115681E0],"tree_param":{"num_deleted":"0","num_feature":"20","num_nodes":"11","size_leaf_vector":"1"}},{"base_weights":[1.3899397E-2,1.8484105E-1,-3.269815E-1,3.930929E-1,-2.422572E-2,-4.270573E-2,5.399541E-3,-1.0920143E-2,4.9870413E-2],"categories":[],"categories_nodes":[],"categories_segments":[],"categories_sizes":[],"default_left":[0,0,0,0,0,0,0,0,0],"id":59,"left_children":[1,3,5,7,-1,-1,-1,-1,-1],"loss_changes":[5.376852E-1,7.7143747E-1,3.4050006E-1,7.957211E-1,0E0,0E0,0E0,0E0,0E0],"parents":[2147483647,0,0,1,1,2,2,3,3],"right_children":[2,4,6,8,-1,-1,-1,-1,-1],"split_conditions":[9.904384E-3,2.4936967E-2,7.3878496E-6,5.261305E-5,-2.422572E-2,-4.270573E-2,5.399541E-3,-1.0920143E-2,4.9870413E-2],"split_indices":[18,5,13,18,0,0,0,0,0],"split_type":[0,0,0,0,0,0,0,0,0],"sum_hessian":[7.190141E0,5.0936046E0,2.0965366E0,3.7725718E0,1.3210326E0,1.0383979E0,1.0581388E0,1.4210296E0,2.3515422E0],"tree_param":{"num_deleted":"0","num_feature":"20","num_nodes":"9","size_leaf_vector":"1"}},{"base_weights":[1.0392881E-2,2.2143306E-1,-2.6103383E-1,-1.4613305E-2,4.959889E-1,-4.2715527E-2,2.693438E-3,8.329184E-3,4.675291E-2],"categories":[],"categories_nodes":[],"categories_segments":[],"categories_sizes":[],"default_left":[0,0,0,0,0,0,0,0,0],"id":60,"left_children":[1,3,5,-1,7,-1,-1,-1,-1],"loss_changes":[5.200432E-1,6.7733616E-1,3.8586262E-1,0E0,9.4721854E-2,0E0,0E0,0E0,0E0],"parents":[2147483647,0,0,1,1,2,2,4,4],"right_children":[2,4,6,-1,8,-1,-1,-1,-1],"split_conditions":[2.507397E-5,3.0117406E-5,2.26483E-5,-1.4613305E-2,4.1315485E-5,-4.2715527E-2,2.693438E-3,8.329184E-3,4.675291E-2],"split_indices":[7,17,4,0,6,0,0,0,0],"split_type":[0,0,0,0,0,0,0,0,0],"sum_hessian":[7.069588E0,4.0808372E0,2.9887512E0,1.7372209E0,2.3436162E0,1.0156114E0,1.9731399E0,1.0481344E0,1.2954817E0],"tree_param":{"num_deleted":"0","num_feature":"20","num_nodes":"9","size_leaf_vector":"1"}},{"base_weights":[9.825771E-3,2.6272234E-2,-1.585244E-1,-3.1266704E-1,1.4496477E-2,-4.990991E-1,7.0798965E-3,-4.8726674E-2,-7.980456E-3],"categories":[],"categories_nodes":[],"categories_segments":[],"categories_sizes":[],"default_left":[0,0,0,0,0,0,0,0,0],"id":61,"left_children":[1,-1,3,5,-1,7,-1,-1,-1],"loss_changes":[5.1313275E-1,0E0,3.8746345E-1,3.9433396E-1,0E0,1.2584752E-1,0E0,0E0,0E0],"parents":[2147483647,0,0,2,2,3,3,5,5],"right_children":[2,-1,4,6,-1,8,-1,-1,-1],"split_conditions":[1.5250721E-5,2.6272234E-2,3.123986E-6,7.392416E-6,1.4496477E-2,2.2784132E-5,7.0798965E-3,-4.8726674E-2,-7.980456E-3],"split_indices":[3,0,16,13,0,4,0,0,0],"split_type":[0,0,0,0,0,0,0,0,0],"sum_hessian":[6.9835277E0,1.9530091E0,5.0305185E0,3.5752983E0,1.4552203E0,2.2971406E0,1.2781577E0,1.1873652E0,1.1097753E0],"tree_param":{"num_deleted":"0","num_feature":"20","num_nodes":"9","size_leaf_vector":"1"}},{"base_weights":[7.952652E-3,1.7872582E-1,-2.4375318E-2,3.7934104E-1,-2.2845816E-2,-1.0041859E-2,4.825241E-2],"categories":[],"categories_nodes":[],"categories_segments":[],"categories_sizes":[],"default_left":[0,0,0,0,0,0,0],"id":62,"left_children":[1,3,-1,5,-1,-1,-1],"loss_changes":[5.084836E-1,6.857943E-1,0E0,7.0964706E-1,0E0,0E0,0E0],"parents":[2147483647,0,0,1,1,3,3],"right_children":[2,4,-1,6,-1,-1,-1],"split_conditions":[9.904384E-3,2.4936967E-2,-2.4375318E-2,5.261305E-5,-2.2845816E-2,-1.0041859E-2,4.825241E-2],"split_indices":[18,5,0,18,0,0,0],"split_type":[0,0,0,0,0,0,0],"sum_hessian":[6.9211407E0,4.880933E0,2.040208E0,3.6013198E0,1.2796128E0,1.3907491E0,2.2105708E0],"tree_param":{"num_deleted":"0","num_feature":"20","num_nodes":"7","size_leaf_vector":"1"}},{"base_weights":[6.479722E-3,2.1635889E-1,-2.6142034E-1,-1.3878151E-2,4.836179E-1,-3.363793E-2,1.0316461E-2,8.0099115E-3,4.5354713E-2],"categories":[],"categories_nodes":[],"categories_segments":[],"categories_sizes":[],"default_left":[0,0,0,0,0,0,0,0,0],"id":63,"left_children":[1,3,5,-1,7,-1,-1,-1,-1],"loss_changes":[4.9639466E-1,6.1873454E-1,3.519854E-1,0E0,8.320171E-2,0E0,0E0,0E0,0E0],"parents":[2147483647,0,0,1,1,2,2,4,4],"right_children":[2,4,6,-1,8,-1,-1,-1,-1],"split_conditions":[2.507397E-5,3.0117406E-5,3.2998672E-5,-1.3878151E-2,2.4769097E-5,-3.363793E-2,1.0316461E-2,8.0099115E-3,4.5354713E-2],"split_indices":[7,17,17,0,7,0,0,0,0],"split_type":[0,0,0,0,0,0,0,0,0],"sum_hessian":[6.8225203E0,3.9333956E0,2.8891244E0,1.6951106E0,2.238285E0,1.8823215E0,1.006803E0,1.0021329E0,1.2361523E0],"tree_param":{"num_deleted":"0","num_feature":"20","num_nodes":"9","size_leaf_vector":"1"}},{"base_weights":[8.180289E-3,2.5505273E-2,-1.5775096E-1,-3.054269E-1,1.3578335E-2,-3.8769603E-2,2.9969423E-3],"categories":[],"categories_nodes":[],"categories_segments":[],"categories_sizes":[],"default_left":[0,0,0,0,0,0,0],"id":64,"left_children":[1,-1,3,5,-1,-1,-1],"loss_changes":[4.8103616E-1,0E0,3.4833637E-1,3.4581587E-1,0E0,0E0,0E0],"parents":[2147483647,0,0,2,2,3,3],"right_children":[2,-1,4,6,-1,-1,-1],"split_conditions":[1.5250721E-5,2.5505273E-2,3.123986E-6,2.146316E-3,1.3578335E-2,-3.8769603E-2,2.9969423E-3],"split_indices":[3,0,16,14,0,0,0],"split_type":[0,0,0,0,0,0,0],"sum_hessian":[6.7607155E0,1.903645E0,4.8570704E0,3.4512243E0,1.4058464E0,1.8324413E0,1.618783E0],"tree_param":{"num_deleted":"0","num_feature":"20","num_nodes":"7","size_leaf_vector":"1"}},{"base_weights":[7.993205E-3,1.9416168E-1,-2.8842267E-1,3.7647069E-1,-1.8840222E-2,-4.462155E-2,1.0715586E-2,-9.1186855E-3,4.99483E-2],"categories":[],"categories_nodes":[],"categories_segments":[],"categories_sizes":[],"default_left":[0,0,0,0,0,0,0,0,0],"id":65,"left_children":[1,3,5,7,-1,-1,-1,-1,-1],"loss_changes":[4.8117518E-1,5.2734536E-1,5.311512E-1,6.8400085E-1,0E0,0E0,0E0,0E0,0E0],"parents":[2147483647,0,0,1,1,2,2,3,3],"right_children":[2,4,6,8,-1,-1,-1,-1,-1],"split_conditions":[2.2106564E-3,2.4936967E-2,7.392416E-6,5.261305E-5,-1.8840222E-2,-4.462155E-2,1.0715586E-2,-9.1186855E-3,4.99483E-2],"split_indices":[18,5,13,18,0,0,0,0,0],"split_type":[0,0,0,0,0,0,0,0,0],"sum_hessian":[6.7047696E0,4.330133E0,2.3746367E0,3.1821983E0,1.1479347E0,1.1662837E0,1.2083529E0,1.3829954E0,1.7992029E0],"tree_param":{"num_deleted":"0","num_feature":"20","num_nodes":"9","size_leaf_vector":"1"}},{"base_weights":[6.0369885E-3,2.112332E-1,-2.53938E-1,-1.1831627E-2,3.6703076E-2,-3.4924038E-2,5.9397514E-3],"categories":[],"categories_nodes":[],"categories_segments":[],"categories_sizes":[],"default_left":[0,0,0,0,0,0,0],"id":66,"left_children":[1,3,5,-1,-1,-1,-1],"loss_changes":[4.5849982E-1,5.6853914E-1,3.0502602E-1,0E0,0E0,0E0,0E0],"parents":[2147483647,0,0,1,1,2,2],"right_children":[2,4,6,-1,-1,-1,-1],"split_conditions":[2.507397E-5,3.0159317E-5,3.253253E-5,-1.1831627E-2,3.6703076E-2,-3.4924038E-2,5.9397514E-3],"split_indices":[7,17,9,0,0,0,0],"split_type":[0,0,0,0,0,0,0],"sum_hessian":[6.5893345E0,3.787431E0,2.8019032E0,1.8138978E0,1.9735333E0,1.4699298E0,1.3319734E0],"tree_param":{"num_deleted":"0","num_feature":"20","num_nodes":"7","size_leaf_vector":"1"}}]},"name":"gbtree"},"learner_model_param":{"base_score":"5.9868765E-1","boost_from_average":"1","num_class":"0","num_feature":"20","num_target":"1"},"objective":{"name":"binary:logistic","reg_loss_param":{"scale_pos_weight":"1"}}},"version":[2,0,3]}