{"learner":{"attributes":{"best_iteration":"13","best_score":"0.5775865731494767"},"feature_names":[],"feature_types":[],"gradient_booster":{"model":{"gbtree_model_param":{"num_parallel_tree":"1","num_trees":"64"},"iteration_indptr":[0,1,2,3,4,5,6,7,8,9,10,11,12,13,14,15,16,17,18,19,20,21,22,23,24,25,26,27,28,29,30,31,32,33,34,35,36,37,38,39,40,41,42,43,44,45,46,47,48,49,50,51,52,53,54,55,56,57,58,59,60,61,62,63,64],"tree_info":[0,0,0,0,0,0,0,0,0,0,0,0,0,0,0,0,0,0,0,0,0,0,0,0,0,0,0,0,0,0,0,0,0,0,0,0,0,0,0,0,0,0,0,0,0,0,0,0,0,0,0,0,0,0,0,0,0,0,0,0,0,0,0,0],"trees":[{"base_weights":[1.1625118E-3,8.3607864E-1,-1.5865718E0,1.1646899E0,-6.275106E-2,-1.4191024E-1,-2.545836E-2,-1.7520022E-1,1.1312546E-1,-6.0608353E-2,4.0216498E-2],"categories":[],"categories_nodes":[],"categories_segments":[],"categories_sizes":[],"default_left":[0,0,0,0,0,0,0,0,0,0,0],"id":0,"left_children":[1,3,5,7,-1,-1,-1,9,-1,-1,-1],"loss_changes":[2.9427256E1,8.971063E0,2.273199E0,6.0553627E0,0E0,0E0,0E0,1.9926795E0,0E0,0E0,0E0],"parents":[2147483647,0,0,1,1,2,2,3,3,7,7],"right_children":[2,4,6,8,-1,-1,-1,10,-1,-1,-1],"split_conditions":[2.2106564E-3,2.4936967E-2,7.392416E-6,5.261305E-5,-6.275106E-2,-1.4191024E-1,-2.545836E-2,3.129822E-5,1.1312546E-1,-6.0608353E-2,4.0216498E-2],"split_indices":[18,5,13,18,0,0,0,9,0,0,0],"split_type":[0,0,0,0,0,0,0,0,0,0,0],"sum_hessian":[2.019812E1,1.354752E1,6.6506004E0,1.1576971E1,1.9705483E0,4.9263706E0,1.7242297E0,2.4631853E0,9.113786E0,1.2315927E0,1.2315927E0],"tree_param":{"num_deleted":"0","num_feature":"20","num_nodes":"11","size_leaf_vector":"1"}},{"base_weights":[-4.767632E-3,8.234061E-1,-1.4104788E0,1.1579236E0,-5.9355736E-2,-1.2725379E-1,8.454348E-3,-1.6776699E-1,1.14029795E-1,4.023983E-2,-5.9703697E-2],"categories":[],"categories_nodes":[],"categories_segments":[],"categories_sizes":[],"default_left":[0,0,0,0,0,0,0,0,0,0,0],"id":1,"left_children":[1,3,5,7,-1,-1,-1,9,-1,-1,-1],"loss_changes":[2.5755764E1,8.438637E0,3.7667618E0,5.9933643E0,0E0,0E0,0E0,1.9602143E0,0E0,0E0,0E0],"parents":[2147483647,0,0,1,1,2,2,3,3,7,7],"right_children":[2,4,6,8,-1,-1,-1,10,-1,-1,-1],"split_conditions":[5.1172846E-4,2.4936967E-2,5.4410473E-3,5.261305E-5,-5.9355736E-2,-1.2725379E-1,8.454348E-3,6.303571E-4,1.14029795E-1,4.023983E-2,-5.9703697E-2],"split_indices":[18,5,14,18,0,0,0,14,0,0,0],"split_type":[0,0,0,0,0,0,0,0,0,0,0],"sum_hessian":[2.0126038E1,1.2925331E1,7.200707E0,1.0941649E1,1.9836814E0,5.965723E0,1.2349838E0,2.464669E0,8.476981E0,1.2308894E0,1.2337794E0],"tree_param":{"num_deleted":"0","num_feature":"20","num_nodes":"11","size_leaf_vector":"1"}},{"base_weights":[-7.782833E-3,7.7531284E-1,-1.3146311E0,1.0977844E0,-5.6220904E-2,-1.2609543E-1,-7.976587E-3,-1.6067085E-1,1.0870071E-1,4.0254448E-2,-5.883552E-2],"categories":[],"categories_nodes":[],"categories_segments":[],"categories_sizes":[],"default_left":[0,0,0,0,0,0,0,0,0,0,0],"id":2,"left_children":[1,3,5,7,-1,-1,-1,9,-1,-1,-1],"loss_changes":[2.2476894E1,7.5794525E0,3.4659376E0,5.4301243E0,0E0,0E0,0E0,1.9285938E0,0E0,0E0,0E0],"parents":[2147483647,0,0,1,1,2,2,3,3,7,7],"right_children":[2,4,6,8,-1,-1,-1,10,-1,-1,-1],"split_conditions":[5.1172846E-4,2.4936967E-2,7.392416E-6,5.261305E-5,-5.6220904E-2,-1.2609543E-1,-7.976587E-3,3.0586598E-5,1.0870071E-1,4.0254448E-2,-5.883552E-2],"split_indices":[18,5,13,18,0,0,0,17,0,0,0],"split_type":[0,0,0,0,0,0,0,0,0,0,0],"sum_hessian":[1.9967278E1,1.2739929E1,7.2273483E0,1.0747328E1,1.9926013E0,5.2444897E0,1.9828583E0,2.4653206E0,8.282007E0,1.2299054E0,1.2354151E0],"tree_param":{"num_deleted":"0","num_feature":"20","num_nodes":"11","size_leaf_vector":"1"}},{"base_weights":[-1.1554857E-2,6.985629E-1,-1.2992616E0,-1.3178632E-1,1.296928E0,-1.1690543E-1,-1.9502463E-2,5.914364E-1,-7.4796975E-2,1.0386339E-1,3.0938886E-2,-1.7395186E-3,7.4479595E-2],"categories":[],"categories_nodes":[],"categories_segments":[],"categories_sizes":[],"default_left":[0,0,0,0,0,0,0,0,0,0,0,0,0],"id":3,"left_children":[1,3,5,7,9,-1,-1,11,-1,-1,-1,-1,-1],"loss_changes":[1.9858835E1,7.13111E0,1.675396E0,4.8305144E0,6.894493E-2,0E0,0E0,1.0890498E0,0E0,0E0,0E0,0E0,0E0],"parents":[2147483647,0,0,1,1,2,2,3,3,4,4,7,7],"right_children":[2,4,6,8,10,-1,-1,12,-1,-1,-1,-1,-1],"split_conditions":[2.2106564E-3,2.2867522E-5,7.392416E-6,5.849296E-5,4.160475E-6,-1.1690543E-1,-1.9502463E-2,5.2175204E-5,-7.4796975E-2,1.0386339E-1,3.0938886E-2,-1.7395186E-3,7.4479595E-2],"split_indices":[18,4,13,19,0,0,0,19,0,0,0,0,0],"split_type":[0,0,0,0,0,0,0,0,0,0,0,0,0],"sum_hessian":[1.9724773E1,1.3008583E1,6.71619E0,5.7747445E0,7.233838E0,4.9742947E0,1.7418953E0,3.3184698E0,2.456275E0,6.065081E0,1.168757E0,1.6838405E0,1.6346292E0],"tree_param":{"num_deleted":"0","num_feature":"20","num_nodes":"13","size_leaf_vector":"1"}},{"base_weights":[-1.0639406E-2,6.656643E-1,-1.2285699E0,-1.2230505E-1,1.2436577E0,-1.1068906E-1,-1.8559853E-2,4.1790286E-1,-9.069978E-2,1.00039385E-1,2.7795607E-2,6.868866E-2,-3.8638446E-2],"categories":[],"categories_nodes":[],"categories_segments":[],"categories_sizes":[],"default_left":[0,0,0,0,0,0,0,0,0,0,0,0,0],"id":4,"left_children":[1,3,5,7,9,-1,-1,11,-1,-1,-1,-1,-1],"loss_changes":[1.7682756E1,6.443219E0,1.4935732E0,4.4722824E0,1.4021397E-1,0E0,0E0,2.913857E0,0E0,0E0,0E0,0E0,0E0],"parents":[2147483647,0,0,1,1,2,2,3,3,4,4,7,7],"right_children":[2,4,6,8,10,-1,-1,12,-1,-1,-1,-1,-1],"split_conditions":[2.2106564E-3,2.2867522E-5,7.392416E-6,6.344347E-3,4.4762393E-5,-1.1068906E-1,-1.8559853E-2,5.849296E-5,-9.069978E-2,1.00039385E-1,2.7795607E-2,6.868866E-2,-3.8638446E-2],"split_indices":[18,4,13,5,2,0,0,19,0,0,0,0,0],"split_type":[0,0,0,0,0,0,0,0,0,0,0,0,0],"sum_hessian":[1.947484E1,1.2813234E1,6.661605E0,5.755394E0,7.057841E0,4.917811E0,1.7437942E0,4.255924E0,1.4994698E0,5.9185414E0,1.1392994E0,2.7870593E0,1.4688648E0],"tree_param":{"num_deleted":"0","num_feature":"20","num_nodes":"13","size_leaf_vector":"1"}},{"base_weights":[-1.2757437E-2,6.648883E-1,-1.1110251E0,9.65992E-1,-5.0711714E-2,-1.0270446E-1,1.376918E-2,-1.9756173E-1,9.855047E-2,3.5097435E-2,-5.730808E-2],"categories":[],"categories_nodes":[],"categories_segments":[],"categories_sizes":[],"default_left":[0,0,0,0,0,0,0,0,0,0,0],"id":5,"left_children":[1,3,5,7,-1,-1,-1,9,-1,-1,-1],"loss_changes":[1.573901E1,5.938867E0,2.9490948E0,4.7550344E0,0E0,0E0,0E0,1.6490856E0,0E0,0E0,0E0],"parents":[2147483647,0,0,1,1,2,2,3,3,7,7],"right_children":[2,4,6,8,-1,-1,-1,10,-1,-1,-1],"split_conditions":[5.1172846E-4,2.4936967E-2,5.4410473E-3,5.261305E-5,-5.0711714E-2,-1.0270446E-1,1.376918E-2,6.303571E-4,9.855047E-2,3.5097435E-2,-5.730808E-2],"split_indices":[18,5,14,18,0,0,0,14,0,0,0],"split_type":[0,0,0,0,0,0,0,0,0,0,0],"sum_hessian":[1.9155293E1,1.2090126E1,7.0651665E0,1.0101677E1,1.9884493E0,5.841592E0,1.2235746E0,2.4252825E0,7.676394E0,1.1952325E0,1.23005E0],"tree_param":{"num_deleted":"0","num_feature":"20","num_nodes":"11","size_leaf_vector":"1"}},{"base_weights":[-1.4769666E-2,6.011369E-1,-1.10657E0,-1.3974139E-1,1.162723E0,-1.0134434E-1,-1.4350492E-2,3.673458E-1,-8.4542975E-2,2.2727659E-2,9.428317E-2,-3.7486788E-2,6.391376E-2],"categories":[],"categories_nodes":[],"categories_segments":[],"categories_sizes":[],"default_left":[0,0,0,0,0,0,0,0,0,0,0,0,0],"id":6,"left_children":[1,3,5,7,9,-1,-1,11,-1,-1,-1,-1,-1],"loss_changes":[1.3967296E1,5.694136E0,1.4180222E0,3.7316344E0,2.4140835E-1,0E0,0E0,2.5834496E0,0E0,0E0,0E0,0E0,0E0],"parents":[2147483647,0,0,1,1,2,2,3,3,4,4,7,7],"right_children":[2,4,6,8,10,-1,-1,12,-1,-1,-1,-1,-1],"split_conditions":[2.2106564E-3,2.2867522E-5,7.392416E-6,6.344347E-3,1.8657052E-5,-1.0134434E-1,-1.4350492E-2,5.252528E-5,-8.4542975E-2,2.2727659E-2,9.428317E-2,-3.7486788E-2,6.391376E-2],"split_indices":[18,4,13,5,15,0,0,18,0,0,0,0,0],"split_type":[0,0,0,0,0,0,0,0,0,0,0,0,0],"sum_hessian":[1.8781626E1,1.2295112E1,6.486513E0,5.6251884E0,6.669924E0,4.742253E0,1.7442602E0,4.1315913E0,1.4935973E0,1.0764045E0,5.593519E0,1.4705281E0,2.661063E0],"tree_param":{"num_deleted":"0","num_feature":"20","num_nodes":"13","size_leaf_vector":"1"}},{"base_weights":[-1.6612193E-2,6.048203E-1,-1.0081282E0,8.9144653E-1,-4.645638E-2,-9.4323345E-2,1.4687694E-2,-1.9480896E-1,9.264599E-2,3.3300832E-2,-5.5081133E-2],"categories":[],"categories_nodes":[],"categories_segments":[],"categories_sizes":[],"default_left":[0,0,0,0,0,0,0,0,0,0,0],"id":7,"left_children":[1,3,5,7,-1,-1,-1,9,-1,-1,-1],"loss_changes":[1.2563082E1,4.9561276E0,2.6042762E0,4.191992E0,0E0,0E0,0E0,1.5006527E0,0E0,0E0,0E0],"parents":[2147483647,0,0,1,1,2,2,3,3,7,7],"right_children":[2,4,6,8,-1,-1,-1,10,-1,-1,-1],"split_conditions":[5.1172846E-4,2.4936967E-2,5.4410473E-3,5.261305E-5,-4.645638E-2,-9.4323345E-2,1.4687694E-2,3.0586598E-5,9.264599E-2,3.3300832E-2,-5.5081133E-2],"split_indices":[18,5,14,18,0,0,0,17,0,0,0],"split_type":[0,0,0,0,0,0,0,0,0,0,0],"sum_hessian":[1.8399736E1,1.155048E1,6.8492565E0,9.579504E0,1.9709759E0,5.6365247E0,1.2127315E0,2.4073868E0,7.1721168E0,1.1834731E0,1.2239137E0],"tree_param":{"num_deleted":"0","num_feature":"20","num_nodes":"11","size_leaf_vector":"1"}},{"base_weights":[-1.8221838E-2,5.7612854E-1,-9.5878345E-1,-1.4892091E-1,1.0951765E0,-9.034093E-2,1.4375402E-2,3.8163272E-1,-7.928089E-2,8.93992E-2,1.9156013E-2,-3.533189E-2,7.100004E-2],"categories":[],"categories_nodes":[],"categories_segments":[],"categories_sizes":[],"default_left":[0,0,0,0,0,0,0,0,0,0,0,0,0],"id":8,"left_children":[1,3,5,7,9,-1,-1,11,-1,-1,-1,-1,-1],"loss_changes":[1.1160466E1,4.7742605E0,2.4145517E0,3.2906506E0,2.858305E-1,0E0,0E0,2.6224594E0,0E0,0E0,0E0,0E0,0E0],"parents":[2147483647,0,0,1,1,2,2,3,3,4,4,7,7],"right_children":[2,4,6,8,10,-1,-1,12,-1,-1,-1,-1,-1],"split_conditions":[5.1172846E-4,2.2867522E-5,2.53794E-5,6.344347E-3,1.8187499E-4,-9.034093E-2,1.4375402E-2,5.252528E-5,-7.928089E-2,8.93992E-2,1.9156013E-2,-3.533189E-2,7.100004E-2],"split_indices":[18,4,8,5,4,0,0,18,0,0,0,0,0],"split_type":[0,0,0,0,0,0,0,0,0,0,0,0,0],"sum_hessian":[1.7976109E1,1.1252809E1,6.7233E0,4.9922733E0,6.2605357E0,5.5011244E0,1.2221755E0,3.5172422E0,1.4750311E0,5.237312E0,1.023224E0,1.468025E0,2.0492172E0],"tree_param":{"num_deleted":"0","num_feature":"20","num_nodes":"13","size_leaf_vector":"1"}},{"base_weights":[-1.7590692E-2,5.5192465E-1,-9.137668E-1,-1.4665477E-1,1.0595596E0,-1.1607113E0,1.6153043E-2,3.6627957E-1,-7.628455E-2,1.7613497E-2,8.680907E-2,-2.5893299E-2,-9.508062E-2,-3.372375E-2,6.888487E-2],"categories":[],"categories_nodes":[],"categories_segments":[],"categories_sizes":[],"default_left":[0,0,0,0,0,0,0,0,0,0,0,0,0,0,0],"id":9,"left_children":[1,3,5,7,9,11,-1,13,-1,-1,-1,-1,-1,-1,-1],"loss_changes":[9.973759E0,4.399411E0,2.365168E0,3.0135787E0,2.9757357E-1,1.19249344E-1,0E0,2.4211097E0,0E0,0E0,0E0,0E0,0E0,0E0,0E0],"parents":[2147483647,0,0,1,1,2,2,3,3,4,4,5,5,7,7],"right_children":[2,4,6,8,10,12,-1,14,-1,-1,-1,-1,-1,-1,-1],"split_conditions":[5.1172846E-4,2.2867522E-5,5.4410473E-3,6.344347E-3,1.8657052E-5,4.0482602E-5,1.6153043E-2,5.252528E-5,-7.628455E-2,1.7613497E-2,8.680907E-2,-2.5893299E-2,-9.508062E-2,-3.372375E-2,6.888487E-2],"split_indices":[18,4,14,5,15,6,0,18,0,0,0,0,0,0,0],"split_type":[0,0,0,0,0,0,0,0,0,0,0,0,0,0,0],"sum_hessian":[1.7553463E1,1.0967688E1,6.5857754E0,4.9150147E0,6.0526724E0,5.3809867E0,1.2047887E0,3.4571016E0,1.4579132E0,1.0028813E0,5.0497913E0,1.1145856E0,4.2664013E0,1.4702686E0,1.9868331E0],"tree_param":{"num_deleted":"0","num_feature":"20","num_nodes":"15","size_leaf_vector":"1"}},{"base_weights":[-1.8707238E-2,5.2947587E-1,-8.7521154E-1,-1.4435859E-1,1.0264113E0,-9.05801E-2,3.2975234E-3,3.520048E-1,-7.3525175E-2,8.3528206E-2,1.9798823E-2,-3.22002E-2,6.689937E-2],"categories":[],"categories_nodes":[],"categories_segments":[],"categories_sizes":[],"default_left":[0,0,0,0,0,0,0,0,0,0,0,0,0],"id":10,"left_children":[1,3,5,7,9,-1,-1,11,-1,-1,-1,-1,-1],"loss_changes":[8.976138E0,4.0586405E0,2.3309364E0,2.765696E0,1.6156816E-1,0E0,0E0,2.2377162E0,0E0,0E0,0E0,0E0,0E0],"parents":[2147483647,0,0,1,1,2,2,3,3,4,4,7,7],"right_children":[2,4,6,8,10,-1,-1,12,-1,-1,-1,-1,-1],"split_conditions":[5.1172846E-4,2.2867522E-5,7.392416E-6,6.344347E-3,1.2393236E-4,-9.05801E-2,3.2975234E-3,5.252528E-5,-7.3525175E-2,8.3528206E-2,1.9798823E-2,-3.22002E-2,6.689937E-2],"split_indices":[18,4,13,5,12,0,0,18,0,0,0,0,0],"split_type":[0,0,0,0,0,0,0,0,0,0,0,0,0],"sum_hessian":[1.7130672E1,1.0678193E1,6.4524794E0,4.833528E0,5.8446646E0,4.507803E0,1.9446762E0,3.3960469E0,1.4374812E0,4.8307953E0,1.0138692E0,1.4716042E0,1.9244428E0],"tree_param":{"num_deleted":"0","num_feature":"20","num_nodes":"13","size_leaf_vector":"1"}},{"base_weights":[-1.886775E-2,4.824298E-1,-8.8645566E-1,-1.4315839E-1,9.9604315E-1,-8.552692E-2,-6.2133227E-3,4.59559E-1,-6.0437515E-2,8.204068E-2,2.0254675E-2,-3.611861E-3,6.0693208E-2],"categories":[],"categories_nodes":[],"categories_segments":[],"categories_sizes":[],"default_left":[0,0,0,0,0,0,0,0,0,0,0,0,0],"id":11,"left_children":[1,3,5,7,9,-1,-1,11,-1,-1,-1,-1,-1],"loss_changes":[8.119356E0,3.9521754E0,1.298904E0,2.854566E0,1.7594433E-1,0E0,0E0,7.303316E-1,0E0,0E0,0E0,0E0,0E0],"parents":[2147483647,0,0,1,1,2,2,3,3,4,4,7,7],"right_children":[2,4,6,8,10,-1,-1,12,-1,-1,-1,-1,-1],"split_conditions":[2.2106564E-3,2.2867522E-5,7.392416E-6,5.849296E-5,4.2964508E-5,-8.552692E-2,-6.2133227E-3,5.2175204E-5,-6.0437515E-2,8.204068E-2,2.0254675E-2,-3.611861E-3,6.0693208E-2],"split_indices":[18,4,13,19,2,0,0,19,0,0,0,0,0],"split_type":[0,0,0,0,0,0,0,0,0,0,0,0,0],"sum_hessian":[1.6685343E1,1.0856394E1,5.8289485E0,5.2198343E0,5.636559E0,4.111018E0,1.7179307E0,2.8940983E0,2.325736E0,4.5206094E0,1.1159495E0,1.5320077E0,1.3620907E0],"tree_param":{"num_deleted":"0","num_feature":"20","num_nodes":"13","size_leaf_vector":"1"}},{"base_weights":[-1.7307088E-2,4.6502897E-1,-8.530339E-1,-1.3388777E-1,9.669357E-1,-8.287421E-2,-5.9206863E-3,4.4412756E-1,-7.6661086E-1,8.0067195E-2,1.8299911E-2,-3.4468404E-3,5.9019715E-2,-6.834197E-2,-1.9153994E-2],"categories":[],"categories_nodes":[],"categories_segments":[],"categories_sizes":[],"default_left":[0,0,0,0,0,0,0,0,0,0,0,0,0,0,0],"id":12,"left_children":[1,3,5,7,9,-1,-1,11,13,-1,-1,-1,-1,-1,-1],"loss_changes":[7.365488E0,3.6190536E0,1.2154632E0,2.5974402E0,2.0782423E-1,0E0,0E0,6.8435526E-1,1.2219667E-2,0E0,0E0,0E0,0E0,0E0,0E0],"parents":[2147483647,0,0,1,1,2,2,3,3,4,4,7,7,8,8],"right_children":[2,4,6,8,10,-1,-1,12,14,-1,-1,-1,-1,-1,-1],"split_conditions":[2.2106564E-3,2.2867522E-5,7.392416E-6,5.849296E-5,3.0409736E-5,-8.287421E-2,-5.9206863E-3,5.2175204E-5,2.2652383E-5,8.0067195E-2,1.8299911E-2,-3.4468404E-3,5.9019715E-2,-6.834197E-2,-1.9153994E-2],"split_indices":[18,4,13,19,11,0,0,19,4,0,0,0,0,0,0],"split_type":[0,0,0,0,0,0,0,0,0,0,0,0,0,0,0],"sum_hessian":[1.6287971E1,1.0608745E1,5.6792274E0,5.1712375E0,5.4375076E0,3.9621413E0,1.7170862E0,2.85822E0,2.3130174E0,4.3546715E0,1.0828364E0,1.5327972E0,1.3254228E0,1.1930791E0,1.1199383E0],"tree_param":{"num_deleted":"0","num_feature":"20","num_nodes":"15","size_leaf_vector":"1"}},{"base_weights":[-1.7601497E-2,4.461062E-1,-8.217828E-1,-1.3005887E-1,9.3934166E-1,-8.042924E-2,-5.641864E-3,4.2946708E-1,-7.395998E-1,7.820751E-2,1.6417619E-2,-3.2893794E-3,5.7429995E-2,-6.671566E-2,-1.7629119E-2],"categories":[],"categories_nodes":[],"categories_segments":[],"categories_sizes":[],"default_left":[0,0,0,0,0,0,0,0,0,0,0,0,0,0,0],"id":13,"left_children":[1,3,5,7,9,-1,-1,11,13,-1,-1,-1,-1,-1,-1],"loss_changes":[6.664695E0,3.350645E0,1.1408191E0,2.4042447E0,2.3686314E-1,0E0,0E0,6.4199793E-1,4.0225863E-2,0E0,0E0,0E0,0E0,0E0,0E0],"parents":[2147483647,0,0,1,1,2,2,3,3,4,4,7,7,8,8],"right_children":[2,4,6,8,10,-1,-1,12,14,-1,-1,-1,-1,-1,-1],"split_conditions":[2.2106564E-3,2.2867522E-5,7.392416E-6,5.849296E-5,1.3268157E-4,-8.042924E-2,-5.641864E-3,5.2175204E-5,3.1040825E-6,7.820751E-2,1.6417619E-2,-3.2893794E-3,5.7429995E-2,-6.671566E-2,-1.7629119E-2],"split_indices":[18,4,13,19,4,0,0,19,16,0,0,0,0,0,0],"split_type":[0,0,0,0,0,0,0,0,0,0,0,0,0,0,0],"sum_hessian":[1.5889263E1,1.0360468E1,5.5287952E0,5.118126E0,5.242342E0,3.8125427E0,1.7162524E0,2.822577E0,2.2955492E0,4.1930003E0,1.0493419E0,1.5335445E0,1.2890323E0,1.1813987E0,1.1141505E0],"tree_param":{"num_deleted":"0","num_feature":"20","num_nodes":"15","size_leaf_vector":"1"}},{"base_weights":[-1.7883517E-2,4.282154E-1,-7.924205E-1,-1.262907E-1,9.130805E-1,-7.816202E-2,-5.3761955E-3,2.9421806E-1,-6.775252E-2,1.49491215E-2,7.641844E-2,5.3298652E-2,-3.0719558E-2],"categories":[],"categories_nodes":[],"categories_segments":[],"categories_sizes":[],"default_left":[0,0,0,0,0,0,0,0,0,0,0,0,0],"id":14,"left_children":[1,3,5,7,9,-1,-1,11,-1,-1,-1,-1,-1],"loss_changes":[6.0386E0,3.1038885E0,1.0735059E0,2.2472885E0,2.5404835E-1,0E0,0E0,1.665382E0,0E0,0E0,0E0,0E0,0E0],"parents":[2147483647,0,0,1,1,2,2,3,3,4,4,7,7],"right_children":[2,4,6,8,10,-1,-1,12,-1,-1,-1,-1,-1],"split_conditions":[2.2106564E-3,2.2867522E-5,7.392416E-6,6.344347E-3,1.8671253E-5,-7.816202E-2,-5.3761955E-3,5.849296E-5,-6.775252E-2,1.49491215E-2,7.641844E-2,5.3298652E-2,-3.0719558E-2],"split_indices":[18,4,13,5,15,0,0,19,0,0,0,0,0],"split_type":[0,0,0,0,0,0,0,0,0,0,0,0,0],"sum_hessian":[1.5494764E1,1.0115703E1,5.3790617E0,5.0639515E0,5.0517507E0,3.6636302E0,1.7154315E0,3.6890364E0,1.3749154E0,1.0246456E0,4.0271053E0,2.311599E0,1.3774371E0],"tree_param":{"num_deleted":"0","num_feature":"20","num_nodes":"13","size_leaf_vector":"1"}},{"base_weights":[-1.9194141E-2,4.1071302E-1,-7.647144E-1,-1.2585996E-1,8.880233E-1,-9.50324E-1,4.660949E-3,-6.125083E-1,4.821617E-1,7.467311E-2,1.3787458E-2,-7.823801E-2,-2.1833053E-2,5.8103018E-3,-7.1603864E-2,5.6802746E-2,-3.4914268E-3],"categories":[],"categories_nodes":[],"categories_segments":[],"categories_sizes":[],"default_left":[0,0,0,0,0,0,0,0,0,0,0,0,0,0,0,0,0],"id":15,"left_children":[1,3,5,7,9,11,-1,13,15,-1,-1,-1,-1,-1,-1,-1,-1],"loss_changes":[5.4682813E0,2.890674E0,1.0153749E0,2.0659323E0,2.6154804E-1,1.155901E-2,0E0,9.6274984E-1,5.037542E-1,0E0,0E0,0E0,0E0,0E0,0E0,0E0,0E0],"parents":[2147483647,0,0,1,1,2,2,3,3,4,4,5,5,7,7,8,8],"right_children":[2,4,6,8,10,12,-1,14,16,-1,-1,-1,-1,-1,-1,-1,-1],"split_conditions":[2.2106564E-3,2.2867522E-5,2.34305E-5,4.5295797E-5,1.3268157E-4,2.3519348E-3,4.660949E-3,5.3710748E-5,8.2177296E-4,7.467311E-2,1.3787458E-2,-7.823801E-2,-2.1833053E-2,5.8103018E-3,-7.1603864E-2,5.6802746E-2,-3.4914268E-3],"split_indices":[18,4,4,6,4,14,0,19,6,0,0,0,0,0,0,0,0],"split_type":[0,0,0,0,0,0,0,0,0,0,0,0,0,0,0,0,0],"sum_hessian":[1.508153E1,9.8503685E0,5.231161E0,4.983939E0,4.8664293E0,4.1502233E0,1.0809379E0,2.764172E0,2.219767E0,3.8622928E0,1.0041366E0,3.127304E0,1.0229193E0,1.1729113E0,1.5912608E0,1.1754446E0,1.0443225E0],"tree_param":{"num_deleted":"0","num_feature":"20","num_nodes":"17","size_leaf_vector":"1"}},{"base_weights":[-1.9312005E-2,3.964059E-1,-7.3800975E-1,-1.19867876E-1,8.640697E-1,-7.459532E-2,-3.5276788E-3,2.7956715E-1,-6.430086E-2,7.2809875E-2,1.366556E-2,-2.8593617E-2,5.2198723E-2],"categories":[],"categories_nodes":[],"categories_segments":[],"categories_sizes":[],"default_left":[0,0,0,0,0,0,0,0,0,0,0,0,0],"id":16,"left_children":[1,3,5,7,9,-1,-1,11,-1,-1,-1,-1,-1],"loss_changes":[4.987479E0,2.6643007E0,1.0361586E0,1.9833173E0,2.3696375E-1,0E0,0E0,1.5293984E0,0E0,0E0,0E0,0E0,0E0],"parents":[2147483647,0,0,1,1,2,2,3,3,4,4,7,7],"right_children":[2,4,6,8,10,-1,-1,12,-1,-1,-1,-1,-1],"split_conditions":[2.2106564E-3,2.2867522E-5,7.392416E-6,6.344347E-3,4.148316E-6,-7.459532E-2,-3.5276788E-3,5.252528E-5,-6.430086E-2,7.2809875E-2,1.366556E-2,-2.8593617E-2,5.2198723E-2],"split_indices":[18,4,13,5,0,0,0,18,0,0,0,0,0],"split_type":[0,0,0,0,0,0,0,0,0,0,0,0,0],"sum_hessian":[1.4713895E1,9.605946E0,5.1079497E0,4.9191628E0,4.686783E0,3.4043243E0,1.7036254E0,3.593663E0,1.3254994E0,3.6860745E0,1.0007083E0,1.421817E0,2.1718462E0],"tree_param":{"num_deleted":"0","num_feature":"20","num_nodes":"13","size_leaf_vector":"1"}},{"base_weights":[-2.0359034E-2,4.0613842E-1,-6.7863095E-1,6.5471625E-1,-3.768425E-2,-9.395204E-1,2.238714E-2,-2.5718182E-1,7.6768264E-2,-1.6043972E-2,-7.998249E-2,2.913937E-2,-5.6516457E-2],"categories":[],"categories_nodes":[],"categories_segments":[],"categories_sizes":[],"default_left":[0,0,0,0,0,0,0,0,0,0,0,0,0],"id":17,"left_children":[1,3,5,7,-1,9,-1,11,-1,-1,-1,-1,-1],"loss_changes":[4.576019E0,2.5696268E0,1.9111145E0,3.0294344E0,0E0,2.590022E-1,0E0,1.3080435E0,0E0,0E0,0E0,0E0,0E0],"parents":[2147483647,0,0,1,1,2,2,3,3,5,5,7,7],"right_children":[2,4,6,8,-1,10,-1,12,-1,-1,-1,-1,-1],"split_conditions":[5.1172846E-4,2.4936967E-2,5.4410473E-3,5.261305E-5,-3.768425E-2,1.6490303E-5,2.238714E-2,6.303571E-4,7.6768264E-2,-1.6043972E-2,-7.998249E-2,2.913937E-2,-5.6516457E-2],"split_indices":[18,5,14,18,0,5,0,14,0,0,0,0,0],"split_type":[0,0,0,0,0,0,0,0,0,0,0,0,0],"sum_hessian":[1.4317475E1,8.920721E0,5.396754E0,7.2238145E0,1.696907E0,4.289861E0,1.1068927E0,2.1676676E0,5.0561466E0,1.0384241E0,3.251437E0,1.0365435E0,1.1311241E0],"tree_param":{"num_deleted":"0","num_feature":"20","num_nodes":"13","size_leaf_vector":"1"}},{"base_weights":[-2.3178348E-2,3.8808572E-1,-6.531046E-1,6.321296E-1,-3.6061738E-2,-9.10376E-1,2.1494323E-2,-2.4704334E-1,7.5113595E-2,-1.4815956E-2,-7.783057E-2,2.8132224E-2,-5.4257695E-2],"categories":[],"categories_nodes":[],"categories_segments":[],"categories_sizes":[],"default_left":[0,0,0,0,0,0,0,0,0,0,0,0,0],"id":18,"left_children":[1,3,5,7,-1,9,-1,11,-1,-1,-1,-1,-1],"loss_changes":[4.120353E0,2.3518875E0,1.7763641E0,2.8363724E0,0E0,2.6352882E-1,0E0,1.2081251E0,0E0,0E0,0E0,0E0,0E0],"parents":[2147483647,0,0,1,1,2,2,3,3,5,5,7,7],"right_children":[2,4,6,8,-1,10,-1,12,-1,-1,-1,-1,-1],"split_conditions":[5.1172846E-4,2.4936967E-2,5.4410473E-3,5.261305E-5,-3.6061738E-2,4.1858304E-5,2.1494323E-2,6.303571E-4,7.5113595E-2,-1.4815956E-2,-7.783057E-2,2.8132224E-2,-5.4257695E-2],"split_indices":[18,5,14,18,0,2,0,14,0,0,0,0,0],"split_type":[0,0,0,0,0,0,0,0,0,0,0,0,0],"sum_hessian":[1.3926281E1,8.657755E0,5.268526E0,6.9720654E0,1.6856893E0,4.1606245E0,1.1079016E0,2.160667E0,4.811398E0,1.0174168E0,3.1432078E0,1.0292114E0,1.1314557E0],"tree_param":{"num_deleted":"0","num_feature":"20","num_nodes":"13","size_leaf_vector":"1"}},{"base_weights":[-2.5728485E-2,3.1958252E-1,-7.266758E-1,-2.1867575E-1,8.5496217E-1,9.73772E-3,-7.47239E-2,-6.6870534E-1,3.2487057E-2,7.276775E-2,1.3198891E-2,3.5669284E-3,-7.146697E-2],"categories":[],"categories_nodes":[],"categories_segments":[],"categories_sizes":[],"default_left":[0,0,0,0,0,0,0,0,0,0,0,0,0],"id":19,"left_children":[1,3,5,7,9,-1,-1,11,-1,-1,-1,-1,-1],"loss_changes":[3.7527752E0,3.19521E0,1.3085868E0,2.0502763E0,2.5481534E-1,0E0,0E0,8.4806526E-1,0E0,0E0,0E0,0E0,0E0],"parents":[2147483647,0,0,1,1,2,2,3,3,4,4,7,7],"right_children":[2,4,6,8,10,-1,-1,12,-1,-1,-1,-1,-1],"split_conditions":[4.649582E-3,2.2867522E-5,3.06533E-6,4.5295797E-5,3.0316556E-5,9.73772E-3,-7.47239E-2,4.0478386E-5,3.2487057E-2,7.276775E-2,1.3198891E-2,3.5669284E-3,-7.146697E-2],"split_indices":[18,4,16,6,11,0,0,6,0,0,0,0,0],"split_type":[0,0,0,0,0,0,0,0,0,0,0,0,0],"sum_hessian":[1.3545E1,9.439061E0,4.105939E0,5.0018587E0,4.4372025E0,1.1072575E0,2.9986815E0,2.9436655E0,2.0581932E0,3.4264953E0,1.0107073E0,1.0726967E0,1.8709689E0],"tree_param":{"num_deleted":"0","num_feature":"20","num_nodes":"13","size_leaf_vector":"1"}},{"base_weights":[-2.541935E-2,3.078034E-1,-7.014435E-1,-2.1105981E-1,8.3225805E-1,9.336338E-3,-7.274925E-2,-6.4481866E-1,3.1085776E-2,7.1098536E-2,1.2749509E-2,3.7163661E-3,-6.941059E-2],"categories":[],"categories_nodes":[],"categories_segments":[],"categories_sizes":[],"default_left":[0,0,0,0,0,0,0,0,0,0,0,0,0],"id":20,"left_children":[1,3,5,7,9,-1,-1,11,-1,-1,-1,-1,-1],"loss_changes":[3.4136326E0,2.9522228E0,1.2279389E0,1.8753865E0,2.4324846E-1,0E0,0E0,8.0416477E-1,0E0,0E0,0E0,0E0,0E0],"parents":[2147483647,0,0,1,1,2,2,3,3,4,4,7,7],"right_children":[2,4,6,8,10,-1,-1,12,-1,-1,-1,-1,-1],"split_conditions":[4.649582E-3,2.2867522E-5,3.06533E-6,4.5295797E-5,3.0316556E-5,9.336338E-3,-7.274925E-2,5.3710748E-5,3.1085776E-2,7.1098536E-2,1.2749509E-2,3.7163661E-3,-6.941059E-2],"split_indices":[18,4,16,6,11,0,0,19,0,0,0,0,0],"split_type":[0,0,0,0,0,0,0,0,0,0,0,0,0],"sum_hessian":[1.3195295E1,9.203456E0,3.9918394E0,4.926773E0,4.276683E0,1.111087E0,2.8807526E0,2.8911624E0,2.0356104E0,3.2732937E0,1.003389E0,1.0692288E0,1.8219336E0],"tree_param":{"num_deleted":"0","num_feature":"20","num_nodes":"13","size_leaf_vector":"1"}},{"base_weights":[-2.5139878E-2,2.965788E-1,-6.7748773E-1,-2.0389253E-1,8.104105E-1,8.951697E-3,-7.0879735E-2,-6.2227094E-1,2.9745948E-2,1.3043681E-2,6.9663465E-2,3.8812652E-3,-6.749441E-2],"categories":[],"categories_nodes":[],"categories_segments":[],"categories_sizes":[],"default_left":[0,0,0,0,0,0,0,0,0,0,0,0,0],"id":21,"left_children":[1,3,5,7,9,-1,-1,11,-1,-1,-1,-1,-1],"loss_changes":[3.1086872E0,2.730224E0,1.1534033E0,1.7170111E0,2.24612E-1,0E0,0E0,7.648715E-1,0E0,0E0,0E0,0E0,0E0],"parents":[2147483647,0,0,1,1,2,2,3,3,4,4,7,7],"right_children":[2,4,6,8,10,-1,-1,12,-1,-1,-1,-1,-1],"split_conditions":[4.649582E-3,2.2867522E-5,3.06533E-6,4.5295797E-5,1.8710676E-5,8.951697E-3,-7.0879735E-2,4.0478386E-5,2.9745948E-2,1.3043681E-2,6.9663465E-2,3.8812652E-3,-6.749441E-2],"split_indices":[18,4,16,6,15,0,0,6,0,0,0,0,0],"split_type":[0,0,0,0,0,0,0,0,0,0,0,0,0],"sum_hessian":[1.2854884E1,8.974361E0,3.8805225E0,4.8518543E0,4.1225066E0,1.1147413E0,2.7657814E0,2.8382022E0,2.013652E0,1.0340065E0,3.0885003E0,1.0654299E0,1.7727724E0],"tree_param":{"num_deleted":"0","num_feature":"20","num_nodes":"13","size_leaf_vector":"1"}},{"base_weights":[-2.4826419E-2,2.8588134E-1,-6.5469164E-1,-1.971379E-1,7.891609E-1,8.583088E-3,-6.910347E-2,-6.009356E-1,2.8464464E-2,1.2597228E-2,6.8098925E-2,4.000524E-3,-6.5673366E-2],"categories":[],"categories_nodes":[],"categories_segments":[],"categories_sizes":[],"default_left":[0,0,0,0,0,0,0,0,0,0,0,0,0],"id":22,"left_children":[1,3,5,7,9,-1,-1,11,-1,-1,-1,-1,-1],"loss_changes":[2.8343952E0,2.5267994E0,1.0843387E0,1.5733924E0,2.1485353E-1,0E0,0E0,7.270347E-1,0E0,0E0,0E0,0E0,0E0],"parents":[2147483647,0,0,1,1,2,2,3,3,4,4,7,7],"right_children":[2,4,6,8,10,-1,-1,12,-1,-1,-1,-1,-1],"split_conditions":[4.649582E-3,2.2867522E-5,3.06533E-6,4.5295797E-5,1.8710676E-5,8.583088E-3,-6.910347E-2,5.3710748E-5,2.8464464E-2,1.2597228E-2,6.8098925E-2,4.000524E-3,-6.5673366E-2],"split_indices":[18,4,16,6,15,0,0,19,0,0,0,0,0],"split_type":[0,0,0,0,0,0,0,0,0,0,0,0,0],"sum_hessian":[1.252671E1,8.754369E0,3.772341E0,4.777494E0,3.9768746E0,1.1182288E0,2.6541123E0,2.7851548E0,1.9923391E0,1.0261021E0,2.9507725E0,1.0618867E0,1.7232682E0],"tree_param":{"num_deleted":"0","num_feature":"20","num_nodes":"13","size_leaf_vector":"1"}},{"base_weights":[-2.4549246E-2,3.667865E-1,-5.0499696E-1,-3.4813234E-1,8.0020577E-1,-6.365481E-2,1.259356E-2,3.0016957E-2,-6.328544E-2,9.219492E-3,7.074045E-2],"categories":[],"categories_nodes":[],"categories_segments":[],"categories_sizes":[],"default_left":[0,0,0,0,0,0,0,0,0,0,0],"id":23,"left_children":[1,3,5,7,9,-1,-1,-1,-1,-1,-1],"loss_changes":[2.668722E0,2.7137115E0,1.611307E0,1.6964756E0,3.8727546E-1,0E0,0E0,0E0,0E0,0E0,0E0],"parents":[2147483647,0,0,1,1,2,2,3,3,4,4],"right_children":[2,4,6,8,10,-1,-1,-1,-1,-1,-1],"split_conditions":[2.507397E-5,3.0167157E-5,3.253253E-5,1.9323981E-5,2.107597E-5,-6.365481E-2,1.259356E-2,3.0016957E-2,-6.328544E-2,9.219492E-3,7.074045E-2],"split_indices":[7,17,9,10,14,0,0,0,0,0,0],"split_type":[0,0,0,0,0,0,0,0,0,0,0],"sum_hessian":[1.2208933E1,6.8588305E0,5.350102E0,2.6630104E0,4.1958203E0,3.3682592E0,1.981843E0,1.1377772E0,1.5252331E0,1.0556523E0,3.140168E0],"tree_param":{"num_deleted":"0","num_feature":"20","num_nodes":"11","size_leaf_vector":"1"}},{"base_weights":[-2.3518898E-2,2.727408E-1,-6.2353116E-1,-1.8604901E-1,7.568346E-1,8.46269E-3,-6.6585235E-2,-5.706048E-1,2.6833404E-2,1.1350879E-2,6.5874696E-2,3.5039654E-3,-6.242463E-2],"categories":[],"categories_nodes":[],"categories_segments":[],"categories_sizes":[],"default_left":[0,0,0,0,0,0,0,0,0,0,0,0,0],"id":24,"left_children":[1,3,5,7,9,-1,-1,11,-1,-1,-1,-1,-1],"loss_changes":[2.4698627E0,2.218948E0,9.916097E-1,1.3766867E0,2.1651196E-1,0E0,0E0,6.3178575E-1,0E0,0E0,0E0,0E0,0E0],"parents":[2147483647,0,0,1,1,2,2,3,3,4,4,7,7],"right_children":[2,4,6,8,10,-1,-1,12,-1,-1,-1,-1,-1],"split_conditions":[4.649582E-3,2.2867522E-5,3.06533E-6,4.5295797E-5,1.8710676E-5,8.46269E-3,-6.6585235E-2,4.0478386E-5,2.6833404E-2,1.1350879E-2,6.5874696E-2,3.5039654E-3,-6.242463E-2],"split_indices":[18,4,16,6,15,0,0,6,0,0,0,0,0],"split_type":[0,0,0,0,0,0,0,0,0,0,0,0,0],"sum_hessian":[1.193771E1,8.356887E0,3.580823E0,4.6066785E0,3.7502081E0,1.0970463E0,2.4837766E0,2.6696537E0,1.9370251E0,1.0020435E0,2.748165E0,1.0394374E0,1.6302162E0],"tree_param":{"num_deleted":"0","num_feature":"20","num_nodes":"13","size_leaf_vector":"1"}},{"base_weights":[-2.334829E-2,3.51477E-1,-4.8031723E-1,-3.3150563E-1,7.709945E-1,-6.0491424E-2,1.1295092E-2,2.8553655E-2,-6.0964294E-2,8.895753E-3,6.818332E-2],"categories":[],"categories_nodes":[],"categories_segments":[],"categories_sizes":[],"default_left":[0,0,0,0,0,0,0,0,0,0,0],"id":25,"left_children":[1,3,5,7,9,-1,-1,-1,-1,-1,-1],"loss_changes":[2.3335488E0,2.4104238E0,1.3806487E0,1.530289E0,3.3905578E-1,0E0,0E0,0E0,0E0,0E0,0E0],"parents":[2147483647,0,0,1,1,2,2,3,3,4,4],"right_children":[2,4,6,8,10,-1,-1,-1,-1,-1,-1],"split_conditions":[2.507397E-5,3.0167157E-5,3.253253E-5,1.9323981E-5,2.107597E-5,-6.0491424E-2,1.1295092E-2,2.8553655E-2,-6.0964294E-2,8.895753E-3,6.818332E-2],"split_indices":[7,17,9,10,14,0,0,0,0,0,0],"split_type":[0,0,0,0,0,0,0,0,0,0,0],"sum_hessian":[1.1638275E1,6.52063E0,5.1176453E0,2.561025E0,3.959605E0,3.1898575E0,1.927788E0,1.1171416E0,1.4438833E0,1.016587E0,2.943018E0],"tree_param":{"num_deleted":"0","num_feature":"20","num_nodes":"11","size_leaf_vector":"1"}},{"base_weights":[-2.2407237E-2,2.6074502E-1,-5.953356E-1,-1.760544E-1,7.2656983E-1,8.295326E-3,-6.427248E-2,-5.4325986E-1,2.5339833E-2,1.28469E-2,6.312986E-2,2.9909417E-3,-5.9460934E-2],"categories":[],"categories_nodes":[],"categories_segments":[],"categories_sizes":[],"default_left":[0,0,0,0,0,0,0,0,0,0,0,0,0],"id":26,"left_children":[1,3,5,7,9,-1,-1,11,-1,-1,-1,-1,-1],"loss_changes":[2.1641855E0,1.955735E0,9.075434E-1,1.2103325E0,1.4627576E-1,0E0,0E0,5.492314E-1,0E0,0E0,0E0,0E0,0E0],"parents":[2147483647,0,0,1,1,2,2,3,3,4,4,7,7],"right_children":[2,4,6,8,10,-1,-1,12,-1,-1,-1,-1,-1],"split_conditions":[4.649582E-3,2.2867522E-5,3.06533E-6,4.5295797E-5,5.288087E-5,8.295326E-3,-6.427248E-2,5.3710748E-5,2.5339833E-2,1.28469E-2,6.312986E-2,2.9909417E-3,-5.9460934E-2],"split_indices":[18,4,16,6,18,0,0,19,0,0,0,0,0],"split_type":[0,0,0,0,0,0,0,0,0,0,0,0,0],"sum_hessian":[1.1383681E1,7.983147E0,3.4005346E0,4.44096E0,3.542187E0,1.0755916E0,2.324943E0,2.556906E0,1.8840541E0,1.0357047E0,2.5064821E0,1.0180908E0,1.5388151E0],"tree_param":{"num_deleted":"0","num_feature":"20","num_nodes":"13","size_leaf_vector":"1"}},{"base_weights":[-2.2186706E-2,3.3658198E-1,-4.5614454E-1,-3.1660473E-1,7.43223E-1,-7.564994E-1,1.3930582E-2,2.7174903E-2,-5.8838222E-2,1.0660014E-2,6.591341E-2,-1.2603252E-2,-6.962885E-2],"categories":[],"categories_nodes":[],"categories_segments":[],"categories_sizes":[],"default_left":[0,0,0,0,0,0,0,0,0,0,0,0,0],"id":27,"left_children":[1,3,5,7,9,11,-1,-1,-1,-1,-1,-1,-1],"loss_changes":[2.0379467E0,2.1480432E0,1.2784547E0,1.3847764E0,2.612481E-1,2.7063155E-1,0E0,0E0,0E0,0E0,0E0,0E0,0E0],"parents":[2147483647,0,0,1,1,2,2,3,3,4,4,5,5],"right_children":[2,4,6,8,10,12,-1,-1,-1,-1,-1,-1,-1],"split_conditions":[2.507397E-5,3.0167157E-5,3.2998672E-5,1.9323981E-5,4.197082E-5,4.2179312E-5,1.3930582E-2,2.7174903E-2,-5.8838222E-2,1.0660014E-2,6.591341E-2,-1.2603252E-2,-6.962885E-2],"split_indices":[7,17,17,10,6,2,0,0,0,0,0,0,0],"split_type":[0,0,0,0,0,0,0,0,0,0,0,0,0],"sum_hessian":[1.1103609E1,6.2012234E0,4.9023857E0,2.464276E0,3.7369473E0,3.2180293E0,1.6843568E0,1.0974659E0,1.3668102E0,1.0649614E0,2.6719859E0,1.1745521E0,2.043477E0],"tree_param":{"num_deleted":"0","num_feature":"20","num_nodes":"13","size_leaf_vector":"1"}},{"base_weights":[-2.2904035E-2,3.257435E-1,-4.3979332E-1,-3.0714256E-1,7.22388E-1,-6.484637E-2,4.8845407E-2,2.6260776E-2,-5.7365183E-2,1.0239025E-2,6.448893E-2,-3.315905E-2,4.834264E-2],"categories":[],"categories_nodes":[],"categories_segments":[],"categories_sizes":[],"default_left":[0,0,0,0,0,0,0,0,0,0,0,0,0],"id":28,"left_children":[1,3,5,7,9,-1,11,-1,-1,-1,-1,-1,-1],"loss_changes":[1.8660759E0,1.9864571E0,1.2511606E0,1.2936906E0,2.5464845E-1,0E0,1.353985E0,0E0,0E0,0E0,0E0,0E0,0E0],"parents":[2147483647,0,0,1,1,2,2,3,3,4,4,6,6],"right_children":[2,4,6,8,10,-1,12,-1,-1,-1,-1,-1,-1],"split_conditions":[2.507397E-5,3.0167157E-5,3.129822E-5,1.9323981E-5,4.197082E-5,-6.484637E-2,3.2998672E-5,2.6260776E-2,-5.7365183E-2,1.0239025E-2,6.448893E-2,-3.315905E-2,4.834264E-2],"split_indices":[7,17,9,10,6,0,17,0,0,0,0,0,0],"split_type":[0,0,0,0,0,0,0,0,0,0,0,0,0],"sum_hessian":[1.085309E1,6.029341E0,4.8237486E0,2.4098432E0,3.6194983E0,2.1687686E0,2.6549802E0,1.0857563E0,1.3240869E0,1.0666426E0,2.5528555E0,1.5968095E0,1.0581708E0],"tree_param":{"num_deleted":"0","num_feature":"20","num_nodes":"13","size_leaf_vector":"1"}},{"base_weights":[-2.2173522E-2,2.3783717E-1,-5.4756147E-1,-1.7186874E-1,6.861727E-1,8.791415E-3,-6.0595468E-2,-4.3559882E-1,3.3530068E-2,6.0271744E-2,1.1579922E-2,1.872322E-3,-5.844843E-2],"categories":[],"categories_nodes":[],"categories_segments":[],"categories_sizes":[],"default_left":[0,0,0,0,0,0,0,0,0,0,0,0,0],"id":29,"left_children":[1,3,5,7,9,-1,-1,11,-1,-1,-1,-1,-1],"loss_changes":[1.7108212E0,1.6677114E0,8.101506E-1,1.0448848E0,1.4004898E-1,0E0,0E0,6.777587E-1,0E0,0E0,0E0,0E0,0E0],"parents":[2147483647,0,0,1,1,2,2,3,3,4,4,7,7],"right_children":[2,4,6,8,10,-1,-1,12,-1,-1,-1,-1,-1],"split_conditions":[4.649582E-3,2.2867522E-5,3.06533E-6,3.29958E-5,3.690898E-5,8.791415E-3,-6.0595468E-2,3.578682E-5,3.3530068E-2,6.0271744E-2,1.1579922E-2,1.872322E-3,-5.844843E-2],"split_indices":[18,4,16,9,1,0,0,1,0,0,0,0,0],"split_type":[0,0,0,0,0,0,0,0,0,0,0,0,0],"sum_hessian":[1.05703945E1,7.4371257E0,3.1332686E0,4.2081823E0,3.2289436E0,1.0365725E0,2.0966961E0,3.1585367E0,1.0496454E0,2.2260692E0,1.0028743E0,1.7461418E0,1.4123949E0],"tree_param":{"num_deleted":"0","num_feature":"20","num_nodes":"13","size_leaf_vector":"1"}},{"base_weights":[-2.1277998E-2,3.1312165E-1,-4.2105255E-1,-2.9774898E-1,7.02157E-1,-6.2261324E-2,4.625978E-2,2.4895765E-2,-5.5515494E-2,1.0621217E-2,6.249662E-2,-3.139969E-2,4.6232417E-2],"categories":[],"categories_nodes":[],"categories_segments":[],"categories_sizes":[],"default_left":[0,0,0,0,0,0,0,0,0,0,0,0,0],"id":30,"left_children":[1,3,5,7,9,-1,11,-1,-1,-1,-1,-1,-1],"loss_changes":[1.6455388E0,1.8106134E0,1.1059005E0,1.1718733E0,2.0650554E-1,0E0,1.200108E0,0E0,0E0,0E0,0E0,0E0,0E0],"parents":[2147483647,0,0,1,1,2,2,3,3,4,4,6,6],"right_children":[2,4,6,8,10,-1,12,-1,-1,-1,-1,-1,-1],"split_conditions":[2.507397E-5,3.0167157E-5,3.129822E-5,1.9323981E-5,4.197082E-5,-6.2261324E-2,3.2998672E-5,2.4895765E-2,-5.5515494E-2,1.0621217E-2,6.249662E-2,-3.139969E-2,4.6232417E-2],"split_indices":[7,17,9,10,6,0,17,0,0,0,0,0,0],"split_type":[0,0,0,0,0,0,0,0,0,0,0,0,0],"sum_hessian":[1.0322917E1,5.739091E0,4.5838265E0,2.3242142E0,3.4148767E0,2.0301437E0,2.5536826E0,1.0622395E0,1.2619746E0,1.0417428E0,2.373134E0,1.5530456E0,1.0006369E0],"tree_param":{"num_deleted":"0","num_feature":"20","num_nodes":"13","size_leaf_vector":"1"}},{"base_weights":[-2.0554408E-2,3.0316705E-1,-4.0638375E-1,-2.8927088E-1,6.827141E-1,-5.3933002E-2,1.1074795E-2,2.4063202E-2,-5.417144E-2,1.0206469E-2,6.116728E-2],"categories":[],"categories_nodes":[],"categories_segments":[],"categories_sizes":[],"default_left":[0,0,0,0,0,0,0,0,0,0,0],"id":31,"left_children":[1,3,5,7,9,-1,-1,-1,-1,-1,-1],"loss_changes":[1.5044647E0,1.6784382E0,1.0544027E0,1.0967438E0,2.0214415E-1,0E0,0E0,0E0,0E0,0E0,0E0],"parents":[2147483647,0,0,1,1,2,2,3,3,4,4],"right_children":[2,4,6,8,10,-1,-1,-1,-1,-1,-1],"split_conditions":[2.507397E-5,3.0167157E-5,3.253253E-5,1.9323981E-5,4.197082E-5,-5.3933002E-2,1.1074795E-2,2.4063202E-2,-5.417144E-2,1.0206469E-2,6.116728E-2],"split_indices":[7,17,9,10,6,0,0,0,0,0,0],"split_type":[0,0,0,0,0,0,0,0,0,0,0],"sum_hessian":[1.0058838E1,5.58615E0,4.472688E0,2.2741945E0,3.3119555E0,2.6685534E0,1.8041348E0,1.0515794E0,1.2226151E0,1.0433431E0,2.2686126E0],"tree_param":{"num_deleted":"0","num_feature":"20","num_nodes":"11","size_leaf_vector":"1"}},{"base_weights":[-1.952274E-2,2.2270761E-1,-5.08297E-1,-1.5965427E-1,6.462492E-1,-5.576218E-2,6.219692E-3,-4.8342305E-1,2.1976763E-2,1.1437607E-2,5.7434876E-2,-2.985637E-3,-5.2652072E-2],"categories":[],"categories_nodes":[],"categories_segments":[],"categories_sizes":[],"default_left":[0,0,0,0,0,0,0,0,0,0,0,0,0],"id":32,"left_children":[1,3,5,7,9,-1,-1,11,-1,-1,-1,-1,-1],"loss_changes":[1.3962092E0,1.389198E0,6.033541E-1,8.708489E-1,1.1730111E-1,0E0,0E0,2.8994614E-1,0E0,0E0,0E0,0E0,0E0],"parents":[2147483647,0,0,1,1,2,2,3,3,4,4,7,7],"right_children":[2,4,6,8,10,-1,-1,12,-1,-1,-1,-1,-1],"split_conditions":[4.649582E-3,2.2867522E-5,7.392416E-6,4.5295797E-5,3.0816145E-6,-5.576218E-2,6.219692E-3,1.0327058E-3,2.1976763E-2,1.1437607E-2,5.7434876E-2,-2.985637E-3,-5.2652072E-2],"split_indices":[18,4,13,6,16,0,0,5,0,0,0,0,0],"split_type":[0,0,0,0,0,0,0,0,0,0,0,0,0],"sum_hessian":[9.836583E0,6.941044E0,2.8955388E0,3.9752998E0,2.965744E0,1.8872241E0,1.0083147E0,2.2780507E0,1.6972492E0,1.0216956E0,1.9440484E0,1.1422281E0,1.1358225E0],"tree_param":{"num_deleted":"0","num_feature":"20","num_nodes":"13","size_leaf_vector":"1"}},{"base_weights":[-1.9817505E-2,2.9914847E-1,-3.9629984E-1,-2.6983637E-1,6.643271E-1,-6.677597E-1,1.3131044E-2,2.3490286E-2,-5.219954E-2,1.05502345E-2,5.9302997E-2,-7.85229E-3,-6.387268E-2],"categories":[],"categories_nodes":[],"categories_segments":[],"categories_sizes":[],"default_left":[0,0,0,0,0,0,0,0,0,0,0,0,0],"id":33,"left_children":[1,3,5,7,9,11,-1,-1,-1,-1,-1,-1,-1],"loss_changes":[1.3943344E0,1.4926782E0,9.394159E-1,1.0086558E0,1.6268742E-1,3.045361E-1,0E0,0E0,0E0,0E0,0E0,0E0,0E0],"parents":[2147483647,0,0,1,1,2,2,3,3,4,4,5,5],"right_children":[2,4,6,8,10,12,-1,-1,-1,-1,-1,-1,-1],"split_conditions":[2.507397E-5,3.0167157E-5,3.2998672E-5,1.9323981E-5,4.197082E-5,4.2179312E-5,1.3131044E-2,2.3490286E-2,-5.219954E-2,1.05502345E-2,5.9302997E-2,-7.85229E-3,-6.387268E-2],"split_indices":[7,17,17,10,6,2,0,0,0,0,0,0,0],"split_type":[0,0,0,0,0,0,0,0,0,0,0,0,0],"sum_hessian":[9.623987E0,5.321165E0,4.3028226E0,2.1821854E0,3.1389794E0,2.8026297E0,1.5001926E0,1.0334034E0,1.148782E0,1.021099E0,2.1178803E0,1.0762726E0,1.7263571E0],"tree_param":{"num_deleted":"0","num_feature":"20","num_nodes":"13","size_leaf_vector":"1"}},{"base_weights":[-2.036417E-2,2.8973487E-1,-3.8279048E-1,-2.6261312E-1,6.461164E-1,-5.8567483E-2,5.4500744E-2,2.2710364E-2,-5.0977565E-2,1.0142514E-2,5.8055233E-2,-2.7800703E-2,3.1596668E-2],"categories":[],"categories_nodes":[],"categories_segments":[],"categories_sizes":[],"default_left":[0,0,0,0,0,0,0,0,0,0,0,0,0],"id":34,"left_children":[1,3,5,7,9,-1,11,-1,-1,-1,-1,-1,-1],"loss_changes":[1.2822237E0,1.3873076E0,9.5416194E-1,9.455838E-1,1.599859E-1,0E0,6.910945E-1,0E0,0E0,0E0,0E0,0E0,0E0],"parents":[2147483647,0,0,1,1,2,2,3,3,4,4,6,6],"right_children":[2,4,6,8,10,-1,12,-1,-1,-1,-1,-1,-1],"split_conditions":[2.507397E-5,3.0167157E-5,3.129822E-5,1.9323981E-5,4.197082E-5,-5.8567483E-2,4.6794514E-5,2.2710364E-2,-5.0977565E-2,1.0142514E-2,5.8055233E-2,-2.7800703E-2,3.1596668E-2],"split_indices":[7,17,9,10,6,0,6,0,0,0,0,0,0],"split_type":[0,0,0,0,0,0,0,0,0,0,0,0,0],"sum_hessian":[9.422069E0,5.1856737E0,4.2363954E0,2.1368806E0,3.048793E0,1.8062352E0,2.43016E0,1.0234542E0,1.1134266E0,1.0226256E0,2.0261676E0,1.1205875E0,1.3095725E0],"tree_param":{"num_deleted":"0","num_feature":"20","num_nodes":"13","size_leaf_vector":"1"}},{"base_weights":[-2.0691978E-2,4.4028214E-1,-2.5603172E-1,-1.241051E-2,5.82759E-2,-6.214652E-1,5.064069E-2,-1.4394042E-2,-5.5146366E-2,4.5812264E-2,-4.868426E-1,-4.616093E-2,-9.283996E-3],"categories":[],"categories_nodes":[],"categories_segments":[],"categories_sizes":[],"default_left":[0,0,0,0,0,0,0,0,0,0,0,0,0],"id":35,"left_children":[1,3,5,-1,-1,7,9,-1,-1,-1,11,-1,-1],"loss_changes":[1.2198449E0,9.071208E-1,8.594742E-1,0E0,0E0,2.7387857E-2,1.7853221E0,0E0,0E0,0E0,6.7584574E-2,0E0,0E0],"parents":[2147483647,0,0,1,1,2,2,5,5,6,6,10,10],"right_children":[2,4,6,-1,-1,8,10,-1,-1,-1,12,-1,-1],"split_conditions":[1.6642654E-5,2.9340315E-5,4.1756208E-5,-1.241051E-2,5.82759E-2,4.1213505E-5,2.5274832E-5,-1.4394042E-2,-5.5146366E-2,4.5812264E-2,3.2944685E-5,-4.616093E-2,-9.283996E-3],"split_indices":[5,9,6,0,0,2,7,0,0,0,17,0,0],"split_type":[0,0,0,0,0,0,0,0,0,0,0,0,0],"sum_hessian":[9.205221E0,2.8168504E0,6.388371E0,1.1881075E0,1.6287428E0,2.4465551E0,3.9418159E0,1.0751649E0,1.3713902E0,1.8633177E0,2.078498E0,1.021346E0,1.057152E0],"tree_param":{"num_deleted":"0","num_feature":"20","num_nodes":"13","size_leaf_vector":"1"}},{"base_weights":[-2.2733318E-2,4.26919E-1,-2.5191432E-1,-1.1916025E-2,5.6966737E-2,-6.038729E-1,4.5677513E-2,-1.3857712E-2,-5.381606E-2,4.4339012E-2,-3.5475478E-2],"categories":[],"categories_nodes":[],"categories_segments":[],"categories_sizes":[],"default_left":[0,0,0,0,0,0,0,0,0,0,0],"id":36,"left_children":[1,3,5,-1,-1,7,9,-1,-1,-1,-1],"loss_changes":[1.139763E0,8.519376E-1,7.88385E-1,0E0,0E0,2.9314041E-2,1.6563184E0,0E0,0E0,0E0,0E0],"parents":[2147483647,0,0,1,1,2,2,5,5,6,6],"right_children":[2,4,6,-1,-1,8,10,-1,-1,-1,-1],"split_conditions":[1.6642654E-5,2.9340315E-5,4.1756208E-5,-1.1916025E-2,5.6966737E-2,4.1213505E-5,2.5274832E-5,-1.3857712E-2,-5.381606E-2,4.4339012E-2,-3.5475478E-2],"split_indices":[5,9,6,0,0,2,7,0,0,0,0],"split_type":[0,0,0,0,0,0,0,0,0,0,0],"sum_hessian":[9.016479E0,2.7527635E0,6.2637153E0,1.1861778E0,1.5665858E0,2.3981965E0,3.8655188E0,1.0718497E0,1.3263468E0,1.8159103E0,2.0496085E0],"tree_param":{"num_deleted":"0","num_feature":"20","num_nodes":"11","size_leaf_vector":"1"}},{"base_weights":[-2.2665717E-2,1.9952105E-1,-4.656314E-1,-2.5503954E-2,4.550566E-1,5.0633415E-3,-5.2740715E-2,7.030778E-1,-2.2698628E-2,1.5601692E-2,5.9383113E-2],"categories":[],"categories_nodes":[],"categories_segments":[],"categories_sizes":[],"default_left":[0,0,0,0,0,0,0,0,0,0,0],"id":37,"left_children":[1,3,5,-1,7,-1,-1,9,-1,-1,-1],"loss_changes":[1.0621057E0,1.1554912E0,5.021205E-1,0E0,1.2187839E0,0E0,0E0,2.5595188E-2,0E0,0E0,0E0],"parents":[2147483647,0,0,1,1,2,2,4,4,7,7],"right_children":[2,4,6,-1,8,-1,-1,10,-1,-1,-1],"split_conditions":[4.649582E-3,5.261305E-5,3.065361E-6,-2.5503954E-2,2.4043653E-2,5.0633415E-3,-5.2740715E-2,4.2226016E-5,-2.2698628E-2,1.5601692E-2,5.9383113E-2],"split_indices":[18,18,16,0,5,0,0,6,0,0,0],"split_type":[0,0,0,0,0,0,0,0,0,0,0],"sum_hessian":[8.847506E0,6.2580934E0,2.5894125E0,1.904956E0,4.353137E0,1.0188577E0,1.5705549E0,3.3339303E0,1.019207E0,1.014864E0,2.3190663E0],"tree_param":{"num_deleted":"0","num_feature":"20","num_nodes":"11","size_leaf_vector":"1"}},{"base_weights":[-2.3345055E-2,2.6794478E-1,-3.5943896E-1,-2.3688877E-1,6.080185E-1,-5.5301253E-2,5.394875E-2,7.764936E-3,-3.4158837E-2,5.6703392E-2,1.0980207E-2,-2.5334228E-2,2.9845506E-2],"categories":[],"categories_nodes":[],"categories_segments":[],"categories_sizes":[],"default_left":[0,0,0,0,0,0,0,0,0,0,0,0,0],"id":38,"left_children":[1,3,5,7,9,-1,11,-1,-1,-1,-1,-1,-1],"loss_changes":[1.0434663E0,1.132175E0,8.082375E-1,2.7306372E-1,1.4346611E-1,0E0,5.765547E-1,0E0,0E0,0E0,0E0,0E0,0E0],"parents":[2147483647,0,0,1,1,2,2,3,3,4,4,6,6],"right_children":[2,4,6,8,10,-1,12,-1,-1,-1,-1,-1,-1],"split_conditions":[2.507397E-5,3.0167157E-5,3.129822E-5,2.2275079E-5,1.7324599E-5,-5.5301253E-2,4.6794514E-5,7.764936E-3,-3.4158837E-2,5.6703392E-2,1.0980207E-2,-2.5334228E-2,2.9845506E-2],"split_indices":[7,17,9,8,12,0,6,0,0,0,0,0,0],"split_type":[0,0,0,0,0,0,0,0,0,0,0,0,0],"sum_hessian":[8.674661E0,4.755701E0,3.9189594E0,2.0362873E0,2.719414E0,1.6379242E0,2.2810352E0,1.0019716E0,1.0343157E0,1.5761613E0,1.1432528E0,1.07493E0,1.2061052E0],"tree_param":{"num_deleted":"0","num_feature":"20","num_nodes":"13","size_leaf_vector":"1"}},{"base_weights":[-2.2942636E-2,4.1673157E-1,-2.362506E-1,5.1193673E-2,-7.056877E-3,-4.3309668E-1,1.5838442E-2,-5.924015E-1,5.6088176E-3,-6.016721E-2,-4.048416E-3],"categories":[],"categories_nodes":[],"categories_segments":[],"categories_sizes":[],"default_left":[0,0,0,0,0,0,0,0,0,0,0],"id":39,"left_children":[1,3,5,-1,-1,7,-1,9,-1,-1,-1],"loss_changes":[9.913525E-1,5.357151E-1,7.1227664E-1,0E0,0E0,4.6687663E-1,0E0,4.1853285E-1,0E0,0E0,0E0],"parents":[2147483647,0,0,1,1,2,2,5,5,7,7],"right_children":[2,4,6,-1,-1,8,-1,10,-1,-1,-1],"split_conditions":[1.5250721E-5,1.53567E-4,2.318039E-5,5.1193673E-2,-7.056877E-3,3.123986E-6,1.5838442E-2,1.6882797E-3,5.6088176E-3,-6.016721E-2,-4.048416E-3],"split_indices":[3,18,4,0,0,16,0,14,0,0,0],"split_type":[0,0,0,0,0,0,0,0,0,0,0],"sum_hessian":[8.520604E0,2.4718733E0,6.048731E0,1.4046193E0,1.0672538E0,4.2229047E0,1.8258263E0,3.0879138E0,1.1349909E0,1.869422E0,1.2184918E0],"tree_param":{"num_deleted":"0","num_feature":"20","num_nodes":"11","size_leaf_vector":"1"}},{"base_weights":[-2.1472167E-2,2.6207754E-1,-3.47743E-1,-1.6882755E-2,5.9481704E-1,-5.9904945E-1,1.29408E-2,5.4997865E-2,1.1321094E-2,-7.618589E-3,-5.781299E-2],"categories":[],"categories_nodes":[],"categories_segments":[],"categories_sizes":[],"default_left":[0,0,0,0,0,0,0,0,0,0,0],"id":40,"left_children":[1,3,5,-1,7,9,-1,-1,-1,-1,-1],"loss_changes":[9.589661E-1,1.0399096E0,7.298515E-1,0E0,1.10324144E-1,2.1692002E-1,0E0,0E0,0E0,0E0,0E0],"parents":[2147483647,0,0,1,1,2,2,4,4,5,5],"right_children":[2,4,6,-1,8,10,-1,-1,-1,-1,-1],"split_conditions":[2.507397E-5,3.0167157E-5,3.2998672E-5,-1.6882755E-2,1.7324599E-5,4.2415213E-5,1.29408E-2,5.4997865E-2,1.1321094E-2,-7.618589E-3,-5.781299E-2],"split_indices":[7,17,17,0,12,2,0,0,0,0,0],"split_type":[0,0,0,0,0,0,0,0,0,0,0],"sum_hessian":[8.38053E0,4.589081E0,3.7914493E0,1.9936137E0,2.595467E0,2.454504E0,1.3369452E0,1.481243E0,1.1142242E0,1.0385098E0,1.4159942E0],"tree_param":{"num_deleted":"0","num_feature":"20","num_nodes":"11","size_leaf_vector":"1"}},{"base_weights":[-2.0421615E-2,3.9554042E-1,-2.3331563E-1,-1.0952686E-2,5.3321984E-2,-4.2593244E-1,1.4230021E-2,2.6868058E-3,-5.5456374E-2],"categories":[],"categories_nodes":[],"categories_segments":[],"categories_sizes":[],"default_left":[0,0,0,0,0,0,0,0,0],"id":41,"left_children":[1,3,5,-1,-1,7,-1,-1,-1],"loss_changes":[9.129106E-1,7.031087E-1,6.315439E-1,0E0,0E0,7.433481E-1,0E0,0E0,0E0],"parents":[2147483647,0,0,1,1,2,2,5,5],"right_children":[2,4,6,-1,-1,8,-1,-1,-1],"split_conditions":[1.6642654E-5,2.9340315E-5,4.6794514E-5,-1.0952686E-2,5.3321984E-2,6.0435184E-5,1.4230021E-2,2.6868058E-3,-5.5456374E-2],"split_indices":[5,9,6,0,0,19,0,0,0],"split_type":[0,0,0,0,0,0,0,0,0],"sum_hessian":[8.266752E0,2.5081983E0,5.7585535E0,1.1207968E0,1.3874016E0,3.9522538E0,1.8062997E0,1.9563397E0,1.9959141E0],"tree_param":{"num_deleted":"0","num_feature":"20","num_nodes":"9","size_leaf_vector":"1"}},{"base_weights":[-1.8719848E-2,2.572459E-1,-3.3664465E-1,-1.795803E-2,5.5647606E-1,-4.6723366E-2,9.812929E-3,4.8219855E-3,5.3665936E-2],"categories":[],"categories_nodes":[],"categories_segments":[],"categories_sizes":[],"default_left":[0,0,0,0,0,0,0,0,0],"id":42,"left_children":[1,3,5,-1,7,-1,-1,-1,-1],"loss_changes":[8.8971853E-1,9.457812E-1,7.088507E-1,0E0,2.4465525E-1,0E0,0E0,0E0,0E0],"parents":[2147483647,0,0,1,1,2,2,4,4],"right_children":[2,4,6,-1,8,-1,-1,-1,-1],"split_conditions":[2.507397E-5,3.0117406E-5,3.253253E-5,-1.795803E-2,4.1426865E-5,-4.6723366E-2,9.812929E-3,4.8219855E-3,5.3665936E-2],"split_indices":[7,17,9,0,6,0,0,0,0],"split_type":[0,0,0,0,0,0,0,0,0],"sum_hessian":[8.153767E0,4.4670916E0,3.686675E0,1.7545536E0,2.7125378E0,2.0800345E0,1.6066405E0,1.005517E0,1.7070209E0],"tree_param":{"num_deleted":"0","num_feature":"20","num_nodes":"9","size_leaf_vector":"1"}},{"base_weights":[-1.7093759E-2,1.9315487E-1,-4.298715E-1,-2.265677E-2,4.396859E-1,4.4548363E-4,-4.7784213E-2,5.367594E-2,-1.4462247E-2],"categories":[],"categories_nodes":[],"categories_segments":[],"categories_sizes":[],"default_left":[0,0,0,0,0,0,0,0,0],"id":43,"left_children":[1,3,5,-1,7,-1,-1,-1,-1],"loss_changes":[8.660613E-1,9.4691044E-1,3.067984E-1,0E0,9.8623186E-1,0E0,0E0,0E0,0E0],"parents":[2147483647,0,0,1,1,2,2,4,4],"right_children":[2,4,6,-1,8,-1,-1,-1,-1],"split_conditions":[4.649582E-3,5.261305E-5,3.0685303E-6,-2.265677E-2,4.2882627E-3,4.4548363E-4,-4.7784213E-2,5.367594E-2,-1.4462247E-2],"split_indices":[18,18,16,0,5,0,0,0,0],"split_type":[0,0,0,0,0,0,0,0,0],"sum_hessian":[8.022537E0,5.6677337E0,2.3548033E0,1.8087842E0,3.8589497E0,1.071976E0,1.2828274E0,2.5951126E0,1.263837E0],"tree_param":{"num_deleted":"0","num_feature":"20","num_nodes":"9","size_leaf_vector":"1"}},{"base_weights":[-1.9376665E-2,3.7977827E-1,-2.2313157E-1,-9.687247E-3,5.1149577E-2,-4.060188E-1,1.3553512E-2,2.8562518E-3,-5.32961E-2],"categories":[],"categories_nodes":[],"categories_segments":[],"categories_sizes":[],"default_left":[0,0,0,0,0,0,0,0,0],"id":44,"left_children":[1,3,5,-1,-1,7,-1,-1,-1],"loss_changes":[8.0703616E-1,6.0665584E-1,5.541599E-1,0E0,0E0,6.7481476E-1,0E0,0E0,0E0],"parents":[2147483647,0,0,1,1,2,2,5,5],"right_children":[2,4,6,-1,-1,8,-1,-1,-1],"split_conditions":[1.6642654E-5,2.9340315E-5,4.6794514E-5,-9.687247E-3,5.1149577E-2,6.0435184E-5,1.3553512E-2,2.8562518E-3,-5.32961E-2],"split_indices":[5,9,6,0,0,19,0,0,0],"split_type":[0,0,0,0,0,0,0,0,0],"sum_hessian":[7.8810735E0,2.3714724E0,5.509601E0,1.0968889E0,1.2745833E0,3.7885277E0,1.7210734E0,1.8972701E0,1.8912575E0],"tree_param":{"num_deleted":"0","num_feature":"20","num_nodes":"9","size_leaf_vector":"1"}},{"base_weights":[-1.763273E-2,1.8723978E-1,-4.169235E-1,-2.1073075E-2,4.2576227E-1,4.3081914E-4,-4.6545725E-2,5.1860113E-2,-1.30041735E-2],"categories":[],"categories_nodes":[],"categories_segments":[],"categories_sizes":[],"default_left":[0,0,0,0,0,0,0,0,0],"id":45,"left_children":[1,3,5,-1,7,-1,-1,-1,-1],"loss_changes":[7.9614407E-1,8.445971E-1,2.8651112E-1,0E0,8.678368E-1,0E0,0E0,0E0,0E0],"parents":[2147483647,0,0,1,1,2,2,4,4],"right_children":[2,4,6,-1,8,-1,-1,-1,-1],"split_conditions":[4.649582E-3,5.261305E-5,3.0685303E-6,-2.1073075E-2,4.2882627E-3,4.3081914E-4,-4.6545725E-2,5.1860113E-2,-1.30041735E-2],"split_indices":[18,18,16,0,5,0,0,0,0],"split_type":[0,0,0,0,0,0,0,0,0],"sum_hessian":[7.77808E0,5.4915066E0,2.2865734E0,1.7933073E0,3.698199E0,1.0596011E0,1.2269725E0,2.455277E0,1.2429221E0],"tree_param":{"num_deleted":"0","num_feature":"20","num_nodes":"9","size_leaf_vector":"1"}},{"base_weights":[-1.9698998E-2,2.4482217E-1,-3.231257E-1,-1.709457E-2,5.374665E-1,-5.0397877E-2,5.4011017E-2,1.0043861E-2,4.9638648E-2,-1.0745074E-2,1.693439E-2],"categories":[],"categories_nodes":[],"categories_segments":[],"categories_sizes":[],"default_left":[0,0,0,0,0,0,0,0,0,0,0],"id":46,"left_children":[1,3,5,-1,7,-1,9,-1,-1,-1,-1],"loss_changes":[7.731348E-1,8.403287E-1,6.228479E-1,0E0,8.717346E-2,0E0,1.3631631E-1,0E0,0E0,0E0,0E0],"parents":[2147483647,0,0,1,1,2,2,4,4,6,6],"right_children":[2,4,6,-1,8,-1,10,-1,-1,-1,-1],"split_conditions":[2.507397E-5,3.0117406E-5,3.129822E-5,-1.709457E-2,4.197082E-5,-5.0397877E-2,3.2944685E-5,1.0043861E-2,4.9638648E-2,-1.0745074E-2,1.693439E-2],"split_indices":[7,17,9,0,6,0,17,0,0,0,0],"split_type":[0,0,0,0,0,0,0,0,0,0,0],"sum_hessian":[7.646928E0,4.188565E0,3.4583628E0,1.6860288E0,2.502536E0,1.3904473E0,2.0679157E0,1.0788747E0,1.4236612E0,1.039782E0,1.0281336E0],"tree_param":{"num_deleted":"0","num_feature":"20","num_nodes":"11","size_leaf_vector":"1"}},{"base_weights":[-1.8656636E-2,3.8309586E-1,-2.1346305E-1,4.7048654E-2,-5.011436E-3,-4.0532047E-1,1.5383794E-2,-5.5872524E-1,5.3681554E-3,-5.5450443E-2,-4.573064E-3],"categories":[],"categories_nodes":[],"categories_segments":[],"categories_sizes":[],"default_left":[0,0,0,0,0,0,0,0,0,0,0],"id":47,"left_children":[1,3,5,-1,-1,7,-1,9,-1,-1,-1],"loss_changes":[7.49071E-1,3.8715944E-1,5.958343E-1,0E0,0E0,3.848331E-1,0E0,2.8575325E-1,0E0,0E0,0E0],"parents":[2147483647,0,0,1,1,2,2,5,5,7,7],"right_children":[2,4,6,-1,-1,8,-1,10,-1,-1,-1],"split_conditions":[1.5250721E-5,6.160385E-5,2.318039E-5,4.7048654E-2,-5.011436E-3,3.123986E-6,1.5383794E-2,1.6882797E-3,5.3681554E-3,-5.5450443E-2,-4.573064E-3],"split_indices":[3,18,4,0,0,16,0,14,0,0,0],"split_type":[0,0,0,0,0,0,0,0,0,0,0],"sum_hessian":[7.526199E0,2.1420555E0,5.384143E0,1.1328391E0,1.0092165E0,3.7136564E0,1.6704866E0,2.679988E0,1.0336685E0,1.6103108E0,1.0696772E0],"tree_param":{"num_deleted":"0","num_feature":"20","num_nodes":"11","size_leaf_vector":"1"}},{"base_weights":[-1.7242823E-2,2.411289E-1,-3.132666E-1,-1.6206166E-2,5.2825975E-1,-5.492925E-1,1.2821575E-2,1.0482362E-2,4.8247743E-2,-1.0940674E-2,-5.1886175E-2],"categories":[],"categories_nodes":[],"categories_segments":[],"categories_sizes":[],"default_left":[0,0,0,0,0,0,0,0,0,0,0],"id":48,"left_children":[1,3,5,-1,7,9,-1,-1,-1,-1,-1],"loss_changes":[7.1908116E-1,7.78135E-1,5.917746E-1,0E0,6.191635E-2,8.111727E-2,0E0,0E0,0E0,0E0,0E0],"parents":[2147483647,0,0,1,1,2,2,4,4,5,5],"right_children":[2,4,6,-1,8,10,-1,-1,-1,-1,-1],"split_conditions":[2.507397E-5,3.0117406E-5,3.2998672E-5,-1.6206166E-2,4.197082E-5,2.4087032E-5,1.2821575E-2,1.0482362E-2,4.8247743E-2,-1.0940674E-2,-5.1886175E-2],"split_indices":[7,17,17,0,6,8,0,0,0,0,0],"split_type":[0,0,0,0,0,0,0,0,0,0,0],"sum_hessian":[7.4140735E0,4.0578194E0,3.356254E0,1.6607604E0,2.397059E0,2.1660585E0,1.1901956E0,1.0536917E0,1.3433672E0,1.0937322E0,1.0723263E0],"tree_param":{"num_deleted":"0","num_feature":"20","num_nodes":"11","size_leaf_vector":"1"}},{"base_weights":[-1.697417E-2,3.738027E-1,-2.0665655E-1,4.5416113E-2,-3.3953171E-3,-3.9314726E-1,1.4929301E-2,-5.4588133E-1,5.498679E-3,-5.4070245E-2,-4.5028045E-3],"categories":[],"categories_nodes":[],"categories_segments":[],"categories_sizes":[],"default_left":[0,0,0,0,0,0,0,0,0,0,0],"id":49,"left_children":[1,3,5,-1,-1,7,-1,9,-1,-1,-1],"loss_changes":[6.94142E-1,3.2611594E-1,5.509078E-1,0E0,0E0,3.6887282E-1,0E0,2.6252484E-1,0E0,0E0,0E0],"parents":[2147483647,0,0,1,1,2,2,5,5,7,7],"right_children":[2,4,6,-1,-1,8,-1,10,-1,-1,-1],"split_conditions":[1.5250721E-5,5.9717582E-5,2.318039E-5,4.5416113E-2,-3.3953171E-3,3.123986E-6,1.4929301E-2,7.3529545E-6,5.498679E-3,-5.4070245E-2,-4.5028045E-3],"split_indices":[3,18,4,0,0,16,0,13,0,0,0],"split_type":[0,0,0,0,0,0,0,0,0,0,0],"sum_hessian":[7.322508E0,2.0756502E0,5.2468576E0,1.0500239E0,1.0256264E0,3.6157935E0,1.631064E0,2.5956447E0,1.0201489E0,1.5524085E0,1.0432363E0],"tree_param":{"num_deleted":"0","num_feature":"20","num_nodes":"11","size_leaf_vector":"1"}},{"base_weights":[-1.5465049E-2,2.3804983E-1,-3.0449578E-1,-1.5079663E-2,5.1544774E-1,-5.362522E-1,1.2463414E-2,1.0423375E-2,4.6961304E-2,-1.0326999E-2,-5.0773486E-2],"categories":[],"categories_nodes":[],"categories_segments":[],"categories_sizes":[],"default_left":[0,0,0,0,0,0,0,0,0,0,0],"id":50,"left_children":[1,3,5,-1,7,9,-1,-1,-1,-1,-1],"loss_changes":[6.7536885E-1,7.059156E-1,5.563532E-1,0E0,5.0961256E-2,8.103496E-2,0E0,0E0,0E0,0E0,0E0],"parents":[2147483647,0,0,1,1,2,2,4,4,5,5],"right_children":[2,4,6,-1,8,10,-1,-1,-1,-1,-1],"split_conditions":[2.507397E-5,3.0117406E-5,3.2998672E-5,-1.5079663E-2,4.197082E-5,2.4087032E-5,1.2463414E-2,1.0423375E-2,4.6961304E-2,-1.0326999E-2,-5.0773486E-2],"split_indices":[7,17,17,0,6,8,0,0,0,0,0],"split_type":[0,0,0,0,0,0,0,0,0,0,0],"sum_hessian":[7.227844E0,3.9444609E0,3.2833831E0,1.6336423E0,2.3108187E0,2.106723E0,1.1766602E0,1.0376117E0,1.273207E0,1.066029E0,1.0406941E0],"tree_param":{"num_deleted":"0","num_feature":"20","num_nodes":"11","size_leaf_vector":"1"}},{"base_weights":[-1.5191881E-2,3.6249104E-1,-2.1030387E-1,-8.022299E-3,4.8024815E-2,-3.742958E-1,1.2069813E-2,3.415208E-3,-5.0099492E-2],"categories":[],"categories_nodes":[],"categories_segments":[],"categories_sizes":[],"default_left":[0,0,0,0,0,0,0,0,0],"id":51,"left_children":[1,3,5,-1,-1,7,-1,-1,-1],"loss_changes":[6.76196E-1,4.7811285E-1,4.2558572E-1,0E0,0E0,5.8073723E-1,0E0,0E0,0E0],"parents":[2147483647,0,0,1,1,2,2,5,5],"right_children":[2,4,6,-1,-1,8,-1,-1,-1],"split_conditions":[1.6642654E-5,2.9340315E-5,4.6794514E-5,-8.022299E-3,4.8024815E-2,6.0435184E-5,1.2069813E-2,3.415208E-3,-5.0099492E-2],"split_indices":[5,9,6,0,0,19,0,0,0],"split_type":[0,0,0,0,0,0,0,0,0],"sum_hessian":[7.1416597E0,2.1404598E0,5.0011997E0,1.0244696E0,1.1159902E0,3.4631271E0,1.5380728E0,1.7732596E0,1.6898675E0],"tree_param":{"num_deleted":"0","num_feature":"20","num_nodes":"9","size_leaf_vector":"1"}},{"base_weights":[-1.356351E-2,1.8168427E-1,-3.8526967E-1,-1.880757E-2,4.1225383E-1,-4.2636395E-2,-2.1886523E-4,4.943008E-2,-1.0982484E-2],"categories":[],"categories_nodes":[],"categories_segments":[],"categories_sizes":[],"default_left":[0,0,0,0,0,0,0,0,0],"id":52,"left_children":[1,3,5,-1,7,-1,-1,-1,-1],"loss_changes":[6.54511E-1,6.976399E-1,2.1508962E-1,0E0,6.8468744E-1,0E0,0E0,0E0,0E0],"parents":[2147483647,0,0,1,1,2,2,4,4],"right_children":[2,4,6,-1,8,-1,-1,-1,-1],"split_conditions":[4.649582E-3,5.261305E-5,7.3840547E-6,-1.880757E-2,4.2882627E-3,-4.2636395E-2,-2.1886523E-4,4.943008E-2,-1.0982484E-2],"split_indices":[18,18,13,0,5,0,0,0,0],"split_type":[0,0,0,0,0,0,0,0,0],"sum_hessian":[7.0539455E0,4.9598684E0,2.094077E0,1.6943595E0,3.265509E0,1.0865904E0,1.0074868E0,2.1403039E0,1.125205E0],"tree_param":{"num_deleted":"0","num_feature":"20","num_nodes":"9","size_leaf_vector":"1"}},{"base_weights":[-1.55271515E-2,2.3387727E-1,-2.982024E-1,-1.4011601E-2,5.0104475E-1,-4.7102947E-2,4.2208117E-3,4.6736214E-2,1.130852E-2],"categories":[],"categories_nodes":[],"categories_segments":[],"categories_sizes":[],"default_left":[0,0,0,0,0,0,0,0,0],"id":53,"left_children":[1,3,5,-1,7,-1,-1,-1,-1],"loss_changes":[6.2961215E-1,6.3079745E-1,5.2196145E-1,0E0,4.267454E-2,0E0,0E0,0E0,0E0],"parents":[2147483647,0,0,1,1,2,2,4,4],"right_children":[2,4,6,-1,8,-1,-1,-1,-1],"split_conditions":[2.507397E-5,3.0117406E-5,3.129822E-5,-1.4011601E-2,1.6768072E-5,-4.7102947E-2,4.2208117E-3,4.6736214E-2,1.130852E-2],"split_indices":[7,17,9,0,12,0,0,0,0],"split_type":[0,0,0,0,0,0,0,0,0],"sum_hessian":[6.9413586E0,3.7794118E0,3.1619468E0,1.5847301E0,2.1946816E0,1.2381506E0,1.923796E0,1.0496749E0,1.1450069E0],"tree_param":{"num_deleted":"0","num_feature":"20","num_nodes":"9","size_leaf_vector":"1"}},{"base_weights":[-1.4405861E-2,2.7334562E-2,-1.9710103E-1,-3.7888175E-1,1.4447837E-2,-5.0732887E-1,7.247728E-4,-5.1238764E-2,-5.6935153E-3],"categories":[],"categories_nodes":[],"categories_segments":[],"categories_sizes":[],"default_left":[0,0,0,0,0,0,0,0,0],"id":54,"left_children":[1,-1,3,5,-1,7,-1,-1,-1],"loss_changes":[6.1561245E-1,0E0,4.9447414E-1,2.2419977E-1,0E0,2.0009315E-1,0E0,0E0,0E0],"parents":[2147483647,0,0,2,2,3,3,5,5],"right_children":[2,-1,4,6,-1,8,-1,-1,-1],"split_conditions":[1.5250721E-5,2.7334562E-2,2.318039E-5,3.1210307E-6,1.4447837E-2,3.076925E-5,7.247728E-4,-5.1238764E-2,-5.6935153E-3],"split_indices":[3,0,4,16,0,17,0,0,0],"split_type":[0,0,0,0,0,0,0,0,0],"sum_hessian":[6.8561053E0,1.9068456E0,4.9492598E0,3.3940673E0,1.5551924E0,2.3210502E0,1.073017E0,1.2343252E0,1.0867251E0],"tree_param":{"num_deleted":"0","num_feature":"20","num_nodes":"9","size_leaf_vector":"1"}},{"base_weights":[-1.53887905E-2,1.7721818E-1,-3.7674975E-1,-1.7680546E-2,4.014576E-1,-2.0171209E-4,-4.2165734E-2,4.8042204E-2,-1.0103783E-2],"categories":[],"categories_nodes":[],"categories_segments":[],"categories_sizes":[],"default_left":[0,0,0,0,0,0,0,0,0],"id":55,"left_children":[1,3,5,-1,7,-1,-1,-1,-1],"loss_changes":[6.092582E-1,6.284376E-1,2.086814E-1,0E0,6.126696E-1,0E0,0E0,0E0,0E0],"parents":[2147483647,0,0,1,1,2,2,4,4],"right_children":[2,4,6,-1,8,-1,-1,-1,-1],"split_conditions":[4.649582E-3,5.261305E-5,3.0732965E-6,-1.7680546E-2,4.2882627E-3,-2.0171209E-4,-4.2165734E-2,4.8042204E-2,-1.0103783E-2],"split_indices":[18,18,16,0,5,0,0,0,0],"split_type":[0,0,0,0,0,0,0,0,0],"sum_hessian":[6.7943435E0,4.7644515E0,2.0298922E0,1.6586311E0,3.1058204E0,1.0091027E0,1.0207895E0,2.0133045E0,1.0925158E0],"tree_param":{"num_deleted":"0","num_feature":"20","num_nodes":"9","size_leaf_vector":"1"}},{"base_weights":[-1.71874E-2,2.2655097E-1,-2.9235125E-1,-1.3377762E-2,4.8681593E-1,-3.805012E-2,1.1410955E-2,4.380869E-2,1.1413786E-2],"categories":[],"categories_nodes":[],"categories_segments":[],"categories_sizes":[],"default_left":[0,0,0,0,0,0,0,0,0],"id":56,"left_children":[1,3,5,-1,7,-1,-1,-1,-1],"loss_changes":[5.8208084E-1,5.760408E-1,4.6414894E-1,0E0,1.1843383E-2,0E0,0E0,0E0,0E0],"parents":[2147483647,0,0,1,1,2,2,4,4],"right_children":[2,4,6,-1,8,-1,-1,-1,-1],"split_conditions":[2.507397E-5,3.0117406E-5,3.2998672E-5,-1.3377762E-2,3.61323E-5,-3.805012E-2,1.1410955E-2,4.380869E-2,1.1413786E-2],"split_indices":[7,17,17,0,1,0,0,0,0],"split_type":[0,0,0,0,0,0,0,0,0],"sum_hessian":[6.691425E0,3.6420178E0,3.049407E0,1.5481148E0,2.0939028E0,1.96005E0,1.0893571E0,1.0446168E0,1.0492861E0],"tree_param":{"num_deleted":"0","num_feature":"20","num_nodes":"9","size_leaf_vector":"1"}},{"base_weights":[-1.4026165E-2,2.5811292E-2,-1.9908586E-1,-3.600366E-1,1.0172794E-2,-3.8159303E-2,-1.3910846E-3],"categories":[],"categories_nodes":[],"categories_segments":[],"categories_sizes":[],"default_left":[0,0,0,0,0,0,0],"id":57,"left_children":[1,-1,3,5,-1,-1,-1],"loss_changes":[5.736087E-1,0E0,3.5364035E-1,1.9854295E-1,0E0,0E0,0E0],"parents":[2147483647,0,0,2,2,3,3],"right_children":[2,-1,4,6,-1,-1,-1],"split_conditions":[1.6642654E-5,2.5811292E-2,2.318039E-5,4.309271E-5,1.0172794E-2,-3.8159303E-2,-1.3910846E-3],"split_indices":[5,0,4,6,0,0,0],"split_type":[0,0,0,0,0,0,0],"sum_hessian":[6.620128E0,1.962365E0,4.6577635E0,3.0942676E0,1.5634958E0,1.8141129E0,1.2801546E0],"tree_param":{"num_deleted":"0","num_feature":"20","num_nodes":"7","size_leaf_vector":"1"}},{"base_weights":[-1.360277E-2,1.7321905E-1,-2.7261943E-2,4.4924118E-2,-5.4717056E-2,-3.3948E-2,2.8373286E-2],"categories":[],"categories_nodes":[],"categories_segments":[],"categories_sizes":[],"default_left":[0,0,0,0,0,0,0],"id":58,"left_children":[1,3,-1,-1,5,-1,-1],"loss_changes":[5.5746233E-1,5.7711375E-1,0E0,0E0,9.586169E-1,0E0,0E0],"parents":[2147483647,0,0,1,1,4,4],"right_children":[2,4,-1,-1,6,-1,-1],"split_conditions":[4.649582E-3,1.5235153E-5,-2.7261943E-2,4.4924118E-2,1.5735372E-5,-3.3948E-2,2.8373286E-2],"split_indices":[18,3,0,0,3,0,0],"split_type":[0,0,0,0,0,0,0],"sum_hessian":[6.5649505E0,4.6089554E0,1.9559952E0,1.0394518E0,3.5695035E0,1.8365484E0,1.7329551E0],"tree_param":{"num_deleted":"0","num_feature":"20","num_nodes":"7","size_leaf_vector":"1"}},{"base_weights":[-1.1065327E-2,2.2346666E-1,-2.7862042E-1,-1.3105298E-2,3.6098633E-2,-4.4294793E-2,4.002557E-3],"categories":[],"categories_nodes":[],"categories_segments":[],"categories_sizes":[],"default_left":[0,0,0,0,0,0,0],"id":59,"left_children":[1,3,5,-1,-1,-1,-1],"loss_changes":[5.308491E-1,5.496631E-1,4.388949E-1,0E0,0E0,0E0,0E0],"parents":[2147483647,0,0,1,1,2,2],"right_children":[2,4,6,-1,-1,-1,-1],"split_conditions":[2.507397E-5,3.0117406E-5,3.129822E-5,-1.3105298E-2,3.6098633E-2,-4.4294793E-2,4.002557E-3],"split_indices":[7,17,9,0,0,0,0],"split_type":[0,0,0,0,0,0,0],"sum_hessian":[6.4674907E0,3.5342445E0,2.9332461E0,1.5157487E0,2.0184958E0,1.1106086E0,1.8226376E0],"tree_param":{"num_deleted":"0","num_feature":"20","num_nodes":"7","size_leaf_vector":"1"}},{"base_weights":[-1.2720269E-2,1.6782363E-1,-2.6247455E-2,-1.628914E-2,3.8237882E-1,4.6285413E-2,-9.759655E-3],"categories":[],"categories_nodes":[],"categories_segments":[],"categories_sizes":[],"default_left":[0,0,0,0,0,0,0],"id":60,"left_children":[1,3,-1,-1,5,-1,-1],"loss_changes":[5.0897944E-1,5.367385E-1,0E0,0E0,5.482241E-1,0E0,0E0],"parents":[2147483647,0,0,1,1,4,4],"right_children":[2,4,-1,-1,6,-1,-1],"split_conditions":[4.649582E-3,5.261305E-5,-2.6247455E-2,-1.628914E-2,4.2882627E-3,4.6285413E-2,-9.759655E-3],"split_indices":[18,18,0,0,5,0,0],"split_type":[0,0,0,0,0,0,0],"sum_hessian":[6.394714E0,4.4921956E0,1.9025184E0,1.6031404E0,2.8890553E0,1.8414173E0,1.0476378E0],"tree_param":{"num_deleted":"0","num_feature":"20","num_nodes":"7","size_leaf_vector":"1"}},{"base_weights":[-1.2594742E-2,2.5568543E-2,-1.8379962E-1,-3.754535E-1,1.1755952E-2,-4.2321615E-2,-1.2132451E-3],"categories":[],"categories_nodes":[],"categories_segments":[],"categories_sizes":[],"default_left":[0,0,0,0,0,0,0],"id":61,"left_children":[1,-1,3,5,-1,-1,-1],"loss_changes":[5.04815E-1,0E0,4.224953E-1,2.5273132E-1,0E0,0E0,0E0],"parents":[2147483647,0,0,2,2,3,3],"right_children":[2,-1,4,6,-1,-1,-1],"split_conditions":[1.5250721E-5,2.5568543E-2,1.592605E-5,7.3153947E-6,1.1755952E-2,-4.2321615E-2,-1.2132451E-3],"split_indices":[3,0,3,13,0,0,0],"split_type":[0,0,0,0,0,0,0],"sum_hessian":[6.305643E0,1.7339898E0,4.5716534E0,2.8597336E0,1.7119199E0,1.5004697E0,1.3592639E0],"tree_param":{"num_deleted":"0","num_feature":"20","num_nodes":"7","size_leaf_vector":"1"}},{"base_weights":[-1.2609405E-2,1.667055E-1,-2.569018E-2,-1.0549277E-1,3.469244E-2,-2.4748193E-2,1.5075962E-2],"categories":[],"categories_nodes":[],"categories_segments":[],"categories_sizes":[],"default_left":[0,0,0,0,0,0,0],"id":62,"left_children":[1,3,-1,5,-1,-1,-1],"loss_changes":[4.8718315E-1,4.8226613E-1,0E0,3.1524336E-1,0E0,0E0,0E0],"parents":[2147483647,0,0,1,1,3,3],"right_children":[2,4,-1,6,-1,-1,-1],"split_conditions":[4.649582E-3,2.2867522E-5,-2.569018E-2,4.5295797E-5,3.469244E-2,-2.4748193E-2,1.5075962E-2],"split_indices":[18,4,0,6,0,0,0],"split_type":[0,0,0,0,0,0,0],"sum_hessian":[6.2697E0,4.3825197E0,1.8871801E0,2.617655E0,1.7648649E0,1.4668025E0,1.1508524E0],"tree_param":{"num_deleted":"0","num_feature":"20","num_nodes":"7","size_leaf_vector":"1"}},{"base_weights":[-1.1856369E-2,2.1588504E-1,-2.7304208E-1,-1.241336E-2,3.4849007E-2,-3.5681285E-2,1.0893196E-2],"categories":[],"categories_nodes":[],"categories_segments":[],"categories_sizes":[],"default_left":[0,0,0,0,0,0,0],"id":63,"left_children":[1,3,5,-1,-1,-1,-1],"loss_changes":[4.862959E-1,4.9403203E-1,3.9028683E-1,0E0,0E0,0E0,0E0],"parents":[2147483647,0,0,1,1,2,2],"right_children":[2,4,6,-1,-1,-1,-1],"split_conditions":[2.507397E-5,3.0117406E-5,3.2998672E-5,-1.241336E-2,3.4849007E-2,-3.5681285E-2,1.0893196E-2],"split_indices":[7,17,17,0,0,0,0],"split_type":[0,0,0,0,0,0,0],"sum_hessian":[6.184433E0,3.3963878E0,2.7880452E0,1.4729013E0,1.9234865E0,1.7854159E0,1.0026293E0],"tree_param":{"num_deleted":"0","num_feature":"20","num_nodes":"7","size_leaf_vector":"1"}}]},"name":"gbtree"},"learner_model_param":{"base_score":"5.606751E-1","boost_from_average":"1","num_class":"0","num_feature":"20","num_target":"1"},"objective":{"name":"binary:logistic","reg_loss_param":{"scale_pos_weight":"1"}}},"version":[2,0,3]}