tree
version=v4
num_class=1
num_tree_per_iteration=1
label_index=0
max_feature_idx=19
objective=binary sigmoid:1
feature_names=Column_0 Column_1 Column_2 Column_3 Column_4 Column_5 Column_6 Column_7 Column_8 Column_9 Column_10 Column_11 Column_12 Column_13 Column_14 Column_15 Column_16 Column_17 Column_18 Column_19
feature_infos=[3.8759831113566179e-06:0.001198139856569469] [3.5335455322638154e-05:0.28147846460342407] [4.0163031371776015e-05:0.40256863832473755] [1.4624982213717885e-05:0.05251578614115715] [2.249192948511336e-05:0.047060735523700714] [1.4979274055804126e-05:0.097622573375701904] [3.9474794903071597e-05:0.051318947225809097] [2.415032395219896e-05:0.006788269616663456] [2.1706842744606547e-05:0.047571826726198196] [2.9006831027800217e-05:1.8812910318374634] [1.9211647668271326e-05:0.044764801859855652] [2.9781260309391655e-05:0.058247987180948257] [1.5783853086759336e-05:0.70800298452377319] [7.2429684223607183e-06:0.12120629847049713] [1.9022687411052175e-05:0.026576796546578407] [1.8523005564929917e-05:0.18829837441444397] [3.018654069819604e-06:0.071521200239658356] [2.9275528504513204e-05:0.37929323315620422] [5.2200390200596303e-05:2.5647006034851074] [5.0961411034222692e-05:0.50196146965026855]
tree_sizes=740 872 869 872 873 877 871 979 874 982 985 878 876 984 972 980 980 977 976

Tree=0
num_leaves=6
num_cat=0
split_feature=18 4 13 19 2
split_gain=30 12.0329 8.63636 7.63099 0.304054
threshold=0.0016897871391847732 2.2850869754620365e-05 7.3887440521502876e-06 6.0396107073756873e-05 4.2231322368024855e-05
decision_type=2 2 2 2 2
left_child=1 3 -2 -1 -3
right_child=2 4 -4 -5 -6
leaf_value=0.44072151896157608 0.28046510034714256 0.48879844454590621 0.39410146991010458 0.32213176918689534 0.46796511012602982
leaf_weight=3.1199999302625683 4.5599998980760565 6.4799998551607114 2.6399999409914017 2.3999999463558197 2.3999999463558197
leaf_count=13 19 27 11 10 10
internal_value=0.405465 0.447132 0.322132 0.389161 0.483168
internal_weight=0 14.4 7.2 5.52 8.88
internal_count=90 60 30 23 37
is_linear=0
shrinkage=1


Tree=1
num_leaves=7
num_cat=0
split_feature=18 13 18 5 14 2
split_gain=26.8969 7.50053 5.52983 6.18189 0.302744 0.00101301
threshold=0.0016897871391847732 7.3887440521502876e-06 5.261253681965173e-05 0.016848998144268993 2.3034800506138712e-05 4.217333116685041e-05
decision_type=2 2 2 2 2 2
left_child=2 -2 -1 4 -4 -6
right_child=1 -3 3 -5 5 -7
leaf_value=-0.022133356100628471 -0.11618726653819665 -0.010770642681204468 0.060517506569597916 -0.011558561722239867 0.080871461379914522 0.082137394882980233
leaf_weight=2.8632128983736065 4.6578015834093085 2.6459247320890427 2.3707622140645963 2.6352630853652945 3.5398363173007965 2.8546501845121384
leaf_count=12 19 11 10 11 15 12
internal_value=0 -0.0779979 0.0399885 0.0555903 0.0757786 0.0814366
internal_weight=0 7.30373 14.2637 11.4005 8.76525 6.39449
internal_count=90 30 60 48 37 27
is_linear=0
shrinkage=0.05


Tree=2
num_leaves=7
num_cat=0
split_feature=18 13 18 5 6 6
split_gain=24.2129 6.61676 5.08467 5.74912 0.299048 0.000943432
threshold=0.0016897871391847732 7.3887440521502876e-06 5.261253681965173e-05 0.016848998144268993 4.2503284930717207e-05 0.0010632539051584902
decision_type=2 2 2 2 2 2
left_child=2 -2 -1 4 -4 -6
right_child=1 -3 3 -5 5 -7
leaf_value=-0.020928710485157903 -0.10892708591678937 -0.010210418019239656 0.058090328831338467 -0.01095480577340438 0.079744696038638929 0.078511237123073785
leaf_weight=2.8762693405151394 4.7180963903665534 2.6514005661010742 2.3317519277334195 2.641315668821334 2.8028083145618439 3.4689342975616455
leaf_count=12 19 11 10 11 12 15
internal_value=0 -0.0734108 0.0383951 0.0535693 0.0733785 0.0790625
internal_weight=0 7.3695 14.1211 11.2448 8.60349 6.27174
internal_count=90 30 60 48 37 27
is_linear=0
shrinkage=0.05


Tree=3
num_leaves=7
num_cat=0
split_feature=18 4 19 13 4 9
split_gain=21.8773 10.6393 6.69633 5.9133 0.318447 0.0039831
threshold=0.0016897871391847732 2.2850869754620365e-05 6.0396107073756873e-05 7.3887440521502876e-06 0.00011196199920959772 0.00029816901951562619
decision_type=2 2 2 2 2 2
left_child=1 2 -1 -2 5 -3
right_child=3 4 -4 -5 -6 -7
leaf_value=0.031816572207424225 -0.10284557035599068 0.077234815842286919 -0.07945359775159154 -0.0096809165051833929 0.057019289695009939 0.079880022067733536
leaf_weight=3.0585485994815853 4.7463635802268973 3.6460105180740339 2.4235384464263916 2.6564648151397705 2.5007417500019073 2.3342193216085434
leaf_count=13 19 16 10 11 11 10
internal_value=0 0.0369117 -0.0173741 -0.0694139 0.072002 0.0782673
internal_weight=0 13.9631 5.48209 7.40283 8.48097 5.98023
internal_count=90 60 23 30 37 26
is_linear=0
shrinkage=0.05


Tree=4
num_leaves=7
num_cat=0
split_feature=18 4 19 13 11 9
split_gain=19.8328 9.86611 5.98511 5.34246 0.315303 0.00367514
threshold=0.0016897871391847732 2.2850869754620365e-05 6.0396107073756873e-05 7.3887440521502876e-06 3.039805505977711e-05 3.4730321203824139e-05
decision_type=2 2 2 2 2 2
left_child=1 2 -1 -2 5 -3
right_child=3 4 -4 -5 -6 -7
leaf_value=0.030469011686060962 -0.097680769247743202 0.075063433302938021 -0.074560145856948298 -0.0091802460057673878 0.054870876480172907 0.077574687810468029
leaf_weight=3.0347447544336346 4.7473222315311423 3.1102763116359693 2.4526602625846863 2.6611517369747162 2.4487109333276749 2.7407099306583405
leaf_count=13 19 14 10 11 11 12
internal_value=0 0.035543 -0.016475 -0.065891 0.0699352 0.0762398
internal_weight=0 13.7871 5.48741 7.40847 8.2997 5.85099
internal_count=90 60 23 30 37 26
is_linear=0
shrinkage=0.05


Tree=5
num_leaves=7
num_cat=0
split_feature=18 4 19 13 15 9
split_gain=18.0299 9.16584 5.36703 4.87147 0.322443 0.00337042
threshold=0.0016897871391847732 2.2850869754620365e-05 6.0396107073756873e-05 7.3887440521502876e-06 1.8795688447426077e-05 3.2600517442915595e-05
decision_type=2 2 2 2 2 2
left_child=1 2 -1 -2 -3 -6
right_child=3 4 -4 -5 5 -7
leaf_value=0.029181846361487643 -0.093243517171389498 0.051679474473927151 -0.070223033218197992 -0.0087066598128390724 0.073186102807912434 0.075648096126182715
leaf_weight=3.0107928663492229 4.725060060620307 2.1959144473075849 2.4733559638261795 2.6654921472072601 3.6788149923086166 2.2344425916671753
leaf_count=13 19 10 10 11 17 10
internal_value=0 0.0342762 -0.0156498 -0.0627543 0.0680406 0.0741164
internal_weight=0 13.5933 5.48415 7.39055 8.10917 5.91326
internal_count=90 60 23 30 37 27
is_linear=0
shrinkage=0.05


Tree=6
num_leaves=7
num_cat=0
split_feature=18 4 19 13 14 6
split_gain=16.4304 8.53009 4.82604 4.47716 0.326882 0.00188142
threshold=0.0016897871391847732 2.2850869754620365e-05 6.0396107073756873e-05 7.3887440521502876e-06 0.0050963251851499089 0.00055049167713150393
decision_type=2 2 2 2 2 2
left_child=1 2 -1 -2 5 -3
right_child=3 4 -4 -5 -6 -7
leaf_value=0.027950989828670184 -0.089393621451907768 0.073362727070180059 -0.066341881446489628 -0.008258534550069049 0.049648295289699218 0.071553709165209853
leaf_weight=2.9868292659521121 4.6831325143575659 3.0279595553874969 2.486768901348114 2.6695144027471542 2.1471218019723892 2.7359362244606018
leaf_count=13 19 14 10 11 10 13
internal_value=0 0.0330988 -0.0148882 -0.059936 0.0663008 0.072504
internal_weight=0 13.3846 5.4736 7.35265 7.91102 5.7639
internal_count=90 60 23 30 37 27
is_linear=0
shrinkage=0.05


Tree=7
num_leaves=8
num_cat=0
split_feature=18 4 19 4 3 15 9
split_gain=15.0036 7.95014 4.34966 4.21586 0.460039 0.320997 0.00226469
threshold=0.0016897871391847732 2.2850869754620365e-05 6.0396107073756873e-05 2.3147663341660522e-05 1.5580898434564009e-05 1.8795688447426077e-05 3.2600517442915595e-05
decision_type=2 2 2 2 2 2 2
left_child=1 2 -1 4 -2 -3 -7
right_child=3 5 -4 -5 -6 6 -8
leaf_value=0.02677284168470416 -0.068878038897684637 0.048040528593684247 -0.062839162689333233 -0.003624769077967101 -0.099625199173087542 0.070158677753182283 0.072230742162443753
leaf_weight=2.9629711359739321 2.4336416125297538 2.104375809431076 2.4939025938510895 2.4317420125007629 2.4325018525123596 3.4802705049514771 2.1231583058834076
leaf_count=13 10 10 10 10 10 17 10
internal_value=0 0.0319975 -0.0141817 -0.0573834 -0.084248 0.0646908 0.0709438
internal_weight=0 13.1647 5.45687 7.29789 4.86614 7.7078 5.60343
internal_count=90 60 23 30 20 37 27
is_linear=0
shrinkage=0.05


Tree=8
num_leaves=7
num_cat=0
split_feature=18 4 13 19 7 13
split_gain=13.6829 7.41958 4.14588 3.92801 0.336807 0.00129886
threshold=0.0016897871391847732 2.2850869754620365e-05 7.3887440521502876e-06 6.0396107073756873e-05 2.5244320568162951e-05 7.3530620738893057e-06
decision_type=2 2 2 2 2 2
left_child=1 3 -2 -1 5 -3
right_child=2 4 -4 -5 -6 -7
leaf_value=0.025644227221877341 -0.083790477736602975 0.070362407471280503 -0.0055596297647104685 -0.059654053244596494 0.045893072094672284 0.068806927792652073
leaf_weight=2.9393183588981646 4.570306032896041 3.0726440846920013 2.6905728280544281 2.4956394731998444 2.0456304550170898 2.382825493812561
leaf_count=13 19 15 11 10 10 12
internal_value=0 0.0309627 -0.0548015 -0.0135233 0.0631952 0.069683
internal_weight=0 12.9361 7.26088 5.43496 7.5011 5.45547
internal_count=90 60 30 23 37 27
is_linear=0
shrinkage=0.05


Tree=9
num_leaves=8
num_cat=0
split_feature=18 4 14 19 5 14 17
split_gain=12.5334 6.93246 3.99231 3.55315 0.448222 0.339526 0.00124123
threshold=0.0016897871391847732 2.2850869754620365e-05 0.0023366240784525876 6.0396107073756873e-05 0.00019713647634489464 0.0050963251851499089 3.1257251976057894e-05
decision_type=2 2 2 2 2 2 2
left_child=1 3 4 -1 -2 6 -3
right_child=2 5 -4 -5 -6 -7 -8
leaf_value=0.024562315458002529 -0.063687929591937198 0.06909638810521658 -0.0001801109528009829 -0.056738192692948886 -0.094332952071521647 0.044231900920277657 0.067552527018204606
leaf_weight=2.9159558713436144 2.3665142655372611 2.9881758093833923 2.408778041601181 2.4927557557821274 2.4066241979598999 1.9974614381790159 2.3070331066846848
leaf_count=13 10 15 10 10 10 10 12
internal_value=0 0.0299855 -0.0526567 -0.0129073 -0.0791392 0.0617976 0.0684238
internal_weight=0 12.7014 7.18192 5.40871 4.77314 7.29267 5.29521
internal_count=90 60 30 23 20 37 27
is_linear=0
shrinkage=0.05


Tree=10
num_leaves=8
num_cat=0
split_feature=18 4 4 19 3 4 9
split_gain=11.4592 6.48429 3.69049 3.21861 0.390064 0.344577 0.000883445
threshold=0.0016897871391847732 2.2850869754620365e-05 2.3147663341660522e-05 6.0396107073756873e-05 1.5580898434564009e-05 0.00011196199920959772 3.4730321203824139e-05
decision_type=2 2 2 2 2 2 2
left_child=1 3 4 -1 -2 6 -3
right_child=2 5 -4 -5 -6 -7 -8
leaf_value=0.023524582666077876 -0.061645927208456401 0.066896510808802101 -5.6448232890582496e-05 -0.054052688885905635 -0.090399076601337239 0.043455410940636333 0.068232892617435356
leaf_weight=2.8929549008607882 2.3406499028205863 2.2600184231996536 2.4072794169187546 2.4859350323677063 2.3777214139699936 2.0923472940921783 2.731194943189621
leaf_count=13 10 12 10 10 10 11 14
internal_value=0 0.0290595 -0.0504335 -0.0123289 -0.0761355 0.0604877 0.0676278
internal_weight=0 12.4625 7.12565 5.37889 4.71837 7.08356 4.99121
internal_count=90 60 30 23 20 37 26
is_linear=0
shrinkage=0.05


Tree=11
num_leaves=7
num_cat=0
split_feature=18 4 13 19 7 10
split_gain=10.4903 6.06992 3.90224 2.91906 0.356021 0.000687134
threshold=0.0016897871391847732 2.2850869754620365e-05 7.3887440521502876e-06 6.0396107073756873e-05 2.5244320568162951e-05 1.9558630810934122e-05
decision_type=2 2 2 2 2 2
left_child=1 3 -2 -1 5 -3
right_child=2 4 -4 -5 -6 -7
leaf_value=0.022528765970036842 -0.077721262202919791 0.066737422499029239 -0.0012801702640837585 -0.051565922013168154 0.040785861248180622 0.065538411339010158
leaf_weight=2.8703750371933001 4.3495942652225486 2.9950093626976013 2.7096113115549088 2.4757789969444275 1.892641097307205 1.9880914539098737
leaf_count=13 19 16 11 10 10 11
internal_value=0 0.0281764 -0.0483801 -0.0117841 0.0592472 0.0662591
internal_weight=0 12.2219 7.05921 5.34615 6.87574 4.9831
internal_count=90 60 30 23 37 27
is_linear=0
shrinkage=0.05


Tree=12
num_leaves=7
num_cat=0
split_feature=18 4 13 19 14 14
split_gain=9.63958 5.6878 3.66687 2.65009 0.361327 0.000690195
threshold=0.0016897871391847732 2.2850869754620365e-05 7.3887440521502876e-06 6.0396107073756873e-05 0.0050963251851499089 0.00063757412135601055
decision_type=2 2 2 2 2 2
left_child=1 3 -2 -1 5 -3
right_child=2 4 -4 -5 -6 -7
leaf_value=0.021572821397607259 -0.075653558278274136 0.065804994965026606 -0.0012159996704328682 -0.04925195223012379 0.039265148242279155 0.064598231795603075
leaf_weight=2.848265156149866 4.2476292997598639 2.7294721156358719 2.7099668383598328 2.4628174006938934 1.8452131599187849 2.0937604755163193
leaf_count=13 19 15 11 10 10 12
internal_value=0 0.0273354 -0.0466603 -0.0112695 0.0580823 0.0652811
internal_weight=0 11.9795 6.9576 5.31108 6.66845 4.82323
internal_count=90 60 30 23 37 27
is_linear=0
shrinkage=0.05


Tree=13
num_leaves=8
num_cat=0
split_feature=18 4 14 13 9 2 18
split_gain=8.86574 5.33385 3.49535 2.52372 0.431197 0.370317 0.000530945
threshold=0.0016897871391847732 2.2850869754620365e-05 0.0023366240784525876 7.283220156750759e-06 2.9561125302279837e-05 4.2231322368024855e-05 5.4815871408209211e-05
decision_type=2 2 2 2 2 2 2
left_child=1 3 4 -1 -2 6 -3
right_child=2 5 -4 -5 -6 -7 -8
leaf_value=-0.046998835694846454 -0.055041521213648636 0.064897135358745348 0.0042550761819588447 0.022248555842732918 -0.086030939774288495 0.037661349879503363 0.063829220351807436
leaf_weight=2.5157676637172717 2.1903671920299521 2.4664676636457443 2.3574202507734299 2.7584137767553329 2.3024561852216721 1.7929072529077528 2.2038993686437607
leaf_count=11 10 14 10 12 10 10 13
internal_value=0 0.0265301 -0.0450513 -0.0107822 -0.0709228 0.0569778 0.0643932
internal_weight=0 11.7375 6.85024 5.27418 4.49282 6.46327 4.67037
internal_count=90 60 30 23 20 37 27
is_linear=0
shrinkage=0.05


Tree=14
num_leaves=8
num_cat=0
split_feature=18 18 5 14 7 14 2
split_gain=8.12203 4.2814 4.14375 3.24645 0.406435 0.311317 0.076433
threshold=0.0016897871391847732 5.261253681965173e-05 0.016848998144268993 0.0023366240784525876 2.5471978005953136e-05 6.0742278947145685e-05 4.2231322368024855e-05
decision_type=2 2 2 2 2 2 2
left_child=1 -1 5 4 -2 -3 -7
right_child=3 2 -4 -5 -6 6 -8
leaf_value=-0.031483052416675393 -0.053023752069987551 0.045638742733017129 -0.014913733536200164 0.0040418138184997844 -0.083385152582464109 0.064249900815481181 0.07748252524174086
leaf_weight=2.5534358322620418 2.1439534574747077 1.991879016160963 2.3662906736135483 2.3577093482017517 2.2686402499675751 2.872827410697937 1.7596915960311887
leaf_count=12 10 11 11 10 10 17 9
internal_value=0 0.0256538 0.0418812 -0.0433248 -0.0686334 0.0621688 0.0692764
internal_weight=0 11.5441 8.99069 6.7703 4.41259 6.6244 4.63252
internal_count=90 60 48 30 20 37 26
is_linear=0
shrinkage=0.05


Tree=15
num_leaves=8
num_cat=0
split_feature=4 18 18 9 11 3 9
split_gain=7.92609 4.50611 2.93921 2.81398 0.466219 0.343616 0.0221333
threshold=2.3147663341660522e-05 0.0016897871391847732 0.0067543983459472665 3.2600517442915595e-05 3.039805505977711e-05 1.5580898434564009e-05 3.4730321203824139e-05
decision_type=2 2 2 2 2 2 2
left_child=1 3 4 -1 6 -3 -2
right_child=2 5 -4 -5 -6 -7 -8
leaf_value=-0.026869007544305198 0.062644046607483364 -0.052693233011744139 -0.015795784611440013 0.043142058849629294 0.035477556453948136 -0.080816316922709533 0.07013034998393633
leaf_weight=3.7967329770326632 2.0857073962688442 2.1323849707841873 1.8530075848102567 2.3075569570064545 1.7963993996381757 2.2137117236852646 1.8747457861900327
leaf_count=17 13 10 8 11 11 10 10
internal_value=0 -0.0281069 0.0389752 -0.000403272 0.0566048 -0.0670179 0.0661878
internal_weight=0 10.4504 7.60986 6.10429 5.75685 4.3461 3.96045
internal_count=90 48 42 28 34 20 23
is_linear=0
shrinkage=0.05


Tree=16
num_leaves=8
num_cat=0
split_feature=4 18 18 9 11 3 9
split_gain=7.29103 4.19149 3.83122 2.55235 0.504151 0.323497 0.0334305
threshold=2.3147663341660522e-05 0.0016897871391847732 0.016630535013973716 3.2600517442915595e-05 3.039805505977711e-05 1.5580898434564009e-05 3.4730321203824139e-05
decision_type=2 2 2 2 2 2 2
left_child=1 3 4 -1 6 -3 -2
right_child=2 5 -4 -5 -6 -7 -8
leaf_value=-0.025417690821224526 0.061877996683057636 -0.051019771482037991 -0.030418024812410956 0.041423653509443298 0.034432337302478827 -0.078589923380374432 0.070945343902186445
leaf_weight=3.8124265372753161 2.0079225599765769 2.0932157933712006 1.6065121889114378 2.2837337851524353 1.7593387663364408 2.1638645529747009 2.0588618069887161
leaf_count=17 13 10 7 11 11 10 11
internal_value=0 -0.0269631 0.037944 -0.000377694 0.0567944 -0.0650336 0.0664685
internal_weight=0 10.3532 7.43264 6.09616 5.82612 4.25708 4.06678
internal_count=90 48 42 28 35 20 24
is_linear=0
shrinkage=0.05


Tree=17
num_leaves=8
num_cat=0
split_feature=4 18 18 9 5 3 9
split_gain=6.7151 3.90477 3.57853 2.3159 0.450161 0.307013 0.0320343
threshold=2.3147663341660522e-05 0.0016897871391847732 0.016630535013973716 3.2600517442915595e-05 1.7548089999763764e-05 1.5580898434564009e-05 3.4730321203824139e-05
decision_type=2 2 2 2 2 2 2
left_child=1 3 4 -1 -2 -3 -6
right_child=2 5 -4 -5 6 -7 -8
leaf_value=-0.024056510891752734 0.035630143423289837 -0.049422412564021391 -0.029023852609132622 0.039781139803650008 0.061117457529171172 -0.076575264552384878 0.070327260041882403
leaf_weight=3.8263642638921755 1.8708736151456822 2.0538366883993149 1.599674269556999 2.2597448378801346 1.9314091056585314 2.1110919266939163 1.8471809625625608
leaf_count=17 12 10 7 11 13 10 10
internal_value=0 -0.0258819 0.0369949 -0.000353879 0.0556884 -0.0631855 0.0656197
internal_weight=0 10.251 7.24914 6.08611 5.64946 4.16493 3.77859
internal_count=90 48 42 28 35 20 23
is_linear=0
shrinkage=0.05


Tree=18
num_leaves=8
num_cat=0
split_feature=4 18 18 14 11 3 9
split_gain=6.1874 3.64247 3.34479 2.41576 0.494008 0.293468 0.0233249
threshold=2.3147663341660522e-05 0.0016897871391847732 0.016630535013973716 2.1378987185016744e-05 3.039805505977711e-05 1.5580898434564009e-05 3.4730321203824139e-05
decision_type=2 2 2 2 2 2 2
left_child=1 3 4 -1 6 -3 -2
right_child=2 5 -4 -5 -6 -7 -8
leaf_value=-0.035639195613913599 0.060603187863376366 -0.047892961363505751 -0.027697832077474133 0.02782743874859089 0.03199059051947898 -0.074745109658534842 0.068436721866188308
leaf_weight=2.6951368749141711 1.8666747957468026 2.0144649744033813 1.5926274508237837 3.3793158531188965 1.6735165417194364 2.0560391694307327 1.9356389194726942
leaf_count=12 13 10 7 16 11 10 11
internal_value=0 -0.0248569 0.0360785 -0.000331685 0.0546277 -0.0614562 0.064591
internal_weight=0 10.145 7.06846 6.07445 5.47583 4.0705 3.80231
internal_count=90 48 42 28 35 20 24
is_linear=0
shrinkage=0.05


end of trees

feature_importances:
Column_18=27
Column_4=20
Column_9=13
Column_13=12
Column_19=11
Column_14=10
Column_3=6
Column_5=5
Column_2=4
Column_11=4
Column_6=3
Column_7=3
Column_15=2
Column_10=1
Column_17=1

parameters:
[boosting: gbdt]
[objective: binary]
[metric: binary_logloss]
[tree_learner: serial]
[device_type: cpu]
[data_sample_strategy: bagging]
[data: ]
[valid: ]
[num_iterations: 10000]
[learning_rate: 0.05]
[num_leaves: 63]
[num_threads: 0]
[seed: 4]
[deterministic: 0]
[force_col_wise: 0]
[force_row_wise: 0]
[histogram_pool_size: -1]
[max_depth: -1]
[min_data_in_leaf: 10]
[min_sum_hessian_in_leaf: 0.001]
[bagging_fraction: 0.9]
[pos_bagging_fraction: 1]
[neg_bagging_fraction: 1]
[bagging_freq: 0]
[bagging_seed: 17945]
[feature_fraction: 0.9]
[feature_fraction_bynode: 1]
[feature_fraction_seed: 386]
[extra_trees: 0]
[extra_seed: 27504]
[early_stopping_round: 0]
[first_metric_only: 0]
[max_delta_step: 0]
[lambda_l1: 0]
[lambda_l2: 0]
[linear_lambda: 0]
[min_gain_to_split: 0]
[drop_rate: 0.1]
[max_drop: 50]
[skip_drop: 0.5]
[xgboost_dart_mode: 0]
[uniform_drop: 0]
[drop_seed: 27159]
[top_rate: 0.2]
[other_rate: 0.1]
[min_data_per_group: 100]
[max_cat_threshold: 32]
[cat_l2: 10]
[cat_smooth: 10]
[max_cat_to_onehot: 4]
[top_k: 20]
[monotone_constraints: ]
[monotone_constraints_method: basic]
[monotone_penalty: 0]
[feature_contri: ]
[forcedsplits_filename: ]
[refit_decay_rate: 0.9]
[cegb_tradeoff: 1]
[cegb_penalty_split: 0]
[cegb_penalty_feature_lazy: ]
[cegb_penalty_feature_coupled: ]
[path_smooth: 0]
[interaction_constraints: ]
[verbosity: -1]
[saved_feature_importance_type: 0]
[use_quantized_grad: 0]
[num_grad_quant_bins: 4]
[quant_train_renew_leaf: 0]
[stochastic_rounding: 1]
[linear_tree: 0]
[max_bin: 255]
[max_bin_by_feature: ]
[min_data_in_bin: 3]
[bin_construct_sample_cnt: 200000]
[data_random_seed: 51]
[is_enable_sparse: 1]
[enable_bundle: 1]
[use_missing: 1]
[zero_as_missing: 0]
[feature_pre_filter: 1]
[pre_partition: 0]
[two_round: 0]
[header: 0]
[label_column: ]
[weight_column: ]
[group_column: ]
[ignore_column: ]
[categorical_feature: ]
[forcedbins_filename: ]
[precise_float_parser: 0]
[parser_config_file: ]
[objective_seed: 17345]
[num_class: 1]
[is_unbalance: 0]
[scale_pos_weight: 1]
[sigmoid: 1]
[boost_from_average: 1]
[reg_sqrt: 0]
[alpha: 0.9]
[fair_c: 1]
[poisson_max_delta_step: 0.7]
[tweedie_variance_power: 1.5]
[lambdarank_truncation_level: 30]
[lambdarank_norm: 1]
[label_gain: ]
[lambdarank_position_bias_regularization: 0]
[eval_at: ]
[multi_error_top_k: 1]
[auc_mu_weights: ]
[num_machines: 1]
[local_listen_port: 12400]
[time_out: 120]
[machine_list_filename: ]
[machines: ]
[gpu_platform_id: -1]
[gpu_device_id: -1]
[gpu_use_dp: 0]
[num_gpu: 1]

end of parameters

pandas_categorical:null
